genomestart 52
trait 1 0 0 0 0 0 0 0 0 
node 1 1 1 1 0
node 2 1 1 1 0
node 3 1 1 1 0
node 4 1 1 1 0
node 5 1 1 1 0
node 6 1 1 1 0
node 7 1 1 1 0
node 8 1 1 1 0
node 9 1 1 1 0
node 10 1 1 1 0
node 11 1 1 1 0
node 12 1 1 1 0
node 13 1 1 1 0
node 14 1 1 1 0
node 15 1 1 1 0
node 16 1 1 1 0
node 17 1 1 1 0
node 18 1 1 1 0
node 19 1 1 3 0
node 20 1 0 2 0
node 21 1 0 2 0
node 22 1 0 2 0
node 23 1 0 2 0
gene 1 1 20 -0.0999896 0 1 -0.0999896 1
gene 1 2 20 -0.449955 0 2 -0.449955 1
gene 1 3 20 0.702943 0 3 0.702943 1
gene 1 4 20 0.742222 0 4 0.742222 1
gene 1 5 20 0.236442 0 5 0.236442 1
gene 1 6 20 0.97066 0 6 0.97066 1
gene 1 7 20 -0.293752 0 7 -0.293752 1
gene 1 8 20 0.923743 0 8 0.923743 1
gene 1 9 20 0.236833 0 9 0.236833 1
gene 1 10 20 0.736055 0 10 0.736055 1
gene 1 11 20 0.753966 0 11 0.753966 1
gene 1 12 20 0.3787 0 12 0.3787 1
gene 1 13 20 0.615692 0 13 0.615692 1
gene 1 14 20 -0.255342 0 14 -0.255342 1
gene 1 15 20 0.559003 0 15 0.559003 1
gene 1 16 20 0.349159 0 16 0.349159 1
gene 1 17 20 -0.629889 0 17 -0.629889 1
gene 1 18 20 0.735665 0 18 0.735665 1
gene 1 19 20 -0.31201 0 19 -0.31201 1
gene 1 1 21 0.609451 0 20 0.609451 1
gene 1 2 21 0.196826 0 21 0.196826 1
gene 1 3 21 -0.070927 0 22 -0.070927 1
gene 1 4 21 -0.0610247 0 23 -0.0610247 1
gene 1 5 21 -0.0855551 0 24 -0.0855551 1
gene 1 6 21 0.0238306 0 25 0.0238306 1
gene 1 7 21 -0.257353 0 26 -0.257353 1
gene 1 8 21 -0.420738 0 27 -0.420738 1
gene 1 9 21 -0.813607 0 28 -0.813607 1
gene 1 10 21 -1.27268 0 29 -1.27268 1
gene 1 11 21 0.0322146 0 30 0.0322146 1
gene 1 12 21 0.326587 0 31 0.326587 1
gene 1 13 21 -0.436641 0 32 -0.436641 1
gene 1 14 21 0.366226 0 33 0.366226 1
gene 1 15 21 0.514576 0 34 0.514576 1
gene 1 16 21 -0.128526 0 35 -0.128526 1
gene 1 17 21 -0.477362 0 36 -0.477362 1
gene 1 18 21 0.936586 0 37 0.936586 1
gene 1 19 21 0.639308 0 38 0.639308 1
gene 1 1 22 0.511182 0 39 0.511182 1
gene 1 2 22 0.132676 0 40 0.132676 1
gene 1 3 22 -0.656381 0 41 -0.656381 1
gene 1 4 22 -0.139591 0 42 -0.139591 1
gene 1 5 22 1.26565 0 43 1.26565 1
gene 1 6 22 -0.890171 0 44 -0.890171 1
gene 1 7 22 -0.430565 0 45 -0.430565 1
gene 1 8 22 -0.662484 0 46 -0.662484 1
gene 1 9 22 0.112717 0 47 0.112717 1
gene 1 10 22 -0.118689 0 48 -0.118689 1
gene 1 11 22 0.0556855 0 49 0.0556855 1
gene 1 12 22 0.35396 0 50 0.35396 1
gene 1 13 22 0.0692146 0 51 0.0692146 1
gene 1 14 22 0.590374 0 52 0.590374 1
gene 1 15 22 -0.260427 0 53 -0.260427 1
gene 1 16 22 0.357829 0 54 0.357829 1
gene 1 17 22 0.92514 0 55 0.92514 1
gene 1 18 22 -0.646629 0 56 -0.646629 1
gene 1 19 22 1.03928 0 57 1.03928 1
gene 1 1 23 -0.174463 0 58 -0.174463 1
gene 1 2 23 -0.461125 0 59 -0.461125 1
gene 1 3 23 -0.110362 0 60 -0.110362 1
gene 1 4 23 0.207979 0 61 0.207979 1
gene 1 5 23 0.336927 0 62 0.336927 1
gene 1 6 23 -0.189015 0 63 -0.189015 1
gene 1 7 23 0.245554 0 64 0.245554 1
gene 1 8 23 -0.2877 0 65 -0.2877 1
gene 1 9 23 -0.022052 0 66 -0.022052 1
gene 1 10 23 0.22366 0 67 0.22366 1
gene 1 11 23 -0.366856 0 68 -0.366856 1
gene 1 12 23 0 0 69 0 1
gene 1 13 23 -0.475716 0 70 -0.475716 1
gene 1 14 23 0.0553559 0 71 0.0553559 1
gene 1 15 23 0.0610998 0 72 0.0610998 1
gene 1 16 23 0.243506 0 73 0.243506 1
gene 1 17 23 -0.732132 0 74 -0.732132 1
gene 1 18 23 -0.16887 0 75 -0.16887 1
gene 1 19 23 0.0527254 0 76 0.0527254 1
genomeend 52
genomestart 57
trait 1 0 0 0 0 0 0 0 0 
node 1 1 1 1 0
node 2 1 1 1 0
node 3 1 1 1 0
node 4 1 1 1 0
node 5 1 1 1 0
node 6 1 1 1 0
node 7 1 1 1 0
node 8 1 1 1 0
node 9 1 1 1 0
node 10 1 1 1 0
node 11 1 1 1 0
node 12 1 1 1 0
node 13 1 1 1 0
node 14 1 1 1 0
node 15 1 1 1 0
node 16 1 1 1 0
node 17 1 1 1 0
node 18 1 1 1 0
node 19 1 1 3 0
node 20 1 0 2 0
node 21 1 0 2 0
node 22 1 0 2 0
node 23 1 0 2 0
gene 1 1 20 0.1959 0 1 0.1959 1
gene 1 2 20 0.389117 0 2 0.389117 1
gene 1 3 20 -0.688784 0 3 -0.688784 1
gene 1 4 20 -0.813796 0 4 -0.813796 1
gene 1 5 20 0 0 5 0 1
gene 1 6 20 0.492411 0 6 0.492411 1
gene 1 7 20 0.633182 0 7 0.633182 1
gene 1 8 20 -0.40107 0 8 -0.40107 1
gene 1 9 20 0.699296 0 9 0.699296 1
gene 1 10 20 0 0 10 0 1
gene 1 11 20 0.882233 0 11 0.882233 1
gene 1 12 20 0.568909 0 12 0.568909 1
gene 1 13 20 0.601246 0 13 0.601246 1
gene 1 14 20 0.523923 0 14 0.523923 1
gene 1 15 20 -0.374783 0 15 -0.374783 1
gene 1 16 20 -0.197118 0 16 -0.197118 1
gene 1 17 20 0.135705 0 17 0.135705 1
gene 1 18 20 0.130573 0 18 0.130573 1
gene 1 19 20 0.546722 0 19 0.546722 1
gene 1 1 21 0.039635 0 20 0.039635 1
gene 1 2 21 0.0816121 0 21 0.0816121 1
gene 1 3 21 0.287709 0 22 0.287709 1
gene 1 4 21 -0.23089 0 23 -0.23089 1
gene 1 5 21 0.639465 0 24 0.639465 1
gene 1 6 21 -0.0312561 0 25 -0.0312561 1
gene 1 7 21 0.859247 0 26 0.859247 1
gene 1 8 21 -0.452259 0 27 -0.452259 1
gene 1 9 21 0 0 28 0 1
gene 1 10 21 0.259172 0 29 0.259172 1
gene 1 11 21 -0.603973 0 30 -0.603973 1
gene 1 12 21 0.0983586 0 31 0.0983586 1
gene 1 13 21 0.249187 0 32 0.249187 1
gene 1 14 21 -0.909816 0 33 -0.909816 1
gene 1 15 21 -0.580412 0 34 -0.580412 1
gene 1 16 21 0.0868902 0 35 0.0868902 1
gene 1 17 21 0.408692 0 36 0.408692 1
gene 1 18 21 0.622168 0 37 0.622168 1
gene 1 19 21 -0.275972 0 38 -0.275972 1
gene 1 1 22 0.982244 0 39 0.982244 1
gene 1 2 22 -0.0287593 0 40 -0.0287593 1
gene 1 3 22 0.703791 0 41 0.703791 1
gene 1 4 22 0.411384 0 42 0.411384 1
gene 1 5 22 -0.10824 0 43 -0.10824 1
gene 1 6 22 -0.56308 0 44 -0.56308 1
gene 1 7 22 0.90034 0 45 0.90034 1
gene 1 8 22 0.533834 0 46 0.533834 1
gene 1 9 22 -0.573566 0 47 -0.573566 1
gene 1 10 22 -0.151005 0 48 -0.151005 1
gene 1 11 22 0.948621 0 49 0.948621 1
gene 1 12 22 -0.228708 0 50 -0.228708 1
gene 1 13 22 -0.330273 0 51 -0.330273 1
gene 1 14 22 0.331053 0 52 0.331053 1
gene 1 15 22 -0.53457 0 53 -0.53457 1
gene 1 16 22 -0.814624 0 54 -0.814624 1
gene 1 17 22 0.656615 0 55 0.656615 1
gene 1 18 22 -0.274227 0 56 -0.274227 1
gene 1 19 22 0.606286 0 57 0.606286 1
gene 1 1 23 -0.229637 0 58 -0.229637 1
gene 1 2 23 0.997362 0 59 0.997362 1
gene 1 3 23 0.878376 0 60 0.878376 1
gene 1 4 23 0.137541 0 61 0.137541 1
gene 1 5 23 -0.91492 0 62 -0.91492 1
gene 1 6 23 -0.190902 0 63 -0.190902 1
gene 1 7 23 -0.214722 0 64 -0.214722 1
gene 1 8 23 -0.594129 0 65 -0.594129 1
gene 1 9 23 0.927558 0 66 0.927558 1
gene 1 10 23 -0.518748 0 67 -0.518748 1
gene 1 11 23 0.588005 0 68 0.588005 1
gene 1 12 23 0.959829 0 69 0.959829 1
gene 1 13 23 0.590859 0 70 0.590859 1
gene 1 14 23 0.541552 0 71 0.541552 1
gene 1 15 23 0.926757 0 72 0.926757 1
gene 1 16 23 -0.00643441 0 73 -0.00643441 1
gene 1 17 23 0.244511 0 74 0.244511 1
gene 1 18 23 0.433552 0 75 0.433552 1
gene 1 19 23 0.777714 0 76 0.777714 1
genomeend 57
genomestart 65
trait 1 0 0 0 0 0 0 0 0 
node 1 1 1 1 0
node 2 1 1 1 0
node 3 1 1 1 0
node 4 1 1 1 0
node 5 1 1 1 0
node 6 1 1 1 0
node 7 1 1 1 0
node 8 1 1 1 0
node 9 1 1 1 0
node 10 1 1 1 0
node 11 1 1 1 0
node 12 1 1 1 0
node 13 1 1 1 0
node 14 1 1 1 0
node 15 1 1 1 0
node 16 1 1 1 0
node 17 1 1 1 0
node 18 1 1 1 0
node 19 1 1 3 0
node 20 1 0 2 0
node 21 1 0 2 0
node 22 1 0 2 0
node 23 1 0 2 0
gene 1 1 20 -0.81177 0 1 -0.81177 1
gene 1 2 20 -0.075847 0 2 -0.075847 1
gene 1 3 20 1.32263 0 3 1.32263 1
gene 1 4 20 0.0553204 0 4 0.0553204 1
gene 1 5 20 -1.20332 0 5 -1.20332 1
gene 1 6 20 -0.402271 0 6 -0.402271 1
gene 1 7 20 0.630361 0 7 0.630361 1
gene 1 8 20 0.452874 0 8 0.452874 1
gene 1 9 20 0.370693 0 9 0.370693 1
gene 1 10 20 0.963488 0 10 0.963488 1
gene 1 11 20 0.215892 0 11 0.215892 1
gene 1 12 20 0.0889193 0 12 0.0889193 1
gene 1 13 20 0.245769 0 13 0.245769 1
gene 1 14 20 0.397256 0 14 0.397256 1
gene 1 15 20 -0.615466 0 15 -0.615466 1
gene 1 16 20 0.720796 0 16 0.720796 1
gene 1 17 20 -0.00546847 0 17 -0.00546847 1
gene 1 18 20 0.132597 0 18 0.132597 1
gene 1 19 20 0.501852 0 19 0.501852 1
gene 1 1 21 -0.839275 0 20 -0.839275 1
gene 1 2 21 -0.475882 0 21 -0.475882 1
gene 1 3 21 0.211883 0 22 0.211883 1
gene 1 4 21 0.185741 0 23 0.185741 1
gene 1 5 21 0.494009 0 24 0.494009 1
gene 1 6 21 -0.191087 0 25 -0.191087 1
gene 1 7 21 -0.426314 0 26 -0.426314 1
gene 1 8 21 -1.31819 0 27 -1.31819 1
gene 1 9 21 -1.05268 0 28 -1.05268 1
gene 1 10 21 -0.244785 0 29 -0.244785 1
gene 1 11 21 -0.777867 0 30 -0.777867 1
gene 1 12 21 0.323123 0 31 0.323123 1
gene 1 13 21 -1.06939 0 32 -1.06939 1
gene 1 14 21 0.244039 0 33 0.244039 1
gene 1 15 21 1.20201 0 34 1.20201 1
gene 1 16 21 -0.801649 0 35 -0.801649 1
gene 1 17 21 -0.1157 0 36 -0.1157 1
gene 1 18 21 -0.532663 0 37 -0.532663 1
gene 1 19 21 0.529483 0 38 0.529483 1
gene 1 1 22 0.250101 0 39 0.250101 1
gene 1 2 22 -0.175564 0 40 -0.175564 1
gene 1 3 22 0.420663 0 41 0.420663 1
gene 1 4 22 0.110006 0 42 0.110006 1
gene 1 5 22 -0.253474 0 43 -0.253474 1
gene 1 6 22 0.568259 0 44 0.568259 1
gene 1 7 22 0.8309 0 45 0.8309 1
gene 1 8 22 0.25844 0 46 0.25844 1
gene 1 9 22 0.493779 0 47 0.493779 1
gene 1 10 22 0.74752 0 48 0.74752 1
gene 1 11 22 0.267105 0 49 0.267105 1
gene 1 12 22 -0.89348 0 50 -0.89348 1
gene 1 13 22 0.492737 0 51 0.492737 1
gene 1 14 22 -0.917727 0 52 -0.917727 1
gene 1 15 22 -0.00590414 0 53 -0.00590414 1
gene 1 16 22 -0.797149 0 54 -0.797149 1
gene 1 17 22 0.505221 0 55 0.505221 1
gene 1 18 22 0.236681 0 56 0.236681 1
gene 1 19 22 0.0613671 0 57 0.0613671 1
gene 1 1 23 -0.277139 0 58 -0.277139 1
gene 1 2 23 0.102637 0 59 0.102637 1
gene 1 3 23 -0.444432 0 60 -0.444432 1
gene 1 4 23 -0.363411 0 61 -0.363411 1
gene 1 5 23 0.254893 0 62 0.254893 1
gene 1 6 23 -1.04382 0 63 -1.04382 1
gene 1 7 23 -0.0314902 0 64 -0.0314902 1
gene 1 8 23 -0.183696 0 65 -0.183696 1
gene 1 9 23 -0.0624774 0 66 -0.0624774 1
gene 1 10 23 -0.17895 0 67 -0.17895 1
gene 1 11 23 0.146167 0 68 0.146167 1
gene 1 12 23 0.645068 0 69 0.645068 1
gene 1 13 23 -0.20964 0 70 -0.20964 1
gene 1 14 23 -0.428077 0 71 -0.428077 1
gene 1 15 23 -0.000107334 0 72 -0.000107334 1
gene 1 16 23 0.46603 0 73 0.46603 1
gene 1 17 23 0.73802 0 74 0.73802 1
gene 1 18 23 -0.261963 0 75 -0.261963 1
gene 1 19 23 0.576197 0 76 0.576197 1
genomeend 65
genomestart 73
trait 1 0 0 0 0 0 0 0 0 
node 1 1 1 1 0
node 2 1 1 1 0
node 3 1 1 1 0
node 4 1 1 1 0
node 5 1 1 1 0
node 6 1 1 1 0
node 7 1 1 1 0
node 8 1 1 1 0
node 9 1 1 1 0
node 10 1 1 1 0
node 11 1 1 1 0
node 12 1 1 1 0
node 13 1 1 1 0
node 14 1 1 1 0
node 15 1 1 1 0
node 16 1 1 1 0
node 17 1 1 1 0
node 18 1 1 1 0
node 19 1 1 3 0
node 20 1 0 2 0
node 21 1 0 2 0
node 22 1 0 2 0
node 23 1 0 2 0
gene 1 1 20 -0.12525 0 1 -0.12525 1
gene 1 2 20 -0.773765 0 2 -0.773765 1
gene 1 3 20 -0.129867 0 3 -0.129867 1
gene 1 4 20 -0.000580329 0 4 -0.000580329 1
gene 1 5 20 0.0420509 0 5 0.0420509 1
gene 1 6 20 -0.579429 0 6 -0.579429 1
gene 1 7 20 -0.275366 0 7 -0.275366 1
gene 1 8 20 0.783956 0 8 0.783956 1
gene 1 9 20 -0.0727224 0 9 -0.0727224 1
gene 1 10 20 0.837602 0 10 0.837602 1
gene 1 11 20 0.948527 0 11 0.948527 1
gene 1 12 20 0.704387 0 12 0.704387 1
gene 1 13 20 -0.262719 0 13 -0.262719 1
gene 1 14 20 0.236376 0 14 0.236376 1
gene 1 15 20 0.416405 0 15 0.416405 1
gene 1 16 20 -0.881873 0 16 -0.881873 1
gene 1 17 20 -0.556785 0 17 -0.556785 1
gene 1 18 20 0 0 18 0 1
gene 1 19 20 0.439772 0 19 0.439772 1
gene 1 1 21 -0.0354316 0 20 -0.0354316 1
gene 1 2 21 -0.802482 0 21 -0.802482 1
gene 1 3 21 0.277373 0 22 0.277373 1
gene 1 4 21 1.41227 0 23 1.41227 1
gene 1 5 21 -0.631738 0 24 -0.631738 1
gene 1 6 21 0.641903 0 25 0.641903 1
gene 1 7 21 -0.338079 0 26 -0.338079 1
gene 1 8 21 -0.736606 0 27 -0.736606 1
gene 1 9 21 -0.769561 0 28 -0.769561 1
gene 1 10 21 0.252642 0 29 0.252642 1
gene 1 11 21 -0.202124 0 30 -0.202124 1
gene 1 12 21 -0.548023 0 31 -0.548023 1
gene 1 13 21 0.466018 0 32 0.466018 1
gene 1 14 21 1.15158 0 33 1.15158 1
gene 1 15 21 -1.0632 0 34 -1.0632 1
gene 1 16 21 -0.734961 0 35 -0.734961 1
gene 1 17 21 -0.387874 0 36 -0.387874 1
gene 1 18 21 0.501724 0 37 0.501724 1
gene 1 19 21 -0.530971 0 38 -0.530971 1
gene 1 1 22 -0.145674 0 39 -0.145674 1
gene 1 2 22 -0.598448 0 40 -0.598448 1
gene 1 3 22 0.0338902 0 41 0.0338902 1
gene 1 4 22 -1.15412 0 42 -1.15412 1
gene 1 5 22 0.254845 0 43 0.254845 1
gene 1 6 22 -0.333491 0 44 -0.333491 1
gene 1 7 22 0.483533 0 45 0.483533 1
gene 1 8 22 -0.995817 0 46 -0.995817 1
gene 1 9 22 0.22416 0 47 0.22416 1
gene 1 10 22 0.253579 0 48 0.253579 1
gene 1 11 22 0.880899 0 49 0.880899 1
gene 1 12 22 -0.459001 0 50 -0.459001 1
gene 1 13 22 0.498756 0 51 0.498756 1
gene 1 14 22 0.057932 0 52 0.057932 1
gene 1 15 22 0.950358 0 53 0.950358 1
gene 1 16 22 0.713249 0 54 0.713249 1
gene 1 17 22 0.444264 0 55 0.444264 1
gene 1 18 22 -0.793417 0 56 -0.793417 1
gene 1 19 22 0.0519995 0 57 0.0519995 1
gene 1 1 23 0.190119 0 58 0.190119 1
gene 1 2 23 -0.989668 0 59 -0.989668 1
gene 1 3 23 -0.0465812 0 60 -0.0465812 1
gene 1 4 23 0.890712 0 61 0.890712 1
gene 1 5 23 0.452932 0 62 0.452932 1
gene 1 6 23 0.665738 0 63 0.665738 1
gene 1 7 23 -0.170299 0 64 -0.170299 1
gene 1 8 23 0.6504 0 65 0.6504 1
gene 1 9 23 -0.712724 0 66 -0.712724 1
gene 1 10 23 0.952566 0 67 0.952566 1
gene 1 11 23 0.0977731 0 68 0.0977731 1
gene 1 12 23 0.613919 0 69 0.613919 1
gene 1 13 23 -0.513155 0 70 -0.513155 1
gene 1 14 23 0.301747 0 71 0.301747 1
gene 1 15 23 -0.58466 0 72 -0.58466 1
gene 1 16 23 -0.535658 0 73 -0.535658 1
gene 1 17 23 -0.69469 0 74 -0.69469 1
gene 1 18 23 0.115617 0 75 0.115617 1
gene 1 19 23 0.0841779 0 76 0.0841779 1
genomeend 73
genomestart 75
trait 1 0 0 0 0 0 0 0 0 
node 1 1 1 1 0
node 2 1 1 1 0
node 3 1 1 1 0
node 4 1 1 1 0
node 5 1 1 1 0
node 6 1 1 1 0
node 7 1 1 1 0
node 8 1 1 1 0
node 9 1 1 1 0
node 10 1 1 1 0
node 11 1 1 1 0
node 12 1 1 1 0
node 13 1 1 1 0
node 14 1 1 1 0
node 15 1 1 1 0
node 16 1 1 1 0
node 17 1 1 1 0
node 18 1 1 1 0
node 19 1 1 3 0
node 20 1 0 2 0
node 21 1 0 2 0
node 22 1 0 2 0
node 23 1 0 2 0
gene 1 1 20 -0.404809 0 1 -0.404809 1
gene 1 2 20 -0.313995 0 2 -0.313995 1
gene 1 3 20 0.0376048 0 3 0.0376048 1
gene 1 4 20 -0.389309 0 4 -0.389309 1
gene 1 5 20 0.378579 0 5 0.378579 1
gene 1 6 20 0.051711 0 6 0.051711 1
gene 1 7 20 -0.648086 0 7 -0.648086 1
gene 1 8 20 0.803734 0 8 0.803734 1
gene 1 9 20 0.112591 0 9 0.112591 1
gene 1 10 20 -0.347143 0 10 -0.347143 1
gene 1 11 20 -0.0738311 0 11 -0.0738311 1
gene 1 12 20 0.524212 0 12 0.524212 1
gene 1 13 20 0.0532635 0 13 0.0532635 1
gene 1 14 20 0.673573 0 14 0.673573 1
gene 1 15 20 -0.58847 0 15 -0.58847 1
gene 1 16 20 -0.355486 0 16 -0.355486 1
gene 1 17 20 -0.195138 0 17 -0.195138 1
gene 1 18 20 0.435057 0 18 0.435057 1
gene 1 19 20 0.962604 0 19 0.962604 1
gene 1 1 21 -0.2451 0 20 -0.2451 1
gene 1 2 21 -0.213377 0 21 -0.213377 1
gene 1 3 21 -0.717322 0 22 -0.717322 1
gene 1 4 21 -0.0245392 0 23 -0.0245392 1
gene 1 5 21 0.142219 0 24 0.142219 1
gene 1 6 21 0.279419 0 25 0.279419 1
gene 1 7 21 -0.120213 0 26 -0.120213 1
gene 1 8 21 -0.681777 0 27 -0.681777 1
gene 1 9 21 0.0146138 0 28 0.0146138 1
gene 1 10 21 -0.309711 0 29 -0.309711 1
gene 1 11 21 -0.624495 0 30 -0.624495 1
gene 1 12 21 -0.70552 0 31 -0.70552 1
gene 1 13 21 -0.937366 0 32 -0.937366 1
gene 1 14 21 0.0295219 0 33 0.0295219 1
gene 1 15 21 0.198147 0 34 0.198147 1
gene 1 16 21 -0.417154 0 35 -0.417154 1
gene 1 17 21 0.0300231 0 36 0.0300231 1
gene 1 18 21 0.277546 0 37 0.277546 1
gene 1 19 21 -0.222265 0 38 -0.222265 1
gene 1 1 22 -0.165869 0 39 -0.165869 1
gene 1 2 22 0.15243 0 40 0.15243 1
gene 1 3 22 -0.394021 0 41 -0.394021 1
gene 1 4 22 -0.147843 0 42 -0.147843 1
gene 1 5 22 -0.277244 0 43 -0.277244 1
gene 1 6 22 -0.433488 0 44 -0.433488 1
gene 1 7 22 0.0878449 0 45 0.0878449 1
gene 1 8 22 -0.236273 0 46 -0.236273 1
gene 1 9 22 0.343581 0 47 0.343581 1
gene 1 10 22 0.056358 0 48 0.056358 1
gene 1 11 22 -0.281144 0 49 -0.281144 1
gene 1 12 22 -0.423485 0 50 -0.423485 1
gene 1 13 22 0.337779 0 51 0.337779 1
gene 1 14 22 0.428941 0 52 0.428941 1
gene 1 15 22 -0.538444 0 53 -0.538444 1
gene 1 16 22 0.0489777 0 54 0.0489777 1
gene 1 17 22 -0.301515 0 55 -0.301515 1
gene 1 18 22 -0.283454 0 56 -0.283454 1
gene 1 19 22 0.949444 0 57 0.949444 1
gene 1 1 23 -0.131872 0 58 -0.131872 1
gene 1 2 23 -0.519039 0 59 -0.519039 1
gene 1 3 23 0.368652 0 60 0.368652 1
gene 1 4 23 0.372706 0 61 0.372706 1
gene 1 5 23 0.494247 0 62 0.494247 1
gene 1 6 23 0.107344 0 63 0.107344 1
gene 1 7 23 0.277821 0 64 0.277821 1
gene 1 8 23 -0.382008 0 65 -0.382008 1
gene 1 9 23 -0.433995 0 66 -0.433995 1
gene 1 10 23 0.59946 0 67 0.59946 1
gene 1 11 23 0.879325 0 68 0.879325 1
gene 1 12 23 -0.42071 0 69 -0.42071 1
gene 1 13 23 -0.411555 0 70 -0.411555 1
gene 1 14 23 0.369242 0 71 0.369242 1
gene 1 15 23 -0.119955 0 72 -0.119955 1
gene 1 16 23 -0.644386 0 73 -0.644386 1
gene 1 17 23 0.103055 0 74 0.103055 1
gene 1 18 23 0.5873 0 75 0.5873 1
gene 1 19 23 -0.493684 0 76 -0.493684 1
genomeend 75
genomestart 77
trait 1 0 0 0 0 0 0 0 0 
node 1 1 1 1 0
node 2 1 1 1 0
node 3 1 1 1 0
node 4 1 1 1 0
node 5 1 1 1 0
node 6 1 1 1 0
node 7 1 1 1 0
node 8 1 1 1 0
node 9 1 1 1 0
node 10 1 1 1 0
node 11 1 1 1 0
node 12 1 1 1 0
node 13 1 1 1 0
node 14 1 1 1 0
node 15 1 1 1 0
node 16 1 1 1 0
node 17 1 1 1 0
node 18 1 1 1 0
node 19 1 1 3 0
node 20 1 0 2 0
node 21 1 0 2 0
node 22 1 0 2 0
node 23 1 0 2 0
gene 1 1 20 -0.332632 0 1 -0.332632 1
gene 1 2 20 -0.345376 0 2 -0.345376 1
gene 1 3 20 -0.252068 0 3 -0.252068 1
gene 1 4 20 0.414261 0 4 0.414261 1
gene 1 5 20 0.464052 0 5 0.464052 1
gene 1 6 20 -0.0794429 0 6 -0.0794429 1
gene 1 7 20 -0.484855 0 7 -0.484855 1
gene 1 8 20 -1.38762 0 8 -1.38762 1
gene 1 9 20 0.126186 0 9 0.126186 1
gene 1 10 20 0.662328 0 10 0.662328 1
gene 1 11 20 0.616856 0 11 0.616856 1
gene 1 12 20 0.161111 0 12 0.161111 1
gene 1 13 20 0.364159 0 13 0.364159 1
gene 1 14 20 -0.0634471 0 14 -0.0634471 1
gene 1 15 20 0.125814 0 15 0.125814 1
gene 1 16 20 0.256753 0 16 0.256753 1
gene 1 17 20 -0.359064 0 17 -0.359064 1
gene 1 18 20 0.720615 0 18 0.720615 1
gene 1 19 20 -0.00318889 0 19 -0.00318889 1
gene 1 1 21 0.637865 0 20 0.637865 1
gene 1 2 21 0.0693677 0 21 0.0693677 1
gene 1 3 21 0.220166 0 22 0.220166 1
gene 1 4 21 0.0469754 0 23 0.0469754 1
gene 1 5 21 -0.238231 0 24 -0.238231 1
gene 1 6 21 -0.387399 0 25 -0.387399 1
gene 1 7 21 -0.26209 0 26 -0.26209 1
gene 1 8 21 -0.0883249 0 27 -0.0883249 1
gene 1 9 21 -0.565569 0 28 -0.565569 1
gene 1 10 21 -0.34775 0 29 -0.34775 1
gene 1 11 21 -0.265825 0 30 -0.265825 1
gene 1 12 21 -0.195687 0 31 -0.195687 1
gene 1 13 21 -0.76465 0 32 -0.76465 1
gene 1 14 21 0.712511 0 33 0.712511 1
gene 1 15 21 -0.0913227 0 34 -0.0913227 1
gene 1 16 21 0.0480863 0 35 0.0480863 1
gene 1 17 21 -0.617674 0 36 -0.617674 1
gene 1 18 21 -0.10074 0 37 -0.10074 1
gene 1 19 21 1.00947 0 38 1.00947 1
gene 1 1 22 0.486193 0 39 0.486193 1
gene 1 2 22 -0.64448 0 40 -0.64448 1
gene 1 3 22 -0.918491 0 41 -0.918491 1
gene 1 4 22 -0.635305 0 42 -0.635305 1
gene 1 5 22 1.28122 0 43 1.28122 1
gene 1 6 22 -0.265416 0 44 -0.265416 1
gene 1 7 22 0 0 45 0 1
gene 1 8 22 -0.171764 0 46 -0.171764 1
gene 1 9 22 -0.261651 0 47 -0.261651 1
gene 1 10 22 0.241432 0 48 0.241432 1
gene 1 11 22 0.0107129 0 49 0.0107129 1
gene 1 12 22 -0.052746 0 50 -0.052746 1
gene 1 13 22 -0.501626 0 51 -0.501626 1
gene 1 14 22 0 0 52 0 1
gene 1 15 22 -0.642878 0 53 -0.642878 1
gene 1 16 22 0.0720259 0 54 0.0720259 1
gene 1 17 22 1.27254 0 55 1.27254 1
gene 1 18 22 -0.34507 0 56 -0.34507 1
gene 1 19 22 1.44793 0 57 1.44793 1
gene 1 1 23 0.244753 0 58 0.244753 1
gene 1 2 23 0.111497 0 59 0.111497 1
gene 1 3 23 -0.258254 0 60 -0.258254 1
gene 1 4 23 0.550768 0 61 0.550768 1
gene 1 5 23 0.147683 0 62 0.147683 1
gene 1 6 23 0.191822 0 63 0.191822 1
gene 1 7 23 -0.132276 0 64 -0.132276 1
gene 1 8 23 -0.2877 0 65 -0.2877 1
gene 1 9 23 0.310886 0 66 0.310886 1
gene 1 10 23 -0.152965 0 67 -0.152965 1
gene 1 11 23 -0.478824 0 68 -0.478824 1
gene 1 12 23 0.936787 0 69 0.936787 1
gene 1 13 23 -0.00506311 0 70 -0.00506311 1
gene 1 14 23 0.499371 0 71 0.499371 1
gene 1 15 23 1.12068 0 72 1.12068 1
gene 1 16 23 0.117671 0 73 0.117671 1
gene 1 17 23 0.56156 0 74 0.56156 1
gene 1 18 23 -0.166383 0 75 -0.166383 1
gene 1 19 23 0.383789 0 76 0.383789 1
genomeend 77
genomestart 79
trait 1 0 0.780354 0 0 0 0 0 0 
node 1 1 1 1 0
node 2 1 1 1 0
node 3 1 1 1 0
node 4 1 1 1 0
node 5 1 1 1 0
node 6 1 1 1 0
node 7 1 1 1 0
node 8 1 1 1 0
node 9 1 1 1 0
node 10 1 1 1 0
node 11 1 1 1 0
node 12 1 1 1 0
node 13 1 1 1 0
node 14 1 1 1 0
node 15 1 1 1 0
node 16 1 1 1 0
node 17 1 1 1 0
node 18 1 1 1 0
node 19 1 1 3 0
node 20 1 0 2 0
node 21 1 0 2 0
node 22 1 0 2 0
node 23 1 0 2 0
gene 1 1 20 0.937662 0 1 0.937662 1
gene 1 2 20 0.549172 0 2 0.549172 1
gene 1 3 20 -0.842304 0 3 -0.842304 1
gene 1 4 20 0.962988 0 4 0.962988 1
gene 1 5 20 0.00778086 0 5 0.00778086 1
gene 1 6 20 -0.776737 0 6 -0.776737 1
gene 1 7 20 0.0821496 0 7 0.0821496 1
gene 1 8 20 -0.175662 0 8 -0.175662 1
gene 1 9 20 -0.753721 0 9 -0.753721 1
gene 1 10 20 -0.210554 0 10 -0.210554 1
gene 1 11 20 0.299166 0 11 0.299166 1
gene 1 12 20 -0.722737 0 12 -0.722737 1
gene 1 13 20 0.748423 0 13 0.748423 1
gene 1 14 20 -0.0939762 0 14 -0.0939762 1
gene 1 15 20 0.316718 0 15 0.316718 1
gene 1 16 20 0.441542 0 16 0.441542 1
gene 1 17 20 0.392266 0 17 0.392266 1
gene 1 18 20 0.102601 0 18 0.102601 1
gene 1 19 20 0.203535 0 19 0.203535 1
gene 1 1 21 -0.282862 0 20 -0.282862 1
gene 1 2 21 -0.144936 0 21 -0.144936 1
gene 1 3 21 0.0730202 0 22 0.0730202 1
gene 1 4 21 0.141549 0 23 0.141549 1
gene 1 5 21 -0.00886965 0 24 -0.00886965 1
gene 1 6 21 -0.0337178 0 25 -0.0337178 1
gene 1 7 21 -0.102651 0 26 -0.102651 1
gene 1 8 21 -0.215693 0 27 -0.215693 1
gene 1 9 21 0.708733 0 28 0.708733 1
gene 1 10 21 -1.03131 0 29 -1.03131 1
gene 1 11 21 0.0147681 0 30 0.0147681 1
gene 1 12 21 0.851634 0 31 0.851634 1
gene 1 13 21 0.918871 0 32 0.918871 1
gene 1 14 21 -0.218559 0 33 -0.218559 1
gene 1 15 21 0.540579 0 34 0.540579 1
gene 1 16 21 -0.0799725 0 35 -0.0799725 1
gene 1 17 21 -1.09502 0 36 -1.09502 1
gene 1 18 21 0.222918 0 37 0.222918 1
gene 1 19 21 0.125399 0 38 0.125399 1
gene 1 1 22 -0.35264 0 39 -0.35264 1
gene 1 2 22 0.140385 0 40 0.140385 1
gene 1 3 22 0.31878 0 41 0.31878 1
gene 1 4 22 -0.329284 0 42 -0.329284 1
gene 1 5 22 -1.00087 0 43 -1.00087 1
gene 1 6 22 0.957284 0 44 0.957284 1
gene 1 7 22 0.0305043 0 45 0.0305043 1
gene 1 8 22 -0.366685 0 46 -0.366685 1
gene 1 9 22 0.0304128 0 47 0.0304128 1
gene 1 10 22 -0.112808 0 48 -0.112808 1
gene 1 11 22 1.06602 0 49 1.06602 1
gene 1 12 22 -0.405193 0 50 -0.405193 1
gene 1 13 22 -0.799208 0 51 -0.799208 1
gene 1 14 22 0.773446 0 52 0.773446 1
gene 1 15 22 -0.576191 0 53 -0.576191 1
gene 1 16 22 -0.891746 0 54 -0.891746 1
gene 1 17 22 -0.289407 0 55 -0.289407 1
gene 1 18 22 -0.153142 0 56 -0.153142 1
gene 1 19 22 0.530145 0 57 0.530145 1
gene 1 1 23 -0.268435 0 58 -0.268435 1
gene 1 2 23 0.550667 0 59 0.550667 1
gene 1 3 23 0.115174 0 60 0.115174 1
gene 1 4 23 0.522317 0 61 0.522317 1
gene 1 5 23 0.470787 0 62 0.470787 1
gene 1 6 23 0.139671 0 63 0.139671 1
gene 1 7 23 0.00345312 0 64 0.00345312 1
gene 1 8 23 0.232774 0 65 0.232774 1
gene 1 9 23 0.729283 0 66 0.729283 1
gene 1 10 23 -0.602499 0 67 -0.602499 1
gene 1 11 23 -0.56667 0 68 -0.56667 1
gene 1 12 23 0.102371 0 69 0.102371 1
gene 1 13 23 0.681542 0 70 0.681542 1
gene 1 14 23 -0.176476 0 71 -0.176476 1
gene 1 15 23 1.04945 0 72 1.04945 1
gene 1 16 23 0.583537 0 73 0.583537 1
gene 1 17 23 -0.0925075 0 74 -0.0925075 1
gene 1 18 23 0.47599 0 75 0.47599 1
gene 1 19 23 0.541796 0 76 0.541796 1
genomeend 79
genomestart 80
trait 1 0 0 0 0 0 0 0 0 
node 1 1 1 1 0
node 2 1 1 1 0
node 3 1 1 1 0
node 4 1 1 1 0
node 5 1 1 1 0
node 6 1 1 1 0
node 7 1 1 1 0
node 8 1 1 1 0
node 9 1 1 1 0
node 10 1 1 1 0
node 11 1 1 1 0
node 12 1 1 1 0
node 13 1 1 1 0
node 14 1 1 1 0
node 15 1 1 1 0
node 16 1 1 1 0
node 17 1 1 1 0
node 18 1 1 1 0
node 19 1 1 3 0
node 20 1 0 2 0
node 21 1 0 2 0
node 22 1 0 2 0
node 23 1 0 2 0
gene 1 1 20 0.0826162 0 1 0.0826162 1
gene 1 2 20 0.865627 0 2 0.865627 1
gene 1 3 20 -0.403966 0 3 -0.403966 1
gene 1 4 20 -0.216334 0 4 -0.216334 1
gene 1 5 20 -0.925313 0 5 -0.925313 1
gene 1 6 20 0.637167 0 6 0.637167 1
gene 1 7 20 1.21138 0 7 1.21138 1
gene 1 8 20 -0.708217 0 8 -0.708217 1
gene 1 9 20 -0.558817 0 9 -0.558817 1
gene 1 10 20 0.570058 0 10 0.570058 1
gene 1 11 20 -0.435828 0 11 -0.435828 1
gene 1 12 20 0.522716 0 12 0.522716 1
gene 1 13 20 -0.243906 0 13 -0.243906 1
gene 1 14 20 -1.03362 0 14 -1.03362 1
gene 1 15 20 -0.648538 0 15 -0.648538 1
gene 1 16 20 0.875081 0 16 0.875081 1
gene 1 17 20 0.898986 0 17 0.898986 1
gene 1 18 20 -0.727578 0 18 -0.727578 1
gene 1 19 20 0.748657 0 19 0.748657 1
gene 1 1 21 0.225566 0 20 0.225566 1
gene 1 2 21 -0.248097 0 21 -0.248097 1
gene 1 3 21 -0.503453 0 22 -0.503453 1
gene 1 4 21 0.168984 0 23 0.168984 1
gene 1 5 21 0.968243 0 24 0.968243 1
gene 1 6 21 -0.133821 0 25 -0.133821 1
gene 1 7 21 0.60783 0 26 0.60783 1
gene 1 8 21 -0.269151 0 27 -0.269151 1
gene 1 9 21 0.230698 0 28 0.230698 1
gene 1 10 21 -0.483191 0 29 -0.483191 1
gene 1 11 21 -0.168453 0 30 -0.168453 1
gene 1 12 21 -0.331975 0 31 -0.331975 1
gene 1 13 21 1.16506 0 32 1.16506 1
gene 1 14 21 -1.48266 0 33 -1.48266 1
gene 1 15 21 -0.0749258 0 34 -0.0749258 1
gene 1 16 21 -0.445666 0 35 -0.445666 1
gene 1 17 21 0.00233122 0 36 0.00233122 1
gene 1 18 21 0.389056 0 37 0.389056 1
gene 1 19 21 -0.677217 0 38 -0.677217 1
gene 1 1 22 0.441554 0 39 0.441554 1
gene 1 2 22 0.00784606 0 40 0.00784606 1
gene 1 3 22 -0.840002 0 41 -0.840002 1
gene 1 4 22 -0.494776 0 42 -0.494776 1
gene 1 5 22 -0.707393 0 43 -0.707393 1
gene 1 6 22 -0.6177 0 44 -0.6177 1
gene 1 7 22 -0.80088 0 45 -0.80088 1
gene 1 8 22 0.0936812 0 46 0.0936812 1
gene 1 9 22 -0.0680614 0 47 -0.0680614 1
gene 1 10 22 -0.78683 0 48 -0.78683 1
gene 1 11 22 -0.333398 0 49 -0.333398 1
gene 1 12 22 0.340409 0 50 0.340409 1
gene 1 13 22 -0.975205 0 51 -0.975205 1
gene 1 14 22 -0.538523 0 52 -0.538523 1
gene 1 15 22 0.424504 0 53 0.424504 1
gene 1 16 22 -0.205637 0 54 -0.205637 1
gene 1 17 22 0.116137 0 55 0.116137 1
gene 1 18 22 -0.334773 0 56 -0.334773 1
gene 1 19 22 0.538674 0 57 0.538674 1
gene 1 1 23 0.780698 0 58 0.780698 1
gene 1 2 23 0.330005 0 59 0.330005 1
gene 1 3 23 0.0843077 0 60 0.0843077 1
gene 1 4 23 0.422034 0 61 0.422034 1
gene 1 5 23 0.172696 0 62 0.172696 1
gene 1 6 23 -0.148386 0 63 -0.148386 1
gene 1 7 23 -0.185278 0 64 -0.185278 1
gene 1 8 23 0.0311249 0 65 0.0311249 1
gene 1 9 23 -0.363209 0 66 -0.363209 1
gene 1 10 23 0.975191 0 67 0.975191 1
gene 1 11 23 0.180386 0 68 0.180386 1
gene 1 12 23 -0.239271 0 69 -0.239271 1
gene 1 13 23 -0.640855 0 70 -0.640855 1
gene 1 14 23 -1.08082 0 71 -1.08082 1
gene 1 15 23 -0.183569 0 72 -0.183569 1
gene 1 16 23 0.361021 0 73 0.361021 1
gene 1 17 23 0.275176 0 74 0.275176 1
gene 1 18 23 0.384571 0 75 0.384571 1
gene 1 19 23 -0.046255 0 76 -0.046255 1
genomeend 80
genomestart 84
trait 1 0 0 0 0 0 0 0 0 
node 1 1 1 1 0
node 2 1 1 1 0
node 3 1 1 1 0
node 4 1 1 1 0
node 5 1 1 1 0
node 6 1 1 1 0
node 7 1 1 1 0
node 8 1 1 1 0
node 9 1 1 1 0
node 10 1 1 1 0
node 11 1 1 1 0
node 12 1 1 1 0
node 13 1 1 1 0
node 14 1 1 1 0
node 15 1 1 1 0
node 16 1 1 1 0
node 17 1 1 1 0
node 18 1 1 1 0
node 19 1 1 3 0
node 20 1 0 2 0
node 21 1 0 2 0
node 22 1 0 2 0
node 23 1 0 2 0
gene 1 1 20 -0.090872 0 1 -0.090872 1
gene 1 2 20 0.400406 0 2 0.400406 1
gene 1 3 20 0.721276 0 3 0.721276 1
gene 1 4 20 -0.860565 0 4 -0.860565 1
gene 1 5 20 -0.275109 0 5 -0.275109 1
gene 1 6 20 0.76568 0 6 0.76568 1
gene 1 7 20 0.664197 0 7 0.664197 1
gene 1 8 20 -0.554657 0 8 -0.554657 1
gene 1 9 20 0.326145 0 9 0.326145 1
gene 1 10 20 -0.147248 0 10 -0.147248 1
gene 1 11 20 0.882233 0 11 0.882233 1
gene 1 12 20 0.949877 0 12 0.949877 1
gene 1 13 20 0.398593 0 13 0.398593 1
gene 1 14 20 0.63616 0 14 0.63616 1
gene 1 15 20 -0.0415152 0 15 -0.0415152 1
gene 1 16 20 -0.157399 0 16 -0.157399 1
gene 1 17 20 -1.13751 0 17 -1.13751 1
gene 1 18 20 0.304477 0 18 0.304477 1
gene 1 19 20 0.130683 0 19 0.130683 1
gene 1 1 21 0.309438 0 20 0.309438 1
gene 1 2 21 -0.0687403 0 21 -0.0687403 1
gene 1 3 21 -0.48026 0 22 -0.48026 1
gene 1 4 21 0.132742 0 23 0.132742 1
gene 1 5 21 0.620416 0 24 0.620416 1
gene 1 6 21 -0.0312561 0 25 -0.0312561 1
gene 1 7 21 -0.310426 0 26 -0.310426 1
gene 1 8 21 -0.802861 0 27 -0.802861 1
gene 1 9 21 -0.495327 0 28 -0.495327 1
gene 1 10 21 -0.322843 0 29 -0.322843 1
gene 1 11 21 -6.77484e-05 0 30 -6.77484e-05 1
gene 1 12 21 -1.07763 0 31 -1.07763 1
gene 1 13 21 -0.0548158 0 32 -0.0548158 1
gene 1 14 21 0.0816817 0 33 0.0816817 1
gene 1 15 21 -0.353738 0 34 -0.353738 1
gene 1 16 21 0.0788369 0 35 0.0788369 1
gene 1 17 21 0.0394372 0 36 0.0394372 1
gene 1 18 21 0.462121 0 37 0.462121 1
gene 1 19 21 -0.299077 0 38 -0.299077 1
gene 1 1 22 1.09468 0 39 1.09468 1
gene 1 2 22 -0.348251 0 40 -0.348251 1
gene 1 3 22 1.13159 0 41 1.13159 1
gene 1 4 22 0.738334 0 42 0.738334 1
gene 1 5 22 0.311781 0 43 0.311781 1
gene 1 6 22 1.18732 0 44 1.18732 1
gene 1 7 22 -0.256718 0 45 -0.256718 1
gene 1 8 22 -0.950723 0 46 -0.950723 1
gene 1 9 22 -0.419681 0 47 -0.419681 1
gene 1 10 22 -0.0510575 0 48 -0.0510575 1
gene 1 11 22 0.580292 0 49 0.580292 1
gene 1 12 22 -0.545694 0 50 -0.545694 1
gene 1 13 22 0.198091 0 51 0.198091 1
gene 1 14 22 0.67698 0 52 0.67698 1
gene 1 15 22 0.649094 0 53 0.649094 1
gene 1 16 22 0.305779 0 54 0.305779 1
gene 1 17 22 0.199116 0 55 0.199116 1
gene 1 18 22 -0.186942 0 56 -0.186942 1
gene 1 19 22 0.829358 0 57 0.829358 1
gene 1 1 23 -0.463581 0 58 -0.463581 1
gene 1 2 23 1.24241 0 59 1.24241 1
gene 1 3 23 0.9426 0 60 0.9426 1
gene 1 4 23 0.118533 0 61 0.118533 1
gene 1 5 23 -0.785537 0 62 -0.785537 1
gene 1 6 23 -0.147938 0 63 -0.147938 1
gene 1 7 23 -0.758147 0 64 -0.758147 1
gene 1 8 23 0.263609 0 65 0.263609 1
gene 1 9 23 -0.478577 0 66 -0.478577 1
gene 1 10 23 -0.392068 0 67 -0.392068 1
gene 1 11 23 -0.328036 0 68 -0.328036 1
gene 1 12 23 0.0568299 0 69 0.0568299 1
gene 1 13 23 0.510129 0 70 0.510129 1
gene 1 14 23 0.227353 0 71 0.227353 1
gene 1 15 23 -0.164558 0 72 -0.164558 1
gene 1 16 23 0.217924 0 73 0.217924 1
gene 1 17 23 0.423594 0 74 0.423594 1
gene 1 18 23 0.433552 0 75 0.433552 1
gene 1 19 23 0.168005 0 76 0.168005 1
genomeend 84
genomestart 87
trait 1 0 0 0 0 0 0 0 0 
node 1 1 1 1 0
node 2 1 1 1 0
node 3 1 1 1 0
node 4 1 1 1 0
node 5 1 1 1 0
node 6 1 1 1 0
node 7 1 1 1 0
node 8 1 1 1 0
node 9 1 1 1 0
node 10 1 1 1 0
node 11 1 1 1 0
node 12 1 1 1 0
node 13 1 1 1 0
node 14 1 1 1 0
node 15 1 1 1 0
node 16 1 1 1 0
node 17 1 1 1 0
node 18 1 1 1 0
node 19 1 1 3 0
node 20 1 0 2 0
node 21 1 0 2 0
node 22 1 0 2 0
node 23 1 0 2 0
gene 1 1 20 -0.856409 0 1 -0.856409 1
gene 1 2 20 -0.780669 0 2 -0.780669 1
gene 1 3 20 0.722788 0 3 0.722788 1
gene 1 4 20 0.183324 0 4 0.183324 1
gene 1 5 20 0.236442 0 5 0.236442 1
gene 1 6 20 0.97066 0 6 0.97066 1
gene 1 7 20 -0.293752 0 7 -0.293752 1
gene 1 8 20 0.714218 0 8 0.714218 1
gene 1 9 20 0.367787 0 9 0.367787 1
gene 1 10 20 -0.59339 0 10 -0.59339 1
gene 1 11 20 0.753966 0 11 0.753966 1
gene 1 12 20 0.23126 0 12 0.23126 1
gene 1 13 20 0.615692 0 13 0.615692 1
gene 1 14 20 -0.255342 0 14 -0.255342 1
gene 1 15 20 0.559003 0 15 0.559003 1
gene 1 16 20 -0.59759 0 16 -0.59759 1
gene 1 17 20 -0.629889 0 17 -0.629889 1
gene 1 18 20 0.0199724 0 18 0.0199724 1
gene 1 19 20 0.623214 0 19 0.623214 1
gene 1 1 21 -0.956906 0 20 -0.956906 1
gene 1 2 21 0.196826 0 21 0.196826 1
gene 1 3 21 0.676642 0 22 0.676642 1
gene 1 4 21 0.467849 0 23 0.467849 1
gene 1 5 21 -0.0855551 0 24 -0.0855551 1
gene 1 6 21 0.0238306 0 25 0.0238306 1
gene 1 7 21 0.341638 0 26 0.341638 1
gene 1 8 21 -0.420738 0 27 -0.420738 1
gene 1 9 21 -0.817863 0 28 -0.817863 1
gene 1 10 21 -0.963305 0 29 -0.963305 1
gene 1 11 21 0.632268 0 30 0.632268 1
gene 1 12 21 0.475803 0 31 0.475803 1
gene 1 13 21 0.250079 0 32 0.250079 1
gene 1 14 21 0.366226 0 33 0.366226 1
gene 1 15 21 0.514576 0 34 0.514576 1
gene 1 16 21 0.971659 0 35 0.971659 1
gene 1 17 21 -0.943656 0 36 -0.943656 1
gene 1 18 21 0.936586 0 37 0.936586 1
gene 1 19 21 0.350127 0 38 0.350127 1
gene 1 1 22 0.0489488 0 39 0.0489488 1
gene 1 2 22 0.132676 0 40 0.132676 1
gene 1 3 22 -0.419474 0 41 -0.419474 1
gene 1 4 22 -0.139591 0 42 -0.139591 1
gene 1 5 22 1.26565 0 43 1.26565 1
gene 1 6 22 -0.890171 0 44 -0.890171 1
gene 1 7 22 -0.430565 0 45 -0.430565 1
gene 1 8 22 0.672698 0 46 0.672698 1
gene 1 9 22 0.112717 0 47 0.112717 1
gene 1 10 22 -0.280064 0 48 -0.280064 1
gene 1 11 22 -0.210763 0 49 -0.210763 1
gene 1 12 22 0.890509 0 50 0.890509 1
gene 1 13 22 0.818717 0 51 0.818717 1
gene 1 14 22 0.590374 0 52 0.590374 1
gene 1 15 22 -0.260427 0 53 -0.260427 1
gene 1 16 22 0.364575 0 54 0.364575 1
gene 1 17 22 -0.567399 0 55 -0.567399 1
gene 1 18 22 -0.646629 0 56 -0.646629 1
gene 1 19 22 1.03928 0 57 1.03928 1
gene 1 1 23 -0.174463 0 58 -0.174463 1
gene 1 2 23 -0.586688 0 59 -0.586688 1
gene 1 3 23 -0.422082 0 60 -0.422082 1
gene 1 4 23 0.207979 0 61 0.207979 1
gene 1 5 23 -0.261632 0 62 -0.261632 1
gene 1 6 23 0 0 63 0 1
gene 1 7 23 -0.390386 0 64 -0.390386 1
gene 1 8 23 -0.618203 0 65 -0.618203 1
gene 1 9 23 -0.022052 0 66 -0.022052 1
gene 1 10 23 0.22366 0 67 0.22366 1
gene 1 11 23 0 0 68 0 1
gene 1 12 23 0 0 69 0 1
gene 1 13 23 -0.475716 0 70 -0.475716 1
gene 1 14 23 0.0553559 0 71 0.0553559 1
gene 1 15 23 0.726359 0 72 0.726359 1
gene 1 16 23 0.243506 0 73 0.243506 1
gene 1 17 23 -0.732132 0 74 -0.732132 1
gene 1 18 23 -0.16887 0 75 -0.16887 1
gene 1 19 23 0.0527254 0 76 0.0527254 1
genomeend 87
genomestart 88
trait 1 0 0 0 0 0 0 0 0 
node 1 1 1 1 0
node 2 1 1 1 0
node 3 1 1 1 0
node 4 1 1 1 0
node 5 1 1 1 0
node 6 1 1 1 0
node 7 1 1 1 0
node 8 1 1 1 0
node 9 1 1 1 0
node 10 1 1 1 0
node 11 1 1 1 0
node 12 1 1 1 0
node 13 1 1 1 0
node 14 1 1 1 0
node 15 1 1 1 0
node 16 1 1 1 0
node 17 1 1 1 0
node 18 1 1 1 0
node 19 1 1 3 0
node 20 1 0 2 0
node 21 1 0 2 0
node 22 1 0 2 0
node 23 1 0 2 0
gene 1 1 20 0.261959 0 1 0.261959 1
gene 1 2 20 0.362891 0 2 0.362891 1
gene 1 3 20 0.133884 0 3 0.133884 1
gene 1 4 20 -0.581981 0 4 -0.581981 1
gene 1 5 20 -1.27159 0 5 -1.27159 1
gene 1 6 20 1.12294 0 6 1.12294 1
gene 1 7 20 0.846778 0 7 0.846778 1
gene 1 8 20 0.964372 0 8 0.964372 1
gene 1 9 20 0.242957 0 9 0.242957 1
gene 1 10 20 -0.502686 0 10 -0.502686 1
gene 1 11 20 -0.551733 0 11 -0.551733 1
gene 1 12 20 0.473012 0 12 0.473012 1
gene 1 13 20 -0.502526 0 13 -0.502526 1
gene 1 14 20 0.00182495 0 14 0.00182495 1
gene 1 15 20 -0.765621 0 15 -0.765621 1
gene 1 16 20 0.110263 0 16 0.110263 1
gene 1 17 20 0.124796 0 17 0.124796 1
gene 1 18 20 -0.826158 0 18 -0.826158 1
gene 1 19 20 0.442306 0 19 0.442306 1
gene 1 1 21 0.546063 0 20 0.546063 1
gene 1 2 21 0.0433473 0 21 0.0433473 1
gene 1 3 21 1.34389 0 22 1.34389 1
gene 1 4 21 -0.0866682 0 23 -0.0866682 1
gene 1 5 21 -0.848199 0 24 -0.848199 1
gene 1 6 21 -0.12601 0 25 -0.12601 1
gene 1 7 21 -1.04238 0 26 -1.04238 1
gene 1 8 21 0.546322 0 27 0.546322 1
gene 1 9 21 -0.502604 0 28 -0.502604 1
gene 1 10 21 -0.0537007 0 29 -0.0537007 1
gene 1 11 21 -0.823949 0 30 -0.823949 1
gene 1 12 21 -0.255402 0 31 -0.255402 1
gene 1 13 21 0.265251 0 32 0.265251 1
gene 1 14 21 -1.18849 0 33 -1.18849 1
gene 1 15 21 0.25898 0 34 0.25898 1
gene 1 16 21 0.0303015 0 35 0.0303015 1
gene 1 17 21 0.0478361 0 36 0.0478361 1
gene 1 18 21 -1.10713 0 37 -1.10713 1
gene 1 19 21 -1.40991 0 38 -1.40991 1
gene 1 1 22 0.284236 0 39 0.284236 1
gene 1 2 22 0.0759716 0 40 0.0759716 1
gene 1 3 22 -0.813118 0 41 -0.813118 1
gene 1 4 22 -1.36496 0 42 -1.36496 1
gene 1 5 22 -0.0506652 0 43 -0.0506652 1
gene 1 6 22 -0.858147 0 44 -0.858147 1
gene 1 7 22 0.65294 0 45 0.65294 1
gene 1 8 22 0.883669 0 46 0.883669 1
gene 1 9 22 -0.329837 0 47 -0.329837 1
gene 1 10 22 -0.521584 0 48 -0.521584 1
gene 1 11 22 -0.35331 0 49 -0.35331 1
gene 1 12 22 -0.107442 0 50 -0.107442 1
gene 1 13 22 0.52607 0 51 0.52607 1
gene 1 14 22 -1.13415 0 52 -1.13415 1
gene 1 15 22 0.212704 0 53 0.212704 1
gene 1 16 22 -1.06682 0 54 -1.06682 1
gene 1 17 22 -0.195576 0 55 -0.195576 1
gene 1 18 22 0.157688 0 56 0.157688 1
gene 1 19 22 0.373339 0 57 0.373339 1
gene 1 1 23 0.625493 0 58 0.625493 1
gene 1 2 23 0.495772 0 59 0.495772 1
gene 1 3 23 -0.20235 0 60 -0.20235 1
gene 1 4 23 0.536606 0 61 0.536606 1
gene 1 5 23 -0.732901 0 62 -0.732901 1
gene 1 6 23 -0.414594 0 63 -0.414594 1
gene 1 7 23 0.319745 0 64 0.319745 1
gene 1 8 23 -0.0771975 0 65 -0.0771975 1
gene 1 9 23 0.258974 0 66 0.258974 1
gene 1 10 23 0.722651 0 67 0.722651 1
gene 1 11 23 -0.224487 0 68 -0.224487 1
gene 1 12 23 -0.332652 0 69 -0.332652 1
gene 1 13 23 -1.12346 0 70 -1.12346 1
gene 1 14 23 -0.0639327 0 71 -0.0639327 1
gene 1 15 23 0.794444 0 72 0.794444 1
gene 1 16 23 0.49682 0 73 0.49682 1
gene 1 17 23 0.903564 0 74 0.903564 1
gene 1 18 23 -0.112922 0 75 -0.112922 1
gene 1 19 23 0.642376 0 76 0.642376 1
genomeend 88
genomestart 90
trait 1 0 0 0 0 0 0 0 0 
node 1 1 1 1 0
node 2 1 1 1 0
node 3 1 1 1 0
node 4 1 1 1 0
node 5 1 1 1 0
node 6 1 1 1 0
node 7 1 1 1 0
node 8 1 1 1 0
node 9 1 1 1 0
node 10 1 1 1 0
node 11 1 1 1 0
node 12 1 1 1 0
node 13 1 1 1 0
node 14 1 1 1 0
node 15 1 1 1 0
node 16 1 1 1 0
node 17 1 1 1 0
node 18 1 1 1 0
node 19 1 1 3 0
node 20 1 0 2 0
node 21 1 0 2 0
node 22 1 0 2 0
node 23 1 0 2 0
gene 1 1 20 0.527547 0 1 0.527547 1
gene 1 2 20 0.148987 0 2 0.148987 1
gene 1 3 20 0.627277 0 3 0.627277 1
gene 1 4 20 -0.800258 0 4 -0.800258 1
gene 1 5 20 -0.0252692 0 5 -0.0252692 1
gene 1 6 20 0.801981 0 6 0.801981 1
gene 1 7 20 0.303904 0 7 0.303904 1
gene 1 8 20 -1.23261 0 8 -1.23261 1
gene 1 9 20 -0.301884 0 9 -0.301884 1
gene 1 10 20 0.102749 0 10 0.102749 1
gene 1 11 20 0.698541 0 11 0.698541 1
gene 1 12 20 0.0500392 0 12 0.0500392 1
gene 1 13 20 0.766235 0 13 0.766235 1
gene 1 14 20 -0.690437 0 14 -0.690437 1
gene 1 15 20 -0.751619 0 15 -0.751619 1
gene 1 16 20 0.85754 0 16 0.85754 1
gene 1 17 20 1.11376 0 17 1.11376 1
gene 1 18 20 0.153818 0 18 0.153818 1
gene 1 19 20 0.899177 0 19 0.899177 1
gene 1 1 21 -0.0520062 0 20 -0.0520062 1
gene 1 2 21 0.0568441 0 21 0.0568441 1
gene 1 3 21 -0.40094 0 22 -0.40094 1
gene 1 4 21 -0.368671 0 23 -0.368671 1
gene 1 5 21 0.472944 0 24 0.472944 1
gene 1 6 21 0.194925 0 25 0.194925 1
gene 1 7 21 1.21646 0 26 1.21646 1
gene 1 8 21 -0.710018 0 27 -0.710018 1
gene 1 9 21 0.16037 0 28 0.16037 1
gene 1 10 21 0.0392999 0 29 0.0392999 1
gene 1 11 21 -0.602231 0 30 -0.602231 1
gene 1 12 21 0.555591 0 31 0.555591 1
gene 1 13 21 0.427383 0 32 0.427383 1
gene 1 14 21 -0.509791 0 33 -0.509791 1
gene 1 15 21 0.471289 0 34 0.471289 1
gene 1 16 21 -0.0734226 0 35 -0.0734226 1
gene 1 17 21 0.322304 0 36 0.322304 1
gene 1 18 21 0.267575 0 37 0.267575 1
gene 1 19 21 -0.558389 0 38 -0.558389 1
gene 1 1 22 0.789942 0 39 0.789942 1
gene 1 2 22 -0.347852 0 40 -0.347852 1
gene 1 3 22 -0.666368 0 41 -0.666368 1
gene 1 4 22 0.5621 0 42 0.5621 1
gene 1 5 22 -0.416296 0 43 -0.416296 1
gene 1 6 22 -0.582493 0 44 -0.582493 1
gene 1 7 22 0.781133 0 45 0.781133 1
gene 1 8 22 0.374467 0 46 0.374467 1
gene 1 9 22 -0.532312 0 47 -0.532312 1
gene 1 10 22 0.189519 0 48 0.189519 1
gene 1 11 22 -0.863987 0 49 -0.863987 1
gene 1 12 22 0.506878 0 50 0.506878 1
gene 1 13 22 -1.06446 0 51 -1.06446 1
gene 1 14 22 0.123705 0 52 0.123705 1
gene 1 15 22 -1.02501 0 53 -1.02501 1
gene 1 16 22 -0.486088 0 54 -0.486088 1
gene 1 17 22 0.357532 0 55 0.357532 1
gene 1 18 22 -0.142674 0 56 -0.142674 1
gene 1 19 22 0.000576239 0 57 0.000576239 1
gene 1 1 23 -0.0285254 0 58 -0.0285254 1
gene 1 2 23 0.905396 0 59 0.905396 1
gene 1 3 23 -0.672705 0 60 -0.672705 1
gene 1 4 23 -0.239422 0 61 -0.239422 1
gene 1 5 23 -0.505643 0 62 -0.505643 1
gene 1 6 23 -0.190902 0 63 -0.190902 1
gene 1 7 23 0.322227 0 64 0.322227 1
gene 1 8 23 -0.350688 0 65 -0.350688 1
gene 1 9 23 1.29599 0 66 1.29599 1
gene 1 10 23 -0.264358 0 67 -0.264358 1
gene 1 11 23 0.0814216 0 68 0.0814216 1
gene 1 12 23 -0.226971 0 69 -0.226971 1
gene 1 13 23 -0.285143 0 70 -0.285143 1
gene 1 14 23 0.541552 0 71 0.541552 1
gene 1 15 23 0.331966 0 72 0.331966 1
gene 1 16 23 -0.00643441 0 73 -0.00643441 1
gene 1 17 23 0.818663 0 74 0.818663 1
gene 1 18 23 0.267176 0 75 0.267176 1
gene 1 19 23 0.175701 0 76 0.175701 1
genomeend 90
genomestart 92
trait 1 0 0 0 0 0 0 0 0 
node 1 1 1 1 0
node 2 1 1 1 0
node 3 1 1 1 0
node 4 1 1 1 0
node 5 1 1 1 0
node 6 1 1 1 0
node 7 1 1 1 0
node 8 1 1 1 0
node 9 1 1 1 0
node 10 1 1 1 0
node 11 1 1 1 0
node 12 1 1 1 0
node 13 1 1 1 0
node 14 1 1 1 0
node 15 1 1 1 0
node 16 1 1 1 0
node 17 1 1 1 0
node 18 1 1 1 0
node 19 1 1 3 0
node 20 1 0 2 0
node 21 1 0 2 0
node 22 1 0 2 0
node 23 1 0 2 0
gene 1 1 20 -0.322396 0 1 -0.322396 1
gene 1 2 20 -1.14134 0 2 -1.14134 1
gene 1 3 20 -0.835291 0 3 -0.835291 1
gene 1 4 20 0.314964 0 4 0.314964 1
gene 1 5 20 -1.05689 0 5 -1.05689 1
gene 1 6 20 0 0 6 0 1
gene 1 7 20 0.0501098 0 7 0.0501098 1
gene 1 8 20 -0.278361 0 8 -0.278361 1
gene 1 9 20 0.396517 0 9 0.396517 1
gene 1 10 20 0.5594 0 10 0.5594 1
gene 1 11 20 0 0 11 0 1
gene 1 12 20 1.1327 0 12 1.1327 1
gene 1 13 20 0.566407 0 13 0.566407 1
gene 1 14 20 0.166067 0 14 0.166067 1
gene 1 15 20 1.24594 0 15 1.24594 1
gene 1 16 20 -0.697486 0 16 -0.697486 1
gene 1 17 20 -0.465648 0 17 -0.465648 1
gene 1 18 20 0.415259 0 18 0.415259 1
gene 1 19 20 -0.210925 0 19 -0.210925 1
gene 1 1 21 -0.0146783 0 20 -0.0146783 1
gene 1 2 21 -0.659537 0 21 -0.659537 1
gene 1 3 21 -0.147467 0 22 -0.147467 1
gene 1 4 21 0.48487 0 23 0.48487 1
gene 1 5 21 -0.996626 0 24 -0.996626 1
gene 1 6 21 -0.416984 0 25 -0.416984 1
gene 1 7 21 0.155231 0 26 0.155231 1
gene 1 8 21 -0.714765 0 27 -0.714765 1
gene 1 9 21 0.289597 0 28 0.289597 1
gene 1 10 21 0.815451 0 29 0.815451 1
gene 1 11 21 -0.444415 0 30 -0.444415 1
gene 1 12 21 0.23564 0 31 0.23564 1
gene 1 13 21 -0.188292 0 32 -0.188292 1
gene 1 14 21 0.91118 0 33 0.91118 1
gene 1 15 21 -0.495772 0 34 -0.495772 1
gene 1 16 21 0.50052 0 35 0.50052 1
gene 1 17 21 -0.105187 0 36 -0.105187 1
gene 1 18 21 -0.112542 0 37 -0.112542 1
gene 1 19 21 -0.415263 0 38 -0.415263 1
gene 1 1 22 -0.336428 0 39 -0.336428 1
gene 1 2 22 0.337002 0 40 0.337002 1
gene 1 3 22 -0.110658 0 41 -0.110658 1
gene 1 4 22 -0.538279 0 42 -0.538279 1
gene 1 5 22 0.20017 0 43 0.20017 1
gene 1 6 22 -0.838455 0 44 -0.838455 1
gene 1 7 22 0.169037 0 45 0.169037 1
gene 1 8 22 0.10468 0 46 0.10468 1
gene 1 9 22 0.0787715 0 47 0.0787715 1
gene 1 10 22 0.247102 0 48 0.247102 1
gene 1 11 22 0.943151 0 49 0.943151 1
gene 1 12 22 0.222386 0 50 0.222386 1
gene 1 13 22 0.157803 0 51 0.157803 1
gene 1 14 22 -0.120961 0 52 -0.120961 1
gene 1 15 22 0.76986 0 53 0.76986 1
gene 1 16 22 0.194208 0 54 0.194208 1
gene 1 17 22 -0.444386 0 55 -0.444386 1
gene 1 18 22 0.0387768 0 56 0.0387768 1
gene 1 19 22 0.244743 0 57 0.244743 1
gene 1 1 23 0.217518 0 58 0.217518 1
gene 1 2 23 -0.0547131 0 59 -0.0547131 1
gene 1 3 23 -0.814473 0 60 -0.814473 1
gene 1 4 23 0.520388 0 61 0.520388 1
gene 1 5 23 -0.455104 0 62 -0.455104 1
gene 1 6 23 0.272911 0 63 0.272911 1
gene 1 7 23 -0.283085 0 64 -0.283085 1
gene 1 8 23 -0.056555 0 65 -0.056555 1
gene 1 9 23 -0.76832 0 66 -0.76832 1
gene 1 10 23 -0.286664 0 67 -0.286664 1
gene 1 11 23 -0.106363 0 68 -0.106363 1
gene 1 12 23 -0.143931 0 69 -0.143931 1
gene 1 13 23 -0.619065 0 70 -0.619065 1
gene 1 14 23 0.758026 0 71 0.758026 1
gene 1 15 23 -0.0964368 0 72 -0.0964368 1
gene 1 16 23 1.20926 0 73 1.20926 1
gene 1 17 23 0.238012 0 74 0.238012 1
gene 1 18 23 0.629738 0 75 0.629738 1
gene 1 19 23 -0.552878 0 76 -0.552878 1
genomeend 92
genomestart 94
trait 1 0 0 0 0 0 0 0 0 
node 1 1 1 1 0
node 2 1 1 1 0
node 3 1 1 1 0
node 4 1 1 1 0
node 5 1 1 1 0
node 6 1 1 1 0
node 7 1 1 1 0
node 8 1 1 1 0
node 9 1 1 1 0
node 10 1 1 1 0
node 11 1 1 1 0
node 12 1 1 1 0
node 13 1 1 1 0
node 14 1 1 1 0
node 15 1 1 1 0
node 16 1 1 1 0
node 17 1 1 1 0
node 18 1 1 1 0
node 19 1 1 3 0
node 20 1 0 2 0
node 21 1 0 2 0
node 22 1 0 2 0
node 23 1 0 2 0
gene 1 1 20 0.299754 0 1 0.299754 1
gene 1 2 20 -0.773765 0 2 -0.773765 1
gene 1 3 20 0.730379 0 3 0.730379 1
gene 1 4 20 -0.19495 0 4 -0.19495 1
gene 1 5 20 0.985605 0 5 0.985605 1
gene 1 6 20 0.0429688 0 6 0.0429688 1
gene 1 7 20 0.12662 0 7 0.12662 1
gene 1 8 20 -0.992857 0 8 -0.992857 1
gene 1 9 20 0.896389 0 9 0.896389 1
gene 1 10 20 0 0 10 0 1
gene 1 11 20 -0.133283 0 11 -0.133283 1
gene 1 12 20 0.302347 0 12 0.302347 1
gene 1 13 20 0 0 13 0 1
gene 1 14 20 0.44416 0 14 0.44416 1
gene 1 15 20 0.655762 0 15 0.655762 1
gene 1 16 20 -0.681887 0 16 -0.681887 1
gene 1 17 20 -0.931539 0 17 -0.931539 1
gene 1 18 20 0.792011 0 18 0.792011 1
gene 1 19 20 0.723036 0 19 0.723036 1
gene 1 1 21 0.45435 0 20 0.45435 1
gene 1 2 21 -0.412748 0 21 -0.412748 1
gene 1 3 21 0 0 22 0 1
gene 1 4 21 -0.17167 0 23 -0.17167 1
gene 1 5 21 -0.719781 0 24 -0.719781 1
gene 1 6 21 -0.121223 0 25 -0.121223 1
gene 1 7 21 -0.769402 0 26 -0.769402 1
gene 1 8 21 0.91099 0 27 0.91099 1
gene 1 9 21 0.451561 0 28 0.451561 1
gene 1 10 21 0.127116 0 29 0.127116 1
gene 1 11 21 -6.77484e-05 0 30 -6.77484e-05 1
gene 1 12 21 -0.669832 0 31 -0.669832 1
gene 1 13 21 0.213358 0 32 0.213358 1
gene 1 14 21 0 0 33 0 1
gene 1 15 21 0.098217 0 34 0.098217 1
gene 1 16 21 -0.00253204 0 35 -0.00253204 1
gene 1 17 21 -0.494459 0 36 -0.494459 1
gene 1 18 21 -0.371915 0 37 -0.371915 1
gene 1 19 21 0.88448 0 38 0.88448 1
gene 1 1 22 0.180796 0 39 0.180796 1
gene 1 2 22 0.56967 0 40 0.56967 1
gene 1 3 22 -0.348499 0 41 -0.348499 1
gene 1 4 22 0.267005 0 42 0.267005 1
gene 1 5 22 -0.722618 0 43 -0.722618 1
gene 1 6 22 0.715613 0 44 0.715613 1
gene 1 7 22 0.315762 0 45 0.315762 1
gene 1 8 22 -0.621597 0 46 -0.621597 1
gene 1 9 22 0.49659 0 47 0.49659 1
gene 1 10 22 0.156911 0 48 0.156911 1
gene 1 11 22 -0.728551 0 49 -0.728551 1
gene 1 12 22 0.949657 0 50 0.949657 1
gene 1 13 22 0.198091 0 51 0.198091 1
gene 1 14 22 0.383561 0 52 0.383561 1
gene 1 15 22 0.378638 0 53 0.378638 1
gene 1 16 22 0.578822 0 54 0.578822 1
gene 1 17 22 0.484896 0 55 0.484896 1
gene 1 18 22 -0.408297 0 56 -0.408297 1
gene 1 19 22 0.081357 0 57 0.081357 1
gene 1 1 23 0.412167 0 58 0.412167 1
gene 1 2 23 0.0264639 0 59 0.0264639 1
gene 1 3 23 0.128262 0 60 0.128262 1
gene 1 4 23 -0.537833 0 61 -0.537833 1
gene 1 5 23 -0.511324 0 62 -0.511324 1
gene 1 6 23 -0.670793 0 63 -0.670793 1
gene 1 7 23 0 0 64 0 1
gene 1 8 23 0.420047 0 65 0.420047 1
gene 1 9 23 0.130368 0 66 0.130368 1
gene 1 10 23 -0.508153 0 67 -0.508153 1
gene 1 11 23 -0.0218094 0 68 -0.0218094 1
gene 1 12 23 0.250704 0 69 0.250704 1
gene 1 13 23 -0.893994 0 70 -0.893994 1
gene 1 14 23 0.449287 0 71 0.449287 1
gene 1 15 23 -0.743131 0 72 -0.743131 1
gene 1 16 23 -0.12944 0 73 -0.12944 1
gene 1 17 23 0 0 74 0 1
gene 1 18 23 0 0 75 0 1
gene 1 19 23 0.289856 0 76 0.289856 1
genomeend 94
genomestart 95
trait 1 0 0 0 0 0 0 0 0 
node 1 1 1 1 0
node 2 1 1 1 0
node 3 1 1 1 0
node 4 1 1 1 0
node 5 1 1 1 0
node 6 1 1 1 0
node 7 1 1 1 0
node 8 1 1 1 0
node 9 1 1 1 0
node 10 1 1 1 0
node 11 1 1 1 0
node 12 1 1 1 0
node 13 1 1 1 0
node 14 1 1 1 0
node 15 1 1 1 0
node 16 1 1 1 0
node 17 1 1 1 0
node 18 1 1 1 0
node 19 1 1 3 0
node 20 1 0 2 0
node 21 1 0 2 0
node 22 1 0 2 0
node 23 1 0 2 0
gene 1 1 20 0.299754 0 1 0.299754 1
gene 1 2 20 0.00836985 0 2 0.00836985 1
gene 1 3 20 1.1495 0 3 1.1495 1
gene 1 4 20 -1.02553 0 4 -1.02553 1
gene 1 5 20 -0.240666 0 5 -0.240666 1
gene 1 6 20 0.306415 0 6 0.306415 1
gene 1 7 20 -1.29145 0 7 -1.29145 1
gene 1 8 20 -0.561428 0 8 -0.561428 1
gene 1 9 20 0.854857 0 9 0.854857 1
gene 1 10 20 -0.0229249 0 10 -0.0229249 1
gene 1 11 20 0.227816 0 11 0.227816 1
gene 1 12 20 0.332847 0 12 0.332847 1
gene 1 13 20 0.773723 0 13 0.773723 1
gene 1 14 20 0.401303 0 14 0.401303 1
gene 1 15 20 0.457409 0 15 0.457409 1
gene 1 16 20 -0.785447 0 16 -0.785447 1
gene 1 17 20 -0.421994 0 17 -0.421994 1
gene 1 18 20 1.268 0 18 1.268 1
gene 1 19 20 0.30304 0 19 0.30304 1
gene 1 1 21 -0.286417 0 20 -0.286417 1
gene 1 2 21 0.456937 0 21 0.456937 1
gene 1 3 21 0.360366 0 22 0.360366 1
gene 1 4 21 -0.386276 0 23 -0.386276 1
gene 1 5 21 -0.235954 0 24 -0.235954 1
gene 1 6 21 0.179185 0 25 0.179185 1
gene 1 7 21 -0.769402 0 26 -0.769402 1
gene 1 8 21 -0.316136 0 27 -0.316136 1
gene 1 9 21 0.0769996 0 28 0.0769996 1
gene 1 10 21 0.429527 0 29 0.429527 1
gene 1 11 21 -0.466819 0 30 -0.466819 1
gene 1 12 21 -1.24316 0 31 -1.24316 1
gene 1 13 21 0.491567 0 32 0.491567 1
gene 1 14 21 -0.0499068 0 33 -0.0499068 1
gene 1 15 21 -0.366097 0 34 -0.366097 1
gene 1 16 21 0.41845 0 35 0.41845 1
gene 1 17 21 -0.386073 0 36 -0.386073 1
gene 1 18 21 -0.364108 0 37 -0.364108 1
gene 1 19 21 0.967295 0 38 0.967295 1
gene 1 1 22 -0.0968725 0 39 -0.0968725 1
gene 1 2 22 1.44899e-05 0 40 1.44899e-05 1
gene 1 3 22 -0.905955 0 41 -0.905955 1
gene 1 4 22 -0.0444847 0 42 -0.0444847 1
gene 1 5 22 0.013248 0 43 0.013248 1
gene 1 6 22 0.5713 0 44 0.5713 1
gene 1 7 22 0.766439 0 45 0.766439 1
gene 1 8 22 -0.646901 0 46 -0.646901 1
gene 1 9 22 -1.19542 0 47 -1.19542 1
gene 1 10 22 -0.314276 0 48 -0.314276 1
gene 1 11 22 0.445484 0 49 0.445484 1
gene 1 12 22 0.784481 0 50 0.784481 1
gene 1 13 22 -0.0058993 0 51 -0.0058993 1
gene 1 14 22 0.45586 0 52 0.45586 1
gene 1 15 22 0.512798 0 53 0.512798 1
gene 1 16 22 0.710814 0 54 0.710814 1
gene 1 17 22 0.590778 0 55 0.590778 1
gene 1 18 22 -0.90222 0 56 -0.90222 1
gene 1 19 22 0.145758 0 57 0.145758 1
gene 1 1 23 0.412167 0 58 0.412167 1
gene 1 2 23 0.343159 0 59 0.343159 1
gene 1 3 23 0.229222 0 60 0.229222 1
gene 1 4 23 -0.0735432 0 61 -0.0735432 1
gene 1 5 23 -0.511324 0 62 -0.511324 1
gene 1 6 23 -1.11979 0 63 -1.11979 1
gene 1 7 23 -0.662927 0 64 -0.662927 1
gene 1 8 23 0.849474 0 65 0.849474 1
gene 1 9 23 -0.0400618 0 66 -0.0400618 1
gene 1 10 23 -0.190378 0 67 -0.190378 1
gene 1 11 23 -0.267382 0 68 -0.267382 1
gene 1 12 23 1.14233 0 69 1.14233 1
gene 1 13 23 -0.893994 0 70 -0.893994 1
gene 1 14 23 0.449287 0 71 0.449287 1
gene 1 15 23 -0.60115 0 72 -0.60115 1
gene 1 16 23 -0.208957 0 73 -0.208957 1
gene 1 17 23 0.454428 0 74 0.454428 1
gene 1 18 23 0.0826103 0 75 0.0826103 1
gene 1 19 23 0.61261 0 76 0.61261 1
genomeend 95
genomestart 96
trait 1 0 0 0 0 0 0 0 0 
node 1 1 1 1 0
node 2 1 1 1 0
node 3 1 1 1 0
node 4 1 1 1 0
node 5 1 1 1 0
node 6 1 1 1 0
node 7 1 1 1 0
node 8 1 1 1 0
node 9 1 1 1 0
node 10 1 1 1 0
node 11 1 1 1 0
node 12 1 1 1 0
node 13 1 1 1 0
node 14 1 1 1 0
node 15 1 1 1 0
node 16 1 1 1 0
node 17 1 1 1 0
node 18 1 1 1 0
node 19 1 1 3 0
node 20 1 0 2 0
node 21 1 0 2 0
node 22 1 0 2 0
node 23 1 0 2 0
gene 1 1 20 -0.427838 0 1 -0.427838 1
gene 1 2 20 -0.411387 0 2 -0.411387 1
gene 1 3 20 0.787253 0 3 0.787253 1
gene 1 4 20 -0.610073 0 4 -0.610073 1
gene 1 5 20 0.234006 0 5 0.234006 1
gene 1 6 20 0.0459136 0 6 0.0459136 1
gene 1 7 20 -0.967911 0 7 -0.967911 1
gene 1 8 20 0.534971 0 8 0.534971 1
gene 1 9 20 0.193952 0 9 0.193952 1
gene 1 10 20 -1.08291 0 10 -1.08291 1
gene 1 11 20 0.455253 0 11 0.455253 1
gene 1 12 20 1.49926 0 12 1.49926 1
gene 1 13 20 0.0276211 0 13 0.0276211 1
gene 1 14 20 0.820566 0 14 0.820566 1
gene 1 15 20 -0.797019 0 15 -0.797019 1
gene 1 16 20 -0.202324 0 16 -0.202324 1
gene 1 17 20 0.0723771 0 17 0.0723771 1
gene 1 18 20 -0.0272817 0 18 -0.0272817 1
gene 1 19 20 0.191788 0 19 0.191788 1
gene 1 1 21 -1.17342 0 20 -1.17342 1
gene 1 2 21 -1.09319 0 21 -1.09319 1
gene 1 3 21 -0.0397181 0 22 -0.0397181 1
gene 1 4 21 0.765924 0 23 0.765924 1
gene 1 5 21 -0.332725 0 24 -0.332725 1
gene 1 6 21 -0.580187 0 25 -0.580187 1
gene 1 7 21 -0.441285 0 26 -0.441285 1
gene 1 8 21 -0.025507 0 27 -0.025507 1
gene 1 9 21 -0.817863 0 28 -0.817863 1
gene 1 10 21 0.809437 0 29 0.809437 1
gene 1 11 21 -0.0377948 0 30 -0.0377948 1
gene 1 12 21 0.899431 0 31 0.899431 1
gene 1 13 21 0.23641 0 32 0.23641 1
gene 1 14 21 0.30654 0 33 0.30654 1
gene 1 15 21 -0.240105 0 34 -0.240105 1
gene 1 16 21 0.573719 0 35 0.573719 1
gene 1 17 21 -0.0349198 0 36 -0.0349198 1
gene 1 18 21 -0.475534 0 37 -0.475534 1
gene 1 19 21 0.552975 0 38 0.552975 1
gene 1 1 22 -0.423718 0 39 -0.423718 1
gene 1 2 22 0.772469 0 40 0.772469 1
gene 1 3 22 0.265779 0 41 0.265779 1
gene 1 4 22 -0.321096 0 42 -0.321096 1
gene 1 5 22 0.572695 0 43 0.572695 1
gene 1 6 22 -1.14726 0 44 -1.14726 1
gene 1 7 22 0.294342 0 45 0.294342 1
gene 1 8 22 0.770433 0 46 0.770433 1
gene 1 9 22 0.230179 0 47 0.230179 1
gene 1 10 22 0.247253 0 48 0.247253 1
gene 1 11 22 -0.0298889 0 49 -0.0298889 1
gene 1 12 22 -0.364324 0 50 -0.364324 1
gene 1 13 22 0.710346 0 51 0.710346 1
gene 1 14 22 -0.0798822 0 52 -0.0798822 1
gene 1 15 22 -1.08147 0 53 -1.08147 1
gene 1 16 22 0.474145 0 54 0.474145 1
gene 1 17 22 0.850214 0 55 0.850214 1
gene 1 18 22 -0.552802 0 56 -0.552802 1
gene 1 19 22 0.0868848 0 57 0.0868848 1
gene 1 1 23 -0.757488 0 58 -0.757488 1
gene 1 2 23 -1.00262 0 59 -1.00262 1
gene 1 3 23 -0.00343298 0 60 -0.00343298 1
gene 1 4 23 -0.215589 0 61 -0.215589 1
gene 1 5 23 -0.0545414 0 62 -0.0545414 1
gene 1 6 23 0.300394 0 63 0.300394 1
gene 1 7 23 0.0928202 0 64 0.0928202 1
gene 1 8 23 -1.02896 0 65 -1.02896 1
gene 1 9 23 0 0 66 0 1
gene 1 10 23 0.279512 0 67 0.279512 1
gene 1 11 23 0.50461 0 68 0.50461 1
gene 1 12 23 -0.238849 0 69 -0.238849 1
gene 1 13 23 0.00533537 0 70 0.00533537 1
gene 1 14 23 -0.272129 0 71 -0.272129 1
gene 1 15 23 -0.499917 0 72 -0.499917 1
gene 1 16 23 -0.0940715 0 73 -0.0940715 1
gene 1 17 23 -1.12896 0 74 -1.12896 1
gene 1 18 23 0.479363 0 75 0.479363 1
gene 1 19 23 -0.386275 0 76 -0.386275 1
genomeend 96
genomestart 97
trait 1 0 0 0 0 0 0 0 0 
node 1 1 1 1 0
node 2 1 1 1 0
node 3 1 1 1 0
node 4 1 1 1 0
node 5 1 1 1 0
node 6 1 1 1 0
node 7 1 1 1 0
node 8 1 1 1 0
node 9 1 1 1 0
node 10 1 1 1 0
node 11 1 1 1 0
node 12 1 1 1 0
node 13 1 1 1 0
node 14 1 1 1 0
node 15 1 1 1 0
node 16 1 1 1 0
node 17 1 1 1 0
node 18 1 1 1 0
node 19 1 1 3 0
node 20 1 0 2 0
node 21 1 0 2 0
node 22 1 0 2 0
node 23 1 0 2 0
gene 1 1 20 -0.81177 0 1 -0.81177 1
gene 1 2 20 -0.075847 0 2 -0.075847 1
gene 1 3 20 1.32263 0 3 1.32263 1
gene 1 4 20 0.0553204 0 4 0.0553204 1
gene 1 5 20 -1.20332 0 5 -1.20332 1
gene 1 6 20 -0.402271 0 6 -0.402271 1
gene 1 7 20 0.630361 0 7 0.630361 1
gene 1 8 20 0.452874 0 8 0.452874 1
gene 1 9 20 0.370693 0 9 0.370693 1
gene 1 10 20 0.963488 0 10 0.963488 1
gene 1 11 20 0.215892 0 11 0.215892 1
gene 1 12 20 0.0889193 0 12 0.0889193 1
gene 1 13 20 0.245769 0 13 0.245769 1
gene 1 14 20 0.397256 0 14 0.397256 1
gene 1 15 20 -0.615466 0 15 -0.615466 1
gene 1 16 20 0.720796 0 16 0.720796 1
gene 1 17 20 -0.00546847 0 17 -0.00546847 1
gene 1 18 20 0.132597 0 18 0.132597 1
gene 1 19 20 0.501852 0 19 0.501852 1
gene 1 1 21 -0.839275 0 20 -0.839275 1
gene 1 2 21 -0.475882 0 21 -0.475882 1
gene 1 3 21 0.211883 0 22 0.211883 1
gene 1 4 21 0.185741 0 23 0.185741 1
gene 1 5 21 0.494009 0 24 0.494009 1
gene 1 6 21 -0.191087 0 25 -0.191087 1
gene 1 7 21 -0.426314 0 26 -0.426314 1
gene 1 8 21 -1.31819 0 27 -1.31819 1
gene 1 9 21 -1.05268 0 28 -1.05268 1
gene 1 10 21 -0.244785 0 29 -0.244785 1
gene 1 11 21 -0.777867 0 30 -0.777867 1
gene 1 12 21 0.323123 0 31 0.323123 1
gene 1 13 21 -1.06939 0 32 -1.06939 1
gene 1 14 21 0.244039 0 33 0.244039 1
gene 1 15 21 1.20201 0 34 1.20201 1
gene 1 16 21 -0.801649 0 35 -0.801649 1
gene 1 17 21 -0.1157 0 36 -0.1157 1
gene 1 18 21 -0.532663 0 37 -0.532663 1
gene 1 19 21 0.529483 0 38 0.529483 1
gene 1 1 22 0.250101 0 39 0.250101 1
gene 1 2 22 -0.175564 0 40 -0.175564 1
gene 1 3 22 0.420663 0 41 0.420663 1
gene 1 4 22 0.110006 0 42 0.110006 1
gene 1 5 22 -0.253474 0 43 -0.253474 1
gene 1 6 22 0.568259 0 44 0.568259 1
gene 1 7 22 0.8309 0 45 0.8309 1
gene 1 8 22 0.25844 0 46 0.25844 1
gene 1 9 22 0.493779 0 47 0.493779 1
gene 1 10 22 0.74752 0 48 0.74752 1
gene 1 11 22 0.267105 0 49 0.267105 1
gene 1 12 22 -0.89348 0 50 -0.89348 1
gene 1 13 22 0.492737 0 51 0.492737 1
gene 1 14 22 -0.917727 0 52 -0.917727 1
gene 1 15 22 -0.00590414 0 53 -0.00590414 1
gene 1 16 22 -0.797149 0 54 -0.797149 1
gene 1 17 22 0.505221 0 55 0.505221 1
gene 1 18 22 0.236681 0 56 0.236681 1
gene 1 19 22 0.0613671 0 57 0.0613671 1
gene 1 1 23 -0.277139 0 58 -0.277139 1
gene 1 2 23 0.102637 0 59 0.102637 1
gene 1 3 23 -0.444432 0 60 -0.444432 1
gene 1 4 23 -0.363411 0 61 -0.363411 1
gene 1 5 23 0.254893 0 62 0.254893 1
gene 1 6 23 -1.04382 0 63 -1.04382 1
gene 1 7 23 -0.0314902 0 64 -0.0314902 1
gene 1 8 23 -0.183696 0 65 -0.183696 1
gene 1 9 23 -0.0624774 0 66 -0.0624774 1
gene 1 10 23 -0.17895 0 67 -0.17895 1
gene 1 11 23 0.146167 0 68 0.146167 1
gene 1 12 23 0.645068 0 69 0.645068 1
gene 1 13 23 -0.20964 0 70 -0.20964 1
gene 1 14 23 -0.428077 0 71 -0.428077 1
gene 1 15 23 -0.000107334 0 72 -0.000107334 1
gene 1 16 23 0.46603 0 73 0.46603 1
gene 1 17 23 0.73802 0 74 0.73802 1
gene 1 18 23 -0.261963 0 75 -0.261963 1
gene 1 19 23 0.576197 0 76 0.576197 1
gene 1 20 21 0.0347493 0 78 0.0347493 1
genomeend 97
genomestart 98
trait 1 0 0.29085 0 0 0 0 0 0.692315 
node 1 1 1 1 0
node 2 1 1 1 0
node 3 1 1 1 0
node 4 1 1 1 0
node 5 1 1 1 0
node 6 1 1 1 0
node 7 1 1 1 0
node 8 1 1 1 0
node 9 1 1 1 0
node 10 1 1 1 0
node 11 1 1 1 0
node 12 1 1 1 0
node 13 1 1 1 0
node 14 1 1 1 0
node 15 1 1 1 0
node 16 1 1 1 0
node 17 1 1 1 0
node 18 1 1 1 0
node 19 1 1 3 0
node 20 1 0 2 0
node 21 1 0 2 0
node 22 1 0 2 0
node 23 1 0 2 0
gene 1 1 20 0.054538 0 1 0.054538 1
gene 1 2 20 -0.0227539 0 2 -0.0227539 1
gene 1 3 20 0.594359 0 3 0.594359 1
gene 1 4 20 0.160619 0 4 0.160619 1
gene 1 5 20 -0.180545 0 5 -0.180545 1
gene 1 6 20 0.533643 0 6 0.533643 1
gene 1 7 20 -0.0328676 0 7 -0.0328676 1
gene 1 8 20 0.411554 0 8 0.411554 1
gene 1 9 20 0.241759 0 9 0.241759 1
gene 1 10 20 0.490277 0 10 0.490277 1
gene 1 11 20 0.00123119 0 11 0.00123119 1
gene 1 12 20 0.186851 0 12 0.186851 1
gene 1 13 20 0.309652 0 13 0.309652 1
gene 1 14 20 -0.0422022 0 14 -0.0422022 1
gene 1 15 20 0.232537 0 15 0.232537 1
gene 1 16 20 0.364846 0 16 0.364846 1
gene 1 17 20 -0.0783503 0 17 -0.0783503 1
gene 1 18 20 0.240039 0 18 0.240039 1
gene 1 19 20 -0.0265545 0 19 -0.0265545 1
gene 1 1 21 0.15171 0 20 0.15171 1
gene 1 2 21 0.390011 0 21 0.390011 1
gene 1 3 21 -0.693978 0 22 -0.693978 1
gene 1 4 21 0.0284476 0 23 0.0284476 1
gene 1 5 21 -0.100846 0 24 -0.100846 1
gene 1 6 21 -0.120603 0 25 -0.120603 1
gene 1 7 21 0.180845 0 26 0.180845 1
gene 1 8 21 -0.117635 0 27 -0.117635 1
gene 1 9 21 -0.610596 0 28 -0.610596 1
gene 1 10 21 -0.437661 0 29 -0.437661 1
gene 1 11 21 -0.0422556 0 30 -0.0422556 1
gene 1 12 21 -0.0238784 0 31 -0.0238784 1
gene 1 13 21 -0.161182 0 32 -0.161182 1
gene 1 14 21 -0.395164 0 33 -0.395164 1
gene 1 15 21 0.672995 0 34 0.672995 1
gene 1 16 21 -0.353222 0 35 -0.353222 1
gene 1 17 21 -0.0320538 0 36 -0.0320538 1
gene 1 18 21 0.201189 0 37 0.201189 1
gene 1 19 21 0.0308773 0 38 0.0308773 1
gene 1 1 22 0.554502 0 39 0.554502 1
gene 1 2 22 0.0984958 0 40 0.0984958 1
gene 1 3 22 -0.42947 0 41 -0.42947 1
gene 1 4 22 0.0864304 0 42 0.0864304 1
gene 1 5 22 0.854803 0 43 0.854803 1
gene 1 6 22 -0.564718 0 44 -0.564718 1
gene 1 7 22 -0.433343 0 45 -0.433343 1
gene 1 8 22 -0.0925024 0 46 -0.0925024 1
gene 1 9 22 0.0141006 0 47 0.0141006 1
gene 1 10 22 -0.00214546 0 48 -0.00214546 1
gene 1 11 22 -0.134902 0 49 -0.134902 1
gene 1 12 22 0.463873 0 50 0.463873 1
gene 1 13 22 0.0728494 0 51 0.0728494 1
gene 1 14 22 0.131125 0 52 0.131125 1
gene 1 15 22 0.00389314 0 53 0.00389314 1
gene 1 16 22 0.115168 0 54 0.115168 1
gene 1 17 22 0.087743 0 55 0.087743 1
gene 1 18 22 -0.307 0 56 -0.307 1
gene 1 19 22 0.632079 0 57 0.632079 1
gene 1 1 23 0.460157 0 58 0.460157 1
gene 1 2 23 -0.00487292 0 59 -0.00487292 1
gene 1 3 23 0.07786 0 60 0.07786 1
gene 1 4 23 0.23715 0 61 0.23715 1
gene 1 5 23 -0.128378 0 62 -0.128378 1
gene 1 6 23 0.0921207 0 63 0.0921207 1
gene 1 7 23 0.182781 0 64 0.182781 1
gene 1 8 23 -0.118673 0 65 -0.118673 1
gene 1 9 23 0.260185 0 66 0.260185 1
gene 1 10 23 0.401703 0 67 0.401703 1
gene 1 11 23 0.0444508 0 68 0.0444508 1
gene 1 12 23 -0.106161 0 69 -0.106161 1
gene 1 13 23 -0.37191 0 70 -0.37191 1
gene 1 14 23 -0.0194882 0 71 -0.0194882 1
gene 1 15 23 0.0460407 0 72 0.0460407 1
gene 1 16 23 0.393284 0 73 0.393284 1
gene 1 17 23 0.140699 0 74 0.140699 1
gene 1 18 23 0.136619 0 75 0.136619 1
gene 1 19 23 -0.0630053 0 76 -0.0630053 1
genomeend 98
genomestart 101
trait 1 0 0 0 0 0 0 0 0 
node 1 1 1 1 0
node 2 1 1 1 0
node 3 1 1 1 0
node 4 1 1 1 0
node 5 1 1 1 0
node 6 1 1 1 0
node 7 1 1 1 0
node 8 1 1 1 0
node 9 1 1 1 0
node 10 1 1 1 0
node 11 1 1 1 0
node 12 1 1 1 0
node 13 1 1 1 0
node 14 1 1 1 0
node 15 1 1 1 0
node 16 1 1 1 0
node 17 1 1 1 0
node 18 1 1 1 0
node 19 1 1 3 0
node 20 1 0 2 0
node 21 1 0 2 0
node 22 1 0 2 0
node 23 1 0 2 0
gene 1 1 20 -0.463558 0 1 -0.463558 1
gene 1 2 20 -0.414399 0 2 -0.414399 1
gene 1 3 20 0.258039 0 3 0.258039 1
gene 1 4 20 0.182028 0 4 0.182028 1
gene 1 5 20 -1.19599 0 5 -1.19599 1
gene 1 6 20 0.0783925 0 6 0.0783925 1
gene 1 7 20 0.571558 0 7 0.571558 1
gene 1 8 20 0.0492784 0 8 0.0492784 1
gene 1 9 20 0.649347 0 9 0.649347 1
gene 1 10 20 0.504016 0 10 0.504016 1
gene 1 11 20 0.460891 0 11 0.460891 1
gene 1 12 20 1.20134 0 12 1.20134 1
gene 1 13 20 0.444957 0 13 0.444957 1
gene 1 14 20 0.866628 0 14 0.866628 1
gene 1 15 20 -0.615466 0 15 -0.615466 1
gene 1 16 20 -0.177178 0 16 -0.177178 1
gene 1 17 20 -0.329998 0 17 -0.329998 1
gene 1 18 20 0.132597 0 18 0.132597 1
gene 1 19 20 0.0706589 0 19 0.0706589 1
gene 1 1 21 -1.29635 0 20 -1.29635 1
gene 1 2 21 -0.242521 0 21 -0.242521 1
gene 1 3 21 -0.430822 0 22 -0.430822 1
gene 1 4 21 -0.368627 0 23 -0.368627 1
gene 1 5 21 0.201383 0 24 0.201383 1
gene 1 6 21 0.0279622 0 25 0.0279622 1
gene 1 7 21 0.0171235 0 26 0.0171235 1
gene 1 8 21 -1.0987 0 27 -1.0987 1
gene 1 9 21 0.166893 0 28 0.166893 1
gene 1 10 21 0.835253 0 29 0.835253 1
gene 1 11 21 -0.805975 0 30 -0.805975 1
gene 1 12 21 0.731743 0 31 0.731743 1
gene 1 13 21 -1.29041 0 32 -1.29041 1
gene 1 14 21 0.771595 0 33 0.771595 1
gene 1 15 21 1.12306 0 34 1.12306 1
gene 1 16 21 -0.401812 0 35 -0.401812 1
gene 1 17 21 -0.120647 0 36 -0.120647 1
gene 1 18 21 -0.131081 0 37 -0.131081 1
gene 1 19 21 -0.288528 0 38 -0.288528 1
gene 1 1 22 -0.557499 0 39 -0.557499 1
gene 1 2 22 -0.844797 0 40 -0.844797 1
gene 1 3 22 0.51559 0 41 0.51559 1
gene 1 4 22 -0.145313 0 42 -0.145313 1
gene 1 5 22 0.224801 0 43 0.224801 1
gene 1 6 22 -0.884233 0 44 -0.884233 1
gene 1 7 22 0.420311 0 45 0.420311 1
gene 1 8 22 0.215377 0 46 0.215377 1
gene 1 9 22 0.00222194 0 47 0.00222194 1
gene 1 10 22 0.39257 0 48 0.39257 1
gene 1 11 22 1.14093 0 49 1.14093 1
gene 1 12 22 -0.344789 0 50 -0.344789 1
gene 1 13 22 0.968368 0 51 0.968368 1
gene 1 14 22 -0.533106 0 52 -0.533106 1
gene 1 15 22 -0.284066 0 53 -0.284066 1
gene 1 16 22 -0.636271 0 54 -0.636271 1
gene 1 17 22 0.230764 0 55 0.230764 1
gene 1 18 22 0.236681 0 56 0.236681 1
gene 1 19 22 -0.398773 0 57 -0.398773 1
gene 1 1 23 -0.047901 0 58 -0.047901 1
gene 1 2 23 -0.229084 0 59 -0.229084 1
gene 1 3 23 -0.0109583 0 60 -0.0109583 1
gene 1 4 23 -0.135865 0 61 -0.135865 1
gene 1 5 23 -0.0551972 0 62 -0.0551972 1
gene 1 6 23 -0.852008 0 63 -0.852008 1
gene 1 7 23 -0.398964 0 64 -0.398964 1
gene 1 8 23 0.372881 0 65 0.372881 1
gene 1 9 23 0.13888 0 66 0.13888 1
gene 1 10 23 -0.0884382 0 67 -0.0884382 1
gene 1 11 23 0.0666754 0 68 0.0666754 1
gene 1 12 23 0.267481 0 69 0.267481 1
gene 1 13 23 -1.13572 0 70 -1.13572 1
gene 1 14 23 0.421899 0 71 0.421899 1
gene 1 15 23 0.0932425 0 72 0.0932425 1
gene 1 16 23 1.2712 0 73 1.2712 1
gene 1 17 23 -0.0179208 0 74 -0.0179208 1
gene 1 18 23 0.221783 0 75 0.221783 1
gene 1 19 23 -1.07794 0 76 -1.07794 1
genomeend 101
genomestart 102
trait 1 0 0 0 0 0 0 0 0 
node 1 1 1 1 0
node 2 1 1 1 0
node 3 1 1 1 0
node 4 1 1 1 0
node 5 1 1 1 0
node 6 1 1 1 0
node 7 1 1 1 0
node 8 1 1 1 0
node 9 1 1 1 0
node 10 1 1 1 0
node 11 1 1 1 0
node 12 1 1 1 0
node 13 1 1 1 0
node 14 1 1 1 0
node 15 1 1 1 0
node 16 1 1 1 0
node 17 1 1 1 0
node 18 1 1 1 0
node 19 1 1 3 0
node 20 1 0 2 0
node 21 1 0 2 0
node 22 1 0 2 0
node 23 1 0 2 0
gene 1 1 20 -0.13276 0 1 -0.13276 1
gene 1 2 20 -0.860096 0 2 -0.860096 1
gene 1 3 20 -0.532687 0 3 -0.532687 1
gene 1 4 20 -0.297469 0 4 -0.297469 1
gene 1 5 20 -0.482713 0 5 -0.482713 1
gene 1 6 20 0.471613 0 6 0.471613 1
gene 1 7 20 1.27193 0 7 1.27193 1
gene 1 8 20 0.0482676 0 8 0.0482676 1
gene 1 9 20 0.719252 0 9 0.719252 1
gene 1 10 20 -0.00689786 0 10 -0.00689786 1
gene 1 11 20 0.882233 0 11 0.882233 1
gene 1 12 20 0.610153 0 12 0.610153 1
gene 1 13 20 -0.313144 0 13 -0.313144 1
gene 1 14 20 0.183122 0 14 0.183122 1
gene 1 15 20 -0.714596 0 15 -0.714596 1
gene 1 16 20 0.237512 0 16 0.237512 1
gene 1 17 20 -0.201366 0 17 -0.201366 1
gene 1 18 20 0.0175383 0 18 0.0175383 1
gene 1 19 20 -0.377338 0 19 -0.377338 1
gene 1 1 21 -0.474222 0 20 -0.474222 1
gene 1 2 21 -0.356188 0 21 -0.356188 1
gene 1 3 21 0.630486 0 22 0.630486 1
gene 1 4 21 -1.0071 0 23 -1.0071 1
gene 1 5 21 -1.64123 0 24 -1.64123 1
gene 1 6 21 0.355349 0 25 0.355349 1
gene 1 7 21 0.53253 0 26 0.53253 1
gene 1 8 21 -0.452259 0 27 -0.452259 1
gene 1 9 21 -0.71928 0 28 -0.71928 1
gene 1 10 21 0.137489 0 29 0.137489 1
gene 1 11 21 -0.949456 0 30 -0.949456 1
gene 1 12 21 0.0350668 0 31 0.0350668 1
gene 1 13 21 -0.032532 0 32 -0.032532 1
gene 1 14 21 -1.17495 0 33 -1.17495 1
gene 1 15 21 -0.400282 0 34 -0.400282 1
gene 1 16 21 0.876192 0 35 0.876192 1
gene 1 17 21 1.07702 0 36 1.07702 1
gene 1 18 21 -0.153892 0 37 -0.153892 1
gene 1 19 21 -0.275972 0 38 -0.275972 1
gene 1 1 22 -0.0092678 0 39 -0.0092678 1
gene 1 2 22 -0.226104 0 40 -0.226104 1
gene 1 3 22 -0.139341 0 41 -0.139341 1
gene 1 4 22 -0.179358 0 42 -0.179358 1
gene 1 5 22 0.356575 0 43 0.356575 1
gene 1 6 22 -1.0176 0 44 -1.0176 1
gene 1 7 22 0.0791858 0 45 0.0791858 1
gene 1 8 22 -0.0355913 0 46 -0.0355913 1
gene 1 9 22 -0.0946083 0 47 -0.0946083 1
gene 1 10 22 -0.641661 0 48 -0.641661 1
gene 1 11 22 0.456223 0 49 0.456223 1
gene 1 12 22 0.417829 0 50 0.417829 1
gene 1 13 22 -0.707612 0 51 -0.707612 1
gene 1 14 22 0.603376 0 52 0.603376 1
gene 1 15 22 0.244353 0 53 0.244353 1
gene 1 16 22 0.419601 0 54 0.419601 1
gene 1 17 22 0.197944 0 55 0.197944 1
gene 1 18 22 0.604773 0 56 0.604773 1
gene 1 19 22 -0.0102838 0 57 -0.0102838 1
gene 1 1 23 -0.27243 0 58 -0.27243 1
gene 1 2 23 -0.30583 0 59 -0.30583 1
gene 1 3 23 0.794641 0 60 0.794641 1
gene 1 4 23 -0.196283 0 61 -0.196283 1
gene 1 5 23 -1.34802 0 62 -1.34802 1
gene 1 6 23 0.434764 0 63 0.434764 1
gene 1 7 23 0.0699038 0 64 0.0699038 1
gene 1 8 23 0.184471 0 65 0.184471 1
gene 1 9 23 0.574982 0 66 0.574982 1
gene 1 10 23 0.854101 0 67 0.854101 1
gene 1 11 23 -0.108908 0 68 -0.108908 1
gene 1 12 23 0.889244 0 69 0.889244 1
gene 1 13 23 0.944682 0 70 0.944682 1
gene 1 14 23 0.522851 0 71 0.522851 1
gene 1 15 23 -0.48439 0 72 -0.48439 1
gene 1 16 23 0.266982 0 73 0.266982 1
gene 1 17 23 0.172223 0 74 0.172223 1
gene 1 18 23 -0.656383 0 75 -0.656383 1
gene 1 19 23 1.14514 0 76 1.14514 1
genomeend 102
genomestart 103
trait 1 0 0 0.265289 0 0 0 0.205997 0 
node 1 1 1 1 0
node 2 1 1 1 0
node 3 1 1 1 0
node 4 1 1 1 0
node 5 1 1 1 0
node 6 1 1 1 0
node 7 1 1 1 0
node 8 1 1 1 0
node 9 1 1 1 0
node 10 1 1 1 0
node 11 1 1 1 0
node 12 1 1 1 0
node 13 1 1 1 0
node 14 1 1 1 0
node 15 1 1 1 0
node 16 1 1 1 0
node 17 1 1 1 0
node 18 1 1 1 0
node 19 1 1 3 0
node 20 1 0 2 0
node 21 1 0 2 0
node 22 1 0 2 0
node 23 1 0 2 0
gene 1 1 20 -0.166138 0 1 -0.166138 1
gene 1 2 20 -0.920636 0 2 -0.920636 1
gene 1 3 20 -0.294416 0 3 -0.294416 1
gene 1 4 20 0.0163096 0 4 0.0163096 1
gene 1 5 20 -0.515906 0 5 -0.515906 1
gene 1 6 20 -0.246629 0 6 -0.246629 1
gene 1 7 20 0.431738 0 7 0.431738 1
gene 1 8 20 -0.564218 0 8 -0.564218 1
gene 1 9 20 -0.45106 0 9 -0.45106 1
gene 1 10 20 0.277016 0 10 0.277016 1
gene 1 11 20 0.440091 0 11 0.440091 1
gene 1 12 20 1.00464 0 12 1.00464 1
gene 1 13 20 0.546487 0 13 0.546487 1
gene 1 14 20 -0.293751 0 14 -0.293751 1
gene 1 15 20 0.73761 0 15 0.73761 1
gene 1 16 20 -0.499329 0 16 -0.499329 1
gene 1 17 20 -0.660789 0 17 -0.660789 1
gene 1 18 20 0.321136 0 18 0.321136 1
gene 1 19 20 0.328801 0 19 0.328801 1
gene 1 1 21 0.212238 0 20 0.212238 1
gene 1 2 21 -0.795504 0 21 -0.795504 1
gene 1 3 21 0.312224 0 22 0.312224 1
gene 1 4 21 0.857536 0 23 0.857536 1
gene 1 5 21 -0.891262 0 24 -0.891262 1
gene 1 6 21 0.543608 0 25 0.543608 1
gene 1 7 21 -0.624474 0 26 -0.624474 1
gene 1 8 21 -0.594564 0 27 -0.594564 1
gene 1 9 21 0.363906 0 28 0.363906 1
gene 1 10 21 0.866637 0 29 0.866637 1
gene 1 11 21 -0.598356 0 30 -0.598356 1
gene 1 12 21 0.163808 0 31 0.163808 1
gene 1 13 21 0.202882 0 32 0.202882 1
gene 1 14 21 0.499622 0 33 0.499622 1
gene 1 15 21 -0.771358 0 34 -0.771358 1
gene 1 16 21 0.262525 0 35 0.262525 1
gene 1 17 21 -0.121993 0 36 -0.121993 1
gene 1 18 21 -0.20881 0 37 -0.20881 1
gene 1 19 21 -0.842554 0 38 -0.842554 1
gene 1 1 22 -0.331894 0 39 -0.331894 1
gene 1 2 22 -0.494024 0 40 -0.494024 1
gene 1 3 22 0.602158 0 41 0.602158 1
gene 1 4 22 -0.23469 0 42 -0.23469 1
gene 1 5 22 -0.0876604 0 43 -0.0876604 1
gene 1 6 22 -0.68922 0 44 -0.68922 1
gene 1 7 22 0.731421 0 45 0.731421 1
gene 1 8 22 0.493948 0 46 0.493948 1
gene 1 9 22 -0.825603 0 47 -0.825603 1
gene 1 10 22 0.0506602 0 48 0.0506602 1
gene 1 11 22 1.17717 0 49 1.17717 1
gene 1 12 22 0.384757 0 50 0.384757 1
gene 1 13 22 0.311641 0 51 0.311641 1
gene 1 14 22 -0.061463 0 52 -0.061463 1
gene 1 15 22 1.16443 0 53 1.16443 1
gene 1 16 22 0.277529 0 54 0.277529 1
gene 1 17 22 -0.173584 0 55 -0.173584 1
gene 1 18 22 0.00592506 0 56 0.00592506 1
gene 1 19 22 0.232354 0 57 0.232354 1
gene 1 1 23 0.194832 0 58 0.194832 1
gene 1 2 23 -0.758997 0 59 -0.758997 1
gene 1 3 23 -0.12103 0 60 -0.12103 1
gene 1 4 23 0.621673 0 61 0.621673 1
gene 1 5 23 0 0 62 0 1
gene 1 6 23 0.911119 0 63 0.911119 1
gene 1 7 23 -1.08497 0 64 -1.08497 1
gene 1 8 23 0.518939 0 65 0.518939 1
gene 1 9 23 -0.373331 0 66 -0.373331 1
gene 1 10 23 -0.013019 0 67 -0.013019 1
gene 1 11 23 -0.265445 0 68 -0.265445 1
gene 1 12 23 -0.295505 0 69 -0.295505 1
gene 1 13 23 -0.25881 0 70 -0.25881 1
gene 1 14 23 0.610812 0 71 0.610812 1
gene 1 15 23 0.63244 0 72 0.63244 1
gene 1 16 23 0.866521 0 73 0.866521 1
gene 1 17 23 0.341485 0 74 0.341485 1
gene 1 18 23 0.200203 0 75 0.200203 1
gene 1 19 23 -1.08563 0 76 -1.08563 1
genomeend 103
genomestart 104
trait 1 0 0.767674 0 0 0.52155 0.265726 0 0.235246 
node 1 1 1 1 0
node 2 1 1 1 0
node 3 1 1 1 0
node 4 1 1 1 0
node 5 1 1 1 0
node 6 1 1 1 0
node 7 1 1 1 0
node 8 1 1 1 0
node 9 1 1 1 0
node 10 1 1 1 0
node 11 1 1 1 0
node 12 1 1 1 0
node 13 1 1 1 0
node 14 1 1 1 0
node 15 1 1 1 0
node 16 1 1 1 0
node 17 1 1 1 0
node 18 1 1 1 0
node 19 1 1 3 0
node 20 1 0 2 0
node 21 1 0 2 0
node 22 1 0 2 0
node 23 1 0 2 0
gene 1 1 20 0.611376 0 1 0.611376 1
gene 1 2 20 -0.872616 0 2 -0.872616 1
gene 1 3 20 0.335771 0 3 0.335771 1
gene 1 4 20 -1.02166 0 4 -1.02166 1
gene 1 5 20 -0.154941 0 5 -0.154941 1
gene 1 6 20 0.33467 0 6 0.33467 1
gene 1 7 20 -0.723466 0 7 -0.723466 1
gene 1 8 20 0.679348 0 8 0.679348 1
gene 1 9 20 -0.354273 0 9 -0.354273 1
gene 1 10 20 -0.0747664 0 10 -0.0747664 1
gene 1 11 20 0.478314 0 11 0.478314 1
gene 1 12 20 0.74223 0 12 0.74223 1
gene 1 13 20 -0.139162 0 13 -0.139162 1
gene 1 14 20 0.686689 0 14 0.686689 1
gene 1 15 20 1.03128 0 15 1.03128 1
gene 1 16 20 -0.723128 0 16 -0.723128 1
gene 1 17 20 -0.503152 0 17 -0.503152 1
gene 1 18 20 0.366784 0 18 0.366784 1
gene 1 19 20 0.546367 0 19 0.546367 1
gene 1 1 21 0.448494 0 20 0.448494 1
gene 1 2 21 0.235986 0 21 0.235986 1
gene 1 3 21 0.611603 0 22 0.611603 1
gene 1 4 21 1.8561 0 23 1.8561 1
gene 1 5 21 -1.05666 0 24 -1.05666 1
gene 1 6 21 1.11839 0 25 1.11839 1
gene 1 7 21 -0.792439 0 26 -0.792439 1
gene 1 8 21 0.941477 0 27 0.941477 1
gene 1 9 21 -1.08653 0 28 -1.08653 1
gene 1 10 21 -0.311217 0 29 -0.311217 1
gene 1 11 21 -0.430077 0 30 -0.430077 1
gene 1 12 21 -0.822376 0 31 -0.822376 1
gene 1 13 21 -0.0151928 0 32 -0.0151928 1
gene 1 14 21 -0.137643 0 33 -0.137643 1
gene 1 15 21 0.00557213 0 34 0.00557213 1
gene 1 16 21 -0.643338 0 35 -0.643338 1
gene 1 17 21 -0.880382 0 36 -0.880382 1
gene 1 18 21 -0.484686 0 37 -0.484686 1
gene 1 19 21 -0.97721 0 38 -0.97721 1
gene 1 1 22 0.327634 0 39 0.327634 1
gene 1 2 22 -0.383656 0 40 -0.383656 1
gene 1 3 22 0.341226 0 41 0.341226 1
gene 1 4 22 -0.893441 0 42 -0.893441 1
gene 1 5 22 -0.12003 0 43 -0.12003 1
gene 1 6 22 0.0723731 0 44 0.0723731 1
gene 1 7 22 -0.122522 0 45 -0.122522 1
gene 1 8 22 -1.45177 0 46 -1.45177 1
gene 1 9 22 -0.14725 0 47 -0.14725 1
gene 1 10 22 0.117117 0 48 0.117117 1
gene 1 11 22 0.713757 0 49 0.713757 1
gene 1 12 22 -0.719016 0 50 -0.719016 1
gene 1 13 22 0.948976 0 51 0.948976 1
gene 1 14 22 0.102061 0 52 0.102061 1
gene 1 15 22 0.510678 0 53 0.510678 1
gene 1 16 22 0.899913 0 54 0.899913 1
gene 1 17 22 0.128009 0 55 0.128009 1
gene 1 18 22 -0.939611 0 56 -0.939611 1
gene 1 19 22 -0.398688 0 57 -0.398688 1
gene 1 1 23 0.112643 0 58 0.112643 1
gene 1 2 23 -0.407978 0 59 -0.407978 1
gene 1 3 23 0.403152 0 60 0.403152 1
gene 1 4 23 -0.610535 0 61 -0.610535 1
gene 1 5 23 -0.020441 0 62 -0.020441 1
gene 1 6 23 -0.460516 0 63 -0.460516 1
gene 1 7 23 -0.297373 0 64 -0.297373 1
gene 1 8 23 0.528048 0 65 0.528048 1
gene 1 9 23 0 0 66 0 1
gene 1 10 23 -0.786161 0 67 -0.786161 1
gene 1 11 23 0.278709 0 68 0.278709 1
gene 1 12 23 0.613919 0 69 0.613919 1
gene 1 13 23 -0.513155 0 70 -0.513155 1
gene 1 14 23 0.301747 0 71 0.301747 1
gene 1 15 23 -0.385322 0 72 -0.385322 1
gene 1 16 23 0.590442 0 73 0.590442 1
gene 1 17 23 0.549592 0 74 0.549592 1
gene 1 18 23 0.115617 0 75 0.115617 1
gene 1 19 23 0.00808684 0 76 0.00808684 1
genomeend 104
genomestart 105
trait 1 0 0 0 0 0 0 0 0 
node 1 1 1 1 0
node 2 1 1 1 0
node 3 1 1 1 0
node 4 1 1 1 0
node 5 1 1 1 0
node 6 1 1 1 0
node 7 1 1 1 0
node 8 1 1 1 0
node 9 1 1 1 0
node 10 1 1 1 0
node 11 1 1 1 0
node 12 1 1 1 0
node 13 1 1 1 0
node 14 1 1 1 0
node 15 1 1 1 0
node 16 1 1 1 0
node 17 1 1 1 0
node 18 1 1 1 0
node 19 1 1 3 0
node 20 1 0 2 0
node 21 1 0 2 0
node 22 1 0 2 0
node 23 1 0 2 0
gene 1 1 20 -0.216311 0 1 -0.216311 1
gene 1 2 20 -0.397665 0 2 -0.397665 1
gene 1 3 20 0.225438 0 3 0.225438 1
gene 1 4 20 0.578241 0 4 0.578241 1
gene 1 5 20 0.350247 0 5 0.350247 1
gene 1 6 20 0.445609 0 6 0.445609 1
gene 1 7 20 -0.389303 0 7 -0.389303 1
gene 1 8 20 -0.231937 0 8 -0.231937 1
gene 1 9 20 0.18151 0 9 0.18151 1
gene 1 10 20 0.699192 0 10 0.699192 1
gene 1 11 20 0.685411 0 11 0.685411 1
gene 1 12 20 0.269906 0 12 0.269906 1
gene 1 13 20 0.489925 0 13 0.489925 1
gene 1 14 20 -0.159394 0 14 -0.159394 1
gene 1 15 20 0.342409 0 15 0.342409 1
gene 1 16 20 0.302956 0 16 0.302956 1
gene 1 17 20 -0.494476 0 17 -0.494476 1
gene 1 18 20 0.72814 0 18 0.72814 1
gene 1 19 20 -0.157599 0 19 -0.157599 1
gene 1 1 21 0.623658 0 20 0.623658 1
gene 1 2 21 0.133097 0 21 0.133097 1
gene 1 3 21 0.0746197 0 22 0.0746197 1
gene 1 4 21 -0.00702461 0 23 -0.00702461 1
gene 1 5 21 -0.161893 0 24 -0.161893 1
gene 1 6 21 -0.181784 0 25 -0.181784 1
gene 1 7 21 -0.259721 0 26 -0.259721 1
gene 1 8 21 -0.254531 0 27 -0.254531 1
gene 1 9 21 -0.689588 0 28 -0.689588 1
gene 1 10 21 -0.810216 0 29 -0.810216 1
gene 1 11 21 -0.116805 0 30 -0.116805 1
gene 1 12 21 0.0654501 0 31 0.0654501 1
gene 1 13 21 -0.600646 0 32 -0.600646 1
gene 1 14 21 0.539368 0 33 0.539368 1
gene 1 15 21 0.211627 0 34 0.211627 1
gene 1 16 21 -0.0402198 0 35 -0.0402198 1
gene 1 17 21 -0.547518 0 36 -0.547518 1
gene 1 18 21 0.417923 0 37 0.417923 1
gene 1 19 21 0.824391 0 38 0.824391 1
gene 1 1 22 0.498688 0 39 0.498688 1
gene 1 2 22 -0.255902 0 40 -0.255902 1
gene 1 3 22 -0.787436 0 41 -0.787436 1
gene 1 4 22 -0.387448 0 42 -0.387448 1
gene 1 5 22 1.27343 0 43 1.27343 1
gene 1 6 22 -0.577793 0 44 -0.577793 1
gene 1 7 22 -0.215282 0 45 -0.215282 1
gene 1 8 22 -0.417124 0 46 -0.417124 1
gene 1 9 22 -0.0744669 0 47 -0.0744669 1
gene 1 10 22 0.0613712 0 48 0.0613712 1
gene 1 11 22 0.0331992 0 49 0.0331992 1
gene 1 12 22 0.150607 0 50 0.150607 1
gene 1 13 22 -0.216206 0 51 -0.216206 1
gene 1 14 22 0.295187 0 52 0.295187 1
gene 1 15 22 -0.451652 0 53 -0.451652 1
gene 1 16 22 0.214928 0 54 0.214928 1
gene 1 17 22 1.09884 0 55 1.09884 1
gene 1 18 22 -0.495849 0 56 -0.495849 1
gene 1 19 22 1.24361 0 57 1.24361 1
gene 1 1 23 0.0351449 0 58 0.0351449 1
gene 1 2 23 -0.174814 0 59 -0.174814 1
gene 1 3 23 -0.184308 0 60 -0.184308 1
gene 1 4 23 0.379374 0 61 0.379374 1
gene 1 5 23 0.242305 0 62 0.242305 1
gene 1 6 23 0.00140368 0 63 0.00140368 1
gene 1 7 23 0.0566394 0 64 0.0566394 1
gene 1 8 23 -0.2877 0 65 -0.2877 1
gene 1 9 23 0.144417 0 66 0.144417 1
gene 1 10 23 0.0353478 0 67 0.0353478 1
gene 1 11 23 -0.42284 0 68 -0.42284 1
gene 1 12 23 0.468393 0 69 0.468393 1
gene 1 13 23 -0.240389 0 70 -0.240389 1
gene 1 14 23 0.277363 0 71 0.277363 1
gene 1 15 23 0.59089 0 72 0.59089 1
gene 1 16 23 0.180589 0 73 0.180589 1
gene 1 17 23 -0.085286 0 74 -0.085286 1
gene 1 18 23 -0.167626 0 75 -0.167626 1
gene 1 19 23 0.218257 0 76 0.218257 1
genomeend 105
genomestart 106
trait 1 0 0.390177 0 0 0 0 0 0 
node 1 1 1 1 0
node 2 1 1 1 0
node 3 1 1 1 0
node 4 1 1 1 0
node 5 1 1 1 0
node 6 1 1 1 0
node 7 1 1 1 0
node 8 1 1 1 0
node 9 1 1 1 0
node 10 1 1 1 0
node 11 1 1 1 0
node 12 1 1 1 0
node 13 1 1 1 0
node 14 1 1 1 0
node 15 1 1 1 0
node 16 1 1 1 0
node 17 1 1 1 0
node 18 1 1 1 0
node 19 1 1 3 0
node 20 1 0 2 0
node 21 1 0 2 0
node 22 1 0 2 0
node 23 1 0 2 0
gene 1 1 20 0.183852 0 1 0.183852 1
gene 1 2 20 0.453139 0 2 0.453139 1
gene 1 3 20 -0.694583 0 3 -0.694583 1
gene 1 4 20 0.527989 0 4 0.527989 1
gene 1 5 20 0.617075 0 5 0.617075 1
gene 1 6 20 -0.0683293 0 6 -0.0683293 1
gene 1 7 20 -0.205667 0 7 -0.205667 1
gene 1 8 20 0.582707 0 8 0.582707 1
gene 1 9 20 0.458526 0 9 0.458526 1
gene 1 10 20 -0.674415 0 10 -0.674415 1
gene 1 11 20 0.112668 0 11 0.112668 1
gene 1 12 20 -0.0292803 0 12 -0.0292803 1
gene 1 13 20 -0.33657 0 13 -0.33657 1
gene 1 14 20 0.564028 0 14 0.564028 1
gene 1 15 20 -0.278542 0 15 -0.278542 1
gene 1 16 20 0.362599 0 16 0.362599 1
gene 1 17 20 -0.155454 0 17 -0.155454 1
gene 1 18 20 0.331978 0 18 0.331978 1
gene 1 19 20 0.941499 0 19 0.941499 1
gene 1 1 21 -0.0391225 0 20 -0.0391225 1
gene 1 2 21 0.281474 0 21 0.281474 1
gene 1 3 21 -0.322151 0 22 -0.322151 1
gene 1 4 21 0.254836 0 23 0.254836 1
gene 1 5 21 0.40765 0 24 0.40765 1
gene 1 6 21 0.122851 0 25 0.122851 1
gene 1 7 21 -0.0854045 0 26 -0.0854045 1
gene 1 8 21 -0.177407 0 27 -0.177407 1
gene 1 9 21 0.288619 0 28 0.288619 1
gene 1 10 21 -1.03639 0 29 -1.03639 1
gene 1 11 21 -0.197462 0 30 -0.197462 1
gene 1 12 21 -0.373945 0 31 -0.373945 1
gene 1 13 21 -0.00924756 0 32 -0.00924756 1
gene 1 14 21 -0.118176 0 33 -0.118176 1
gene 1 15 21 0.369363 0 34 0.369363 1
gene 1 16 21 -0.618575 0 35 -0.618575 1
gene 1 17 21 -0.627065 0 36 -0.627065 1
gene 1 18 21 0.229248 0 37 0.229248 1
gene 1 19 21 -0.0484327 0 38 -0.0484327 1
gene 1 1 22 -0.0961674 0 39 -0.0961674 1
gene 1 2 22 0.194408 0 40 0.194408 1
gene 1 3 22 -0.295523 0 41 -0.295523 1
gene 1 4 22 -0.0694547 0 42 -0.0694547 1
gene 1 5 22 -0.180628 0 43 -0.180628 1
gene 1 6 22 0.261898 0 44 0.261898 1
gene 1 7 22 -0.26475 0 45 -0.26475 1
gene 1 8 22 -0.301479 0 46 -0.301479 1
gene 1 9 22 -0.136046 0 47 -0.136046 1
gene 1 10 22 -0.0995029 0 48 -0.0995029 1
gene 1 11 22 0.29646 0 49 0.29646 1
gene 1 12 22 -0.834699 0 50 -0.834699 1
gene 1 13 22 -0.230714 0 51 -0.230714 1
gene 1 14 22 -0.234496 0 52 -0.234496 1
gene 1 15 22 0.342925 0 53 0.342925 1
gene 1 16 22 -0.104283 0 54 -0.104283 1
gene 1 17 22 -0.295461 0 55 -0.295461 1
gene 1 18 22 -0.0648337 0 56 -0.0648337 1
gene 1 19 22 -0.00534173 0 57 -0.00534173 1
gene 1 1 23 -0.169075 0 58 -0.169075 1
gene 1 2 23 0.379377 0 59 0.379377 1
gene 1 3 23 0.736085 0 60 0.736085 1
gene 1 4 23 0.149876 0 61 0.149876 1
gene 1 5 23 0.482517 0 62 0.482517 1
gene 1 6 23 -0.0893093 0 63 -0.0893093 1
gene 1 7 23 0.173021 0 64 0.173021 1
gene 1 8 23 -0.484178 0 65 -0.484178 1
gene 1 9 23 0.528548 0 66 0.528548 1
gene 1 10 23 0.07818 0 67 0.07818 1
gene 1 11 23 0.283606 0 68 0.283606 1
gene 1 12 23 -0.564657 0 69 -0.564657 1
gene 1 13 23 0.0197826 0 70 0.0197826 1
gene 1 14 23 -0.0892713 0 71 -0.0892713 1
gene 1 15 23 0.464747 0 72 0.464747 1
gene 1 16 23 0.212995 0 73 0.212995 1
gene 1 17 23 0.413069 0 74 0.413069 1
gene 1 18 23 0.208879 0 75 0.208879 1
gene 1 19 23 0.0240559 0 76 0.0240559 1
genomeend 106
genomestart 108
trait 1 0 0 0 0 0 0 0 0 
node 1 1 1 1 0
node 2 1 1 1 0
node 3 1 1 1 0
node 4 1 1 1 0
node 5 1 1 1 0
node 6 1 1 1 0
node 7 1 1 1 0
node 8 1 1 1 0
node 9 1 1 1 0
node 10 1 1 1 0
node 11 1 1 1 0
node 12 1 1 1 0
node 13 1 1 1 0
node 14 1 1 1 0
node 15 1 1 1 0
node 16 1 1 1 0
node 17 1 1 1 0
node 18 1 1 1 0
node 19 1 1 3 0
node 20 1 0 2 0
node 21 1 0 2 0
node 22 1 0 2 0
node 23 1 0 2 0
gene 1 1 20 -0.153184 0 1 -0.153184 1
gene 1 2 20 0.389117 0 2 0.389117 1
gene 1 3 20 -0.453958 0 3 -0.453958 1
gene 1 4 20 -0.43099 0 4 -0.43099 1
gene 1 5 20 -0.308409 0 5 -0.308409 1
gene 1 6 20 0.320555 0 6 0.320555 1
gene 1 7 20 0.1595 0 7 0.1595 1
gene 1 8 20 -0.40107 0 8 -0.40107 1
gene 1 9 20 -0.0224239 0 9 -0.0224239 1
gene 1 10 20 0 0 10 0 1
gene 1 11 20 0.882233 0 11 0.882233 1
gene 1 12 20 0.568909 0 12 0.568909 1
gene 1 13 20 0.481979 0 13 0.481979 1
gene 1 14 20 0.098377 0 14 0.098377 1
gene 1 15 20 -0.297146 0 15 -0.297146 1
gene 1 16 20 -0.0212867 0 16 -0.0212867 1
gene 1 17 20 -0.0837153 0 17 -0.0837153 1
gene 1 18 20 -0.346758 0 18 -0.346758 1
gene 1 19 20 0.198706 0 19 0.198706 1
gene 1 1 21 -0.299039 0 20 -0.299039 1
gene 1 2 21 -0.0592106 0 21 -0.0592106 1
gene 1 3 21 0.287709 0 22 0.287709 1
gene 1 4 21 -0.0690618 0 23 -0.0690618 1
gene 1 5 21 0.243608 0 24 0.243608 1
gene 1 6 21 -0.361465 0 25 -0.361465 1
gene 1 7 21 0.365317 0 26 0.365317 1
gene 1 8 21 -0.102329 0 27 -0.102329 1
gene 1 9 21 -0.385244 0 28 -0.385244 1
gene 1 10 21 0.601116 0 29 0.601116 1
gene 1 11 21 -0.770302 0 30 -0.770302 1
gene 1 12 21 0.00634859 0 31 0.00634859 1
gene 1 13 21 0.0626521 0 32 0.0626521 1
gene 1 14 21 -1.26138 0 33 -1.26138 1
gene 1 15 21 -0.580412 0 34 -0.580412 1
gene 1 16 21 0.477347 0 35 0.477347 1
gene 1 17 21 0.385222 0 36 0.385222 1
gene 1 18 21 0.47437 0 37 0.47437 1
gene 1 19 21 -0.0608556 0 38 -0.0608556 1
gene 1 1 22 0.877106 0 39 0.877106 1
gene 1 2 22 -0.0287593 0 40 -0.0287593 1
gene 1 3 22 0.266192 0 41 0.266192 1
gene 1 4 22 0.769107 0 42 0.769107 1
gene 1 5 22 -0.478162 0 43 -0.478162 1
gene 1 6 22 -0.488034 0 44 -0.488034 1
gene 1 7 22 -0.455447 0 45 -0.455447 1
gene 1 8 22 0.136632 0 46 0.136632 1
gene 1 9 22 -0.225887 0 47 -0.225887 1
gene 1 10 22 0.180445 0 48 0.180445 1
gene 1 11 22 0.968053 0 49 0.968053 1
gene 1 12 22 -0.0802691 0 50 -0.0802691 1
gene 1 13 22 0.109573 0 51 0.109573 1
gene 1 14 22 0.174676 0 52 0.174676 1
gene 1 15 22 -0.322174 0 53 -0.322174 1
gene 1 16 22 -1.18718 0 54 -1.18718 1
gene 1 17 22 0.656615 0 55 0.656615 1
gene 1 18 22 -0.274227 0 56 -0.274227 1
gene 1 19 22 0.642175 0 57 0.642175 1
gene 1 1 23 -0.229637 0 58 -0.229637 1
gene 1 2 23 0.38057 0 59 0.38057 1
gene 1 3 23 0.212916 0 60 0.212916 1
gene 1 4 23 -0.0851614 0 61 -0.0851614 1
gene 1 5 23 -1.0815 0 62 -1.0815 1
gene 1 6 23 -0.190902 0 63 -0.190902 1
gene 1 7 23 -0.331863 0 64 -0.331863 1
gene 1 8 23 -0.286428 0 65 -0.286428 1
gene 1 9 23 0.492421 0 66 0.492421 1
gene 1 10 23 -0.368341 0 67 -0.368341 1
gene 1 11 23 0.305727 0 68 0.305727 1
gene 1 12 23 1.15034 0 69 1.15034 1
gene 1 13 23 0.893836 0 70 0.893836 1
gene 1 14 23 0.0500118 0 71 0.0500118 1
gene 1 15 23 1.1748 0 72 1.1748 1
gene 1 16 23 -0.333696 0 73 -0.333696 1
gene 1 17 23 -0.110448 0 74 -0.110448 1
gene 1 18 23 0.107544 0 75 0.107544 1
gene 1 19 23 0.363925 0 76 0.363925 1
genomeend 108
genomestart 111
trait 1 0.37655 0 0 0 0 0.117657 0 0 
node 1 1 1 1 0
node 2 1 1 1 0
node 3 1 1 1 0
node 4 1 1 1 0
node 5 1 1 1 0
node 6 1 1 1 0
node 7 1 1 1 0
node 8 1 1 1 0
node 9 1 1 1 0
node 10 1 1 1 0
node 11 1 1 1 0
node 12 1 1 1 0
node 13 1 1 1 0
node 14 1 1 1 0
node 15 1 1 1 0
node 16 1 1 1 0
node 17 1 1 1 0
node 18 1 1 1 0
node 19 1 1 3 0
node 20 1 0 2 0
node 21 1 0 2 0
node 22 1 0 2 0
node 23 1 0 2 0
gene 1 1 20 0.224875 0 1 0.224875 1
gene 1 2 20 -0.075847 0 2 -0.075847 1
gene 1 3 20 1.32263 0 3 1.32263 1
gene 1 4 20 0.0553204 0 4 0.0553204 1
gene 1 5 20 -1.20332 0 5 -1.20332 1
gene 1 6 20 0.583798 0 6 0.583798 1
gene 1 7 20 0.630361 0 7 0.630361 1
gene 1 8 20 -0.333312 0 8 -0.333312 1
gene 1 9 20 0.370693 0 9 0.370693 1
gene 1 10 20 0.963488 0 10 0.963488 1
gene 1 11 20 1.32944 0 11 1.32944 1
gene 1 12 20 0.0889193 0 12 0.0889193 1
gene 1 13 20 -0.633781 0 13 -0.633781 1
gene 1 14 20 -0.188636 0 14 -0.188636 1
gene 1 15 20 -0.646902 0 15 -0.646902 1
gene 1 16 20 0.720796 0 16 0.720796 1
gene 1 17 20 -0.00546847 0 17 -0.00546847 1
gene 1 18 20 0.132597 0 18 0.132597 1
gene 1 19 20 0.112235 0 19 0.112235 1
gene 1 1 21 -0.839275 0 20 -0.839275 1
gene 1 2 21 -0.190122 0 21 -0.190122 1
gene 1 3 21 0.211883 0 22 0.211883 1
gene 1 4 21 0.746783 0 23 0.746783 1
gene 1 5 21 -0.849734 0 24 -0.849734 1
gene 1 6 21 -0.191087 0 25 -0.191087 1
gene 1 7 21 -1.07593 0 26 -1.07593 1
gene 1 8 21 0.684405 0 27 0.684405 1
gene 1 9 21 -1.05268 0 28 -1.05268 1
gene 1 10 21 -0.244785 0 29 -0.244785 1
gene 1 11 21 -0.153203 0 30 -0.153203 1
gene 1 12 21 -0.710665 0 31 -0.710665 1
gene 1 13 21 -1.06939 0 32 -1.06939 1
gene 1 14 21 -0.654781 0 33 -0.654781 1
gene 1 15 21 1.20201 0 34 1.20201 1
gene 1 16 21 -0.801649 0 35 -0.801649 1
gene 1 17 21 -0.1157 0 36 -0.1157 1
gene 1 18 21 -0.0956249 0 37 -0.0956249 1
gene 1 19 21 0.529483 0 38 0.529483 1
gene 1 1 22 0.394829 0 39 0.394829 1
gene 1 2 22 -0.175564 0 40 -0.175564 1
gene 1 3 22 -0.399278 0 41 -0.399278 1
gene 1 4 22 0.252163 0 42 0.252163 1
gene 1 5 22 -0.253474 0 43 -0.253474 1
gene 1 6 22 0.568259 0 44 0.568259 1
gene 1 7 22 0.8309 0 45 0.8309 1
gene 1 8 22 0.25844 0 46 0.25844 1
gene 1 9 22 0.493779 0 47 0.493779 1
gene 1 10 22 -0.101778 0 48 -0.101778 1
gene 1 11 22 0.267105 0 49 0.267105 1
gene 1 12 22 -0.386878 0 50 -0.386878 1
gene 1 13 22 -0.186755 0 51 -0.186755 1
gene 1 14 22 -0.239452 0 52 -0.239452 1
gene 1 15 22 -0.502684 0 53 -0.502684 1
gene 1 16 22 -0.797149 0 54 -0.797149 1
gene 1 17 22 0.42014 0 55 0.42014 1
gene 1 18 22 0.478093 0 56 0.478093 1
gene 1 19 22 0.0613671 0 57 0.0613671 1
gene 1 1 23 -0.277139 0 58 -0.277139 1
gene 1 2 23 -0.694907 0 59 -0.694907 1
gene 1 3 23 -0.444432 0 60 -0.444432 1
gene 1 4 23 0.345628 0 61 0.345628 1
gene 1 5 23 0.26987 0 62 0.26987 1
gene 1 6 23 0.662596 0 63 0.662596 1
gene 1 7 23 0.790108 0 64 0.790108 1
gene 1 8 23 0.542371 0 65 0.542371 1
gene 1 9 23 -0.95018 0 66 -0.95018 1
gene 1 10 23 0.801112 0 67 0.801112 1
gene 1 11 23 0.146167 0 68 0.146167 1
gene 1 12 23 -0.55012 0 69 -0.55012 1
gene 1 13 23 -0.20964 0 70 -0.20964 1
gene 1 14 23 -0.428077 0 71 -0.428077 1
gene 1 15 23 0.479831 0 72 0.479831 1
gene 1 16 23 -0.0191373 0 73 -0.0191373 1
gene 1 17 23 0.73802 0 74 0.73802 1
gene 1 18 23 -0.261963 0 75 -0.261963 1
gene 1 19 23 0.576197 0 76 0.576197 1
genomeend 111
genomestart 112
trait 1 0 0 0 0 0 0 0 0 
node 1 1 1 1 0
node 2 1 1 1 0
node 3 1 1 1 0
node 4 1 1 1 0
node 5 1 1 1 0
node 6 1 1 1 0
node 7 1 1 1 0
node 8 1 1 1 0
node 9 1 1 1 0
node 10 1 1 1 0
node 11 1 1 1 0
node 12 1 1 1 0
node 13 1 1 1 0
node 14 1 1 1 0
node 15 1 1 1 0
node 16 1 1 1 0
node 17 1 1 1 0
node 18 1 1 1 0
node 19 1 1 3 0
node 20 1 0 2 0
node 21 1 0 2 0
node 22 1 0 2 0
node 23 1 0 2 0
gene 1 1 20 -0.288542 0 1 -0.288542 1
gene 1 2 20 -0.0053956 0 2 -0.0053956 1
gene 1 3 20 -0.28675 0 3 -0.28675 1
gene 1 4 20 -0.216334 0 4 -0.216334 1
gene 1 5 20 -0.345154 0 5 -0.345154 1
gene 1 6 20 -0.0104575 0 6 -0.0104575 1
gene 1 7 20 0.895184 0 7 0.895184 1
gene 1 8 20 -0.642913 0 8 -0.642913 1
gene 1 9 20 -0.674211 0 9 -0.674211 1
gene 1 10 20 0.771002 0 10 0.771002 1
gene 1 11 20 -0.22613 0 11 -0.22613 1
gene 1 12 20 0.516431 0 12 0.516431 1
gene 1 13 20 -0.537147 0 13 -0.537147 1
gene 1 14 20 -0.93898 0 14 -0.93898 1
gene 1 15 20 0.160146 0 15 0.160146 1
gene 1 16 20 0.418848 0 16 0.418848 1
gene 1 17 20 -0.490608 0 17 -0.490608 1
gene 1 18 20 0.212095 0 18 0.212095 1
gene 1 19 20 0.00086775 0 19 0.00086775 1
gene 1 1 21 0.904438 0 20 0.904438 1
gene 1 2 21 0.0356015 0 21 0.0356015 1
gene 1 3 21 0.220166 0 22 0.220166 1
gene 1 4 21 -0.398817 0 23 -0.398817 1
gene 1 5 21 -0.300628 0 24 -0.300628 1
gene 1 6 21 -0.828344 0 25 -0.828344 1
gene 1 7 21 -0.207255 0 26 -0.207255 1
gene 1 8 21 -0.29276 0 27 -0.29276 1
gene 1 9 21 -0.724703 0 28 -0.724703 1
gene 1 10 21 -0.922674 0 29 -0.922674 1
gene 1 11 21 0.175146 0 30 0.175146 1
gene 1 12 21 -0.466962 0 31 -0.466962 1
gene 1 13 21 0.706755 0 32 0.706755 1
gene 1 14 21 0.415336 0 33 0.415336 1
gene 1 15 21 0.0363908 0 34 0.0363908 1
gene 1 16 21 -0.163608 0 35 -0.163608 1
gene 1 17 21 -0.0808562 0 36 -0.0808562 1
gene 1 18 21 0.603602 0 37 0.603602 1
gene 1 19 21 1.00947 0 38 1.00947 1
gene 1 1 22 0.0541932 0 39 0.0541932 1
gene 1 2 22 0.00784606 0 40 0.00784606 1
gene 1 3 22 -0.433411 0 41 -0.433411 1
gene 1 4 22 -0.237612 0 42 -0.237612 1
gene 1 5 22 0.117169 0 43 0.117169 1
gene 1 6 22 -0.21679 0 44 -0.21679 1
gene 1 7 22 -1.15014 0 45 -1.15014 1
gene 1 8 22 0.142108 0 46 0.142108 1
gene 1 9 22 -0.0380144 0 47 -0.0380144 1
gene 1 10 22 0.39219 0 48 0.39219 1
gene 1 11 22 -0.449964 0 49 -0.449964 1
gene 1 12 22 0.725056 0 50 0.725056 1
gene 1 13 22 -0.808626 0 51 -0.808626 1
gene 1 14 22 0.376245 0 52 0.376245 1
gene 1 15 22 -0.992141 0 53 -0.992141 1
gene 1 16 22 0.25947 0 54 0.25947 1
gene 1 17 22 0.565298 0 55 0.565298 1
gene 1 18 22 -0.131547 0 56 -0.131547 1
gene 1 19 22 0.133972 0 57 0.133972 1
gene 1 1 23 0.7209 0 58 0.7209 1
gene 1 2 23 -0.24197 0 59 -0.24197 1
gene 1 3 23 0.491635 0 60 0.491635 1
gene 1 4 23 1.01775 0 61 1.01775 1
gene 1 5 23 0.172696 0 62 0.172696 1
gene 1 6 23 -0.348467 0 63 -0.348467 1
gene 1 7 23 -0.377539 0 64 -0.377539 1
gene 1 8 23 -0.128827 0 65 -0.128827 1
gene 1 9 23 0.681098 0 66 0.681098 1
gene 1 10 23 0.0574242 0 67 0.0574242 1
gene 1 11 23 -0.478824 0 68 -0.478824 1
gene 1 12 23 0.936787 0 69 0.936787 1
gene 1 13 23 -1.08435 0 70 -1.08435 1
gene 1 14 23 -0.703254 0 71 -0.703254 1
gene 1 15 23 1.12068 0 72 1.12068 1
gene 1 16 23 -0.154551 0 73 -0.154551 1
gene 1 17 23 0.293889 0 74 0.293889 1
gene 1 18 23 -0.01701 0 75 -0.01701 1
gene 1 19 23 0.226679 0 76 0.226679 1
genomeend 112
genomestart 113
trait 1 0 0 0 0 0 0 0 0 
node 1 1 1 1 0
node 2 1 1 1 0
node 3 1 1 1 0
node 4 1 1 1 0
node 5 1 1 1 0
node 6 1 1 1 0
node 7 1 1 1 0
node 8 1 1 1 0
node 9 1 1 1 0
node 10 1 1 1 0
node 11 1 1 1 0
node 12 1 1 1 0
node 13 1 1 1 0
node 14 1 1 1 0
node 15 1 1 1 0
node 16 1 1 1 0
node 17 1 1 1 0
node 18 1 1 1 0
node 19 1 1 3 0
node 20 1 0 2 0
node 21 1 0 2 0
node 22 1 0 2 0
node 23 1 0 2 0
gene 1 1 20 0.613523 0 1 0.613523 1
gene 1 2 20 0.302598 0 2 0.302598 1
gene 1 3 20 -0.060434 0 3 -0.060434 1
gene 1 4 20 -0.241879 0 4 -0.241879 1
gene 1 5 20 -0.954416 0 5 -0.954416 1
gene 1 6 20 0.932965 0 6 0.932965 1
gene 1 7 20 0.428977 0 7 0.428977 1
gene 1 8 20 0.966981 0 8 0.966981 1
gene 1 9 20 -0.186596 0 9 -0.186596 1
gene 1 10 20 -0.586072 0 10 -0.586072 1
gene 1 11 20 -0.0564483 0 11 -0.0564483 1
gene 1 12 20 -0.0240221 0 12 -0.0240221 1
gene 1 13 20 -0.156025 0 13 -0.156025 1
gene 1 14 20 -0.0741285 0 14 -0.0741285 1
gene 1 15 20 -0.307772 0 15 -0.307772 1
gene 1 16 20 0.0473334 0 16 0.0473334 1
gene 1 17 20 0.401266 0 17 0.401266 1
gene 1 18 20 -1.1139 0 18 -1.1139 1
gene 1 19 20 0.457406 0 19 0.457406 1
gene 1 1 21 0.26861 0 20 0.26861 1
gene 1 2 21 0.438122 0 21 0.438122 1
gene 1 3 21 1.38363 0 22 1.38363 1
gene 1 4 21 -0.572918 0 23 -0.572918 1
gene 1 5 21 -0.830615 0 24 -0.830615 1
gene 1 6 21 0.0789503 0 25 0.0789503 1
gene 1 7 21 -1.15817 0 26 -1.15817 1
gene 1 8 21 0.416959 0 27 0.416959 1
gene 1 9 21 -0.298884 0 28 -0.298884 1
gene 1 10 21 -0.227023 0 29 -0.227023 1
gene 1 11 21 -1.30592 0 30 -1.30592 1
gene 1 12 21 0.00279638 0 31 0.00279638 1
gene 1 13 21 -0.187125 0 32 -0.187125 1
gene 1 14 21 -1.1397 0 33 -1.1397 1
gene 1 15 21 -0.0544528 0 34 -0.0544528 1
gene 1 16 21 0.414597 0 35 0.414597 1
gene 1 17 21 -0.0450937 0 36 -0.0450937 1
gene 1 18 21 -1.28115 0 37 -1.28115 1
gene 1 19 21 -1.77688 0 38 -1.77688 1
gene 1 1 22 0.0314038 0 39 0.0314038 1
gene 1 2 22 0.298403 0 40 0.298403 1
gene 1 3 22 -0.799425 0 41 -0.799425 1
gene 1 4 22 -1.24099 0 42 -1.24099 1
gene 1 5 22 0.376882 0 43 0.376882 1
gene 1 6 22 -1.16316 0 44 -1.16316 1
gene 1 7 22 0.39503 0 45 0.39503 1
gene 1 8 22 1.20572 0 46 1.20572 1
gene 1 9 22 -0.242947 0 47 -0.242947 1
gene 1 10 22 -0.612088 0 48 -0.612088 1
gene 1 11 22 -0.447444 0 49 -0.447444 1
gene 1 12 22 -0.297605 0 50 -0.297605 1
gene 1 13 22 0.369102 0 51 0.369102 1
gene 1 14 22 -1.57461 0 52 -1.57461 1
gene 1 15 22 0.698819 0 53 0.698819 1
gene 1 16 22 -0.671658 0 54 -0.671658 1
gene 1 17 22 -0.603149 0 55 -0.603149 1
gene 1 18 22 0.164748 0 56 0.164748 1
gene 1 19 22 0.831071 0 57 0.831071 1
gene 1 1 23 0.713209 0 58 0.713209 1
gene 1 2 23 0.141738 0 59 0.141738 1
gene 1 3 23 -0.155332 0 60 -0.155332 1
gene 1 4 23 0.593287 0 61 0.593287 1
gene 1 5 23 -0.832848 0 62 -0.832848 1
gene 1 6 23 -0.840796 0 63 -0.840796 1
gene 1 7 23 0.319745 0 64 0.319745 1
gene 1 8 23 -0.0771975 0 65 -0.0771975 1
gene 1 9 23 0.332623 0 66 0.332623 1
gene 1 10 23 0.759652 0 67 0.759652 1
gene 1 11 23 -0.408769 0 68 -0.408769 1
gene 1 12 23 0.148238 0 69 0.148238 1
gene 1 13 23 -0.23215 0 70 -0.23215 1
gene 1 14 23 0.224103 0 71 0.224103 1
gene 1 15 23 0.192482 0 72 0.192482 1
gene 1 16 23 0.49682 0 73 0.49682 1
gene 1 17 23 0.903564 0 74 0.903564 1
gene 1 18 23 -0.112922 0 75 -0.112922 1
gene 1 19 23 0.72594 0 76 0.72594 1
genomeend 113
genomestart 114
trait 1 0 0 0.999107 0 0 0 0.425412 0 
node 1 1 1 1 0
node 2 1 1 1 0
node 3 1 1 1 0
node 4 1 1 1 0
node 5 1 1 1 0
node 6 1 1 1 0
node 7 1 1 1 0
node 8 1 1 1 0
node 9 1 1 1 0
node 10 1 1 1 0
node 11 1 1 1 0
node 12 1 1 1 0
node 13 1 1 1 0
node 14 1 1 1 0
node 15 1 1 1 0
node 16 1 1 1 0
node 17 1 1 1 0
node 18 1 1 1 0
node 19 1 1 3 0
node 20 1 0 2 0
node 21 1 0 2 0
node 22 1 0 2 0
node 23 1 0 2 0
gene 1 1 20 -0.285424 0 1 -0.285424 1
gene 1 2 20 0.433501 0 2 0.433501 1
gene 1 3 20 0.362204 0 3 0.362204 1
gene 1 4 20 -1.10406 0 4 -1.10406 1
gene 1 5 20 -0.761547 0 5 -0.761547 1
gene 1 6 20 1.08627 0 6 1.08627 1
gene 1 7 20 1.02479 0 7 1.02479 1
gene 1 8 20 -0.537954 0 8 -0.537954 1
gene 1 9 20 0.652963 0 9 0.652963 1
gene 1 10 20 0.352622 0 10 0.352622 1
gene 1 11 20 1.35424 0 11 1.35424 1
gene 1 12 20 1.17958 0 12 1.17958 1
gene 1 13 20 0.355725 0 13 0.355725 1
gene 1 14 20 0.593393 0 14 0.593393 1
gene 1 15 20 -0.262144 0 15 -0.262144 1
gene 1 16 20 -0.480592 0 16 -0.480592 1
gene 1 17 20 -0.993239 0 17 -0.993239 1
gene 1 18 20 0.250817 0 18 0.250817 1
gene 1 19 20 0.186429 0 19 0.186429 1
gene 1 1 21 0.513459 0 20 0.513459 1
gene 1 2 21 -0.500006 0 21 -0.500006 1
gene 1 3 21 -0.153848 0 22 -0.153848 1
gene 1 4 21 -0.28149 0 23 -0.28149 1
gene 1 5 21 0.880977 0 24 0.880977 1
gene 1 6 21 -0.0650557 0 25 -0.0650557 1
gene 1 7 21 -0.195063 0 26 -0.195063 1
gene 1 8 21 -1.11096 0 27 -1.11096 1
gene 1 9 21 -0.455061 0 28 -0.455061 1
gene 1 10 21 -0.574566 0 29 -0.574566 1
gene 1 11 21 -0.261034 0 30 -0.261034 1
gene 1 12 21 -0.995481 0 31 -0.995481 1
gene 1 13 21 -0.327076 0 32 -0.327076 1
gene 1 14 21 0.33115 0 33 0.33115 1
gene 1 15 21 0.0323827 0 34 0.0323827 1
gene 1 16 21 0.0307955 0 35 0.0307955 1
gene 1 17 21 -0.279896 0 36 -0.279896 1
gene 1 18 21 0.157365 0 37 0.157365 1
gene 1 19 21 0.0261986 0 38 0.0261986 1
gene 1 1 22 1.49525 0 39 1.49525 1
gene 1 2 22 -0.06066 0 40 -0.06066 1
gene 1 3 22 1.3971 0 41 1.3971 1
gene 1 4 22 1.17051 0 42 1.17051 1
gene 1 5 22 0.458364 0 43 0.458364 1
gene 1 6 22 1.04876 0 44 1.04876 1
gene 1 7 22 -0.284501 0 45 -0.284501 1
gene 1 8 22 -1.18652 0 46 -1.18652 1
gene 1 9 22 -0.75329 0 47 -0.75329 1
gene 1 10 22 -0.539012 0 48 -0.539012 1
gene 1 11 22 0.250165 0 49 0.250165 1
gene 1 12 22 -0.670525 0 50 -0.670525 1
gene 1 13 22 -0.0184538 0 51 -0.0184538 1
gene 1 14 22 0.335072 0 52 0.335072 1
gene 1 15 22 1.08586 0 53 1.08586 1
gene 1 16 22 0.516471 0 54 0.516471 1
gene 1 17 22 0.303323 0 55 0.303323 1
gene 1 18 22 -0.272495 0 56 -0.272495 1
gene 1 19 22 1.24737 0 57 1.24737 1
gene 1 1 23 -0.240045 0 58 -0.240045 1
gene 1 2 23 1.59448 0 59 1.59448 1
gene 1 3 23 1.33731 0 60 1.33731 1
gene 1 4 23 -0.020601 0 61 -0.020601 1
gene 1 5 23 -0.785537 0 62 -0.785537 1
gene 1 6 23 -0.536019 0 63 -0.536019 1
gene 1 7 23 -0.758147 0 64 -0.758147 1
gene 1 8 23 0.263609 0 65 0.263609 1
gene 1 9 23 -0.478577 0 66 -0.478577 1
gene 1 10 23 -0.544904 0 67 -0.544904 1
gene 1 11 23 -0.259471 0 68 -0.259471 1
gene 1 12 23 -0.153511 0 69 -0.153511 1
gene 1 13 23 0.510129 0 70 0.510129 1
gene 1 14 23 0.478305 0 71 0.478305 1
gene 1 15 23 -0.164558 0 72 -0.164558 1
gene 1 16 23 -0.0407454 0 73 -0.0407454 1
gene 1 17 23 0.423594 0 74 0.423594 1
gene 1 18 23 0.433552 0 75 0.433552 1
gene 1 19 23 -0.130519 0 76 -0.130519 1
genomeend 114
genomestart 115
trait 1 0 0 0 0 0 0 0 0 
node 1 1 1 1 0
node 2 1 1 1 0
node 3 1 1 1 0
node 4 1 1 1 0
node 5 1 1 1 0
node 6 1 1 1 0
node 7 1 1 1 0
node 8 1 1 1 0
node 9 1 1 1 0
node 10 1 1 1 0
node 11 1 1 1 0
node 12 1 1 1 0
node 13 1 1 1 0
node 14 1 1 1 0
node 15 1 1 1 0
node 16 1 1 1 0
node 17 1 1 1 0
node 18 1 1 1 0
node 19 1 1 3 0
node 20 1 0 2 0
node 21 1 0 2 0
node 22 1 0 2 0
node 23 1 0 2 0
gene 1 1 20 0.299754 0 1 0.299754 1
gene 1 2 20 0.865627 0 2 0.865627 1
gene 1 3 20 0.730379 0 3 0.730379 1
gene 1 4 20 -0.969788 0 4 -0.969788 1
gene 1 5 20 -0.397298 0 5 -0.397298 1
gene 1 6 20 0.0429688 0 6 0.0429688 1
gene 1 7 20 -0.841223 0 7 -0.841223 1
gene 1 8 20 -0.708217 0 8 -0.708217 1
gene 1 9 20 0.896389 0 9 0.896389 1
gene 1 10 20 0.570058 0 10 0.570058 1
gene 1 11 20 -0.133283 0 11 -0.133283 1
gene 1 12 20 0.522716 0 12 0.522716 1
gene 1 13 20 -0.243906 0 13 -0.243906 1
gene 1 14 20 0.137136 0 14 0.137136 1
gene 1 15 20 -0.648538 0 15 -0.648538 1
gene 1 16 20 -0.799833 0 16 -0.799833 1
gene 1 17 20 0.898986 0 17 0.898986 1
gene 1 18 20 0.792011 0 18 0.792011 1
gene 1 19 20 0.748657 0 19 0.748657 1
gene 1 1 21 -0.500432 0 20 -0.500432 1
gene 1 2 21 -0.248097 0 21 -0.248097 1
gene 1 3 21 -0.503453 0 22 -0.503453 1
gene 1 4 21 -0.661076 0 23 -0.661076 1
gene 1 5 21 0.968243 0 24 0.968243 1
gene 1 6 21 -0.121223 0 25 -0.121223 1
gene 1 7 21 0.60783 0 26 0.60783 1
gene 1 8 21 -0.269151 0 27 -0.269151 1
gene 1 9 21 0.451561 0 28 0.451561 1
gene 1 10 21 -0.483191 0 29 -0.483191 1
gene 1 11 21 -6.77484e-05 0 30 -6.77484e-05 1
gene 1 12 21 -0.921627 0 31 -0.921627 1
gene 1 13 21 0.213358 0 32 0.213358 1
gene 1 14 21 -1.48266 0 33 -1.48266 1
gene 1 15 21 -0.170644 0 34 -0.170644 1
gene 1 16 21 -0.445666 0 35 -0.445666 1
gene 1 17 21 0.00233122 0 36 0.00233122 1
gene 1 18 21 -0.371915 0 37 -0.371915 1
gene 1 19 21 -0.677217 0 38 -0.677217 1
gene 1 1 22 0.180796 0 39 0.180796 1
gene 1 2 22 0.388666 0 40 0.388666 1
gene 1 3 22 -0.856185 0 41 -0.856185 1
gene 1 4 22 0.267005 0 42 0.267005 1
gene 1 5 22 0 0 43 0 1
gene 1 6 22 -0.6177 0 44 -0.6177 1
gene 1 7 22 0.315762 0 45 0.315762 1
gene 1 8 22 -0.621597 0 46 -0.621597 1
gene 1 9 22 -0.0680614 0 47 -0.0680614 1
gene 1 10 22 -0.78683 0 48 -0.78683 1
gene 1 11 22 -0.333398 0 49 -0.333398 1
gene 1 12 22 0.949657 0 50 0.949657 1
gene 1 13 22 0.198091 0 51 0.198091 1
gene 1 14 22 0.344348 0 52 0.344348 1
gene 1 15 22 0.378638 0 53 0.378638 1
gene 1 16 22 -0.205637 0 54 -0.205637 1
gene 1 17 22 0.484896 0 55 0.484896 1
gene 1 18 22 -0.334773 0 56 -0.334773 1
gene 1 19 22 0.538674 0 57 0.538674 1
gene 1 1 23 0.780698 0 58 0.780698 1
gene 1 2 23 0.330005 0 59 0.330005 1
gene 1 3 23 0.0843077 0 60 0.0843077 1
gene 1 4 23 0.422034 0 61 0.422034 1
gene 1 5 23 0.172696 0 62 0.172696 1
gene 1 6 23 -0.148386 0 63 -0.148386 1
gene 1 7 23 -0.185278 0 64 -0.185278 1
gene 1 8 23 0.0311249 0 65 0.0311249 1
gene 1 9 23 -0.363209 0 66 -0.363209 1
gene 1 10 23 0.975191 0 67 0.975191 1
gene 1 11 23 -0.0218094 0 68 -0.0218094 1
gene 1 12 23 0.8716 0 69 0.8716 1
gene 1 13 23 -0.640855 0 70 -0.640855 1
gene 1 14 23 -1.08082 0 71 -1.08082 1
gene 1 15 23 -0.223252 0 72 -0.223252 1
gene 1 16 23 0.217924 0 73 0.217924 1
gene 1 17 23 0.105014 0 74 0.105014 1
gene 1 18 23 0.384571 0 75 0.384571 1
gene 1 19 23 -0.046255 0 76 -0.046255 1
genomeend 115
genomestart 116
trait 1 0 0 0 0 0 0 0 0 
node 1 1 1 1 0
node 2 1 1 1 0
node 3 1 1 1 0
node 4 1 1 1 0
node 5 1 1 1 0
node 6 1 1 1 0
node 7 1 1 1 0
node 8 1 1 1 0
node 9 1 1 1 0
node 10 1 1 1 0
node 11 1 1 1 0
node 12 1 1 1 0
node 13 1 1 1 0
node 14 1 1 1 0
node 15 1 1 1 0
node 16 1 1 1 0
node 17 1 1 1 0
node 18 1 1 1 0
node 19 1 1 3 0
node 20 1 0 2 0
node 21 1 0 2 0
node 22 1 0 2 0
node 23 1 0 2 0
gene 1 1 20 -0.805146 0 1 -0.805146 1
