genomestart 1237
trait 1 0 0 0.222411 0 0 0 0 0.480883 
node 1 1 1 1 0
node 2 1 1 1 0
node 3 1 1 1 0
node 4 1 1 1 0
node 5 1 1 1 0
node 6 1 1 1 0
node 7 1 1 1 0
node 8 1 1 1 0
node 9 1 1 1 0
node 10 1 1 1 0
node 11 1 1 1 0
node 12 1 1 1 0
node 13 1 1 1 0
node 14 1 1 1 0
node 15 1 1 1 0
node 16 1 1 1 0
node 17 1 1 1 0
node 18 1 1 1 0
node 19 1 1 3 0
node 20 1 0 2 0
node 21 1 0 2 0
node 31 1 0 0 0
node 32 1 0 0 0
gene 1 1 20 1.17679 0 1 1.17679 1
gene 1 2 20 0.375908 0 2 0.375908 1
gene 1 3 20 0.0703045 0 3 0.0703045 1
gene 1 4 20 0.327787 0 4 0.327787 1
gene 1 5 20 0.274025 0 5 0.274025 1
gene 1 6 20 0.145754 0 6 0.145754 1
gene 1 7 20 -0.186312 0 7 -0.186312 1
gene 1 8 20 -0.156241 0 8 -0.156241 1
gene 1 9 20 0.519598 0 9 0.519598 1
gene 1 10 20 -0.409142 0 10 -0.409142 1
gene 1 11 20 0.802707 0 11 0.802707 1
gene 1 12 20 -0.400643 0 12 -0.400643 1
gene 1 13 20 -0.492477 0 13 -0.492477 0
gene 1 14 20 -0.388122 0 14 -0.388122 0
gene 1 15 20 -0.325608 0 15 -0.325608 1
gene 1 16 20 -0.0678302 0 16 -0.0678302 1
gene 1 17 20 0.385526 0 17 0.385526 1
gene 1 18 20 0.142 0 18 0.142 1
gene 1 19 20 0.65208 0 19 0.65208 1
gene 1 1 21 0.0509851 0 20 0.0509851 1
gene 1 2 21 -0.79952 0 21 -0.79952 1
gene 1 3 21 -0.828034 0 22 -0.828034 1
gene 1 4 21 0.153855 0 23 0.153855 1
gene 1 5 21 -0.898232 0 24 -0.898232 1
gene 1 6 21 0.867391 0 25 0.867391 1
gene 1 7 21 0.198501 0 26 0.198501 1
gene 1 8 21 -0.21326 0 27 -0.21326 1
gene 1 9 21 -0.062926 0 28 -0.062926 1
gene 1 10 21 -0.204178 0 29 -0.204178 1
gene 1 11 21 0.208906 0 30 0.208906 1
gene 1 12 21 0.845615 0 31 0.845615 1
gene 1 13 21 -0.874685 0 32 -0.874685 1
gene 1 14 21 -0.0109297 0 33 -0.0109297 1
gene 1 15 21 -0.146449 0 34 -0.146449 1
gene 1 16 21 -0.223984 0 35 -0.223984 1
gene 1 17 21 0.507207 0 36 0.507207 1
gene 1 18 21 0.96979 0 37 0.96979 1
gene 1 19 21 0.367822 0 38 0.367822 1
gene 1 20 21 1.38086 0 43 1.38086 1
gene 1 14 31 0.907001 0 62 0.907001 1
gene 1 31 20 -0.168553 0 63 -0.168553 1
gene 1 13 32 1 0 64 0 1
gene 1 32 20 -0.147743 0 65 0 1
gene 1 10 31 0.223873 0 77 0.223873 1
gene 1 6 31 -0.420649 0 114 -0.420649 1
genomeend 1237
genomestart 1237
trait 1 0 0 0.222411 0 0 0 0 0.480883 
node 1 1 1 1 0
node 2 1 1 1 0
node 3 1 1 1 0
node 4 1 1 1 0
node 5 1 1 1 0
node 6 1 1 1 0
node 7 1 1 1 0
node 8 1 1 1 0
node 9 1 1 1 0
node 10 1 1 1 0
node 11 1 1 1 0
node 12 1 1 1 0
node 13 1 1 1 0
node 14 1 1 1 0
node 15 1 1 1 0
node 16 1 1 1 0
node 17 1 1 1 0
node 18 1 1 1 0
node 19 1 1 3 0
node 20 1 0 2 0
node 21 1 0 2 0
node 31 1 0 0 0
node 32 1 0 0 0
gene 1 1 20 1.17679 0 1 1.17679 1
gene 1 2 20 0.375908 0 2 0.375908 1
gene 1 3 20 0.0703045 0 3 0.0703045 1
gene 1 4 20 0.327787 0 4 0.327787 1
gene 1 5 20 0.274025 0 5 0.274025 1
gene 1 6 20 0.145754 0 6 0.145754 1
gene 1 7 20 -0.186312 0 7 -0.186312 1
gene 1 8 20 -0.156241 0 8 -0.156241 1
gene 1 9 20 0.519598 0 9 0.519598 1
gene 1 10 20 -0.409142 0 10 -0.409142 1
gene 1 11 20 0.802707 0 11 0.802707 1
gene 1 12 20 -0.400643 0 12 -0.400643 1
gene 1 13 20 -0.492477 0 13 -0.492477 0
gene 1 14 20 -0.388122 0 14 -0.388122 0
gene 1 15 20 -0.325608 0 15 -0.325608 1
gene 1 16 20 -0.0678302 0 16 -0.0678302 1
gene 1 17 20 0.385526 0 17 0.385526 1
gene 1 18 20 0.142 0 18 0.142 1
gene 1 19 20 0.65208 0 19 0.65208 1
gene 1 1 21 0.0509851 0 20 0.0509851 1
gene 1 2 21 -0.79952 0 21 -0.79952 1
gene 1 3 21 -0.828034 0 22 -0.828034 1
gene 1 4 21 0.153855 0 23 0.153855 1
gene 1 5 21 -0.898232 0 24 -0.898232 1
gene 1 6 21 0.867391 0 25 0.867391 1
gene 1 7 21 0.198501 0 26 0.198501 1
gene 1 8 21 -0.21326 0 27 -0.21326 1
gene 1 9 21 -0.062926 0 28 -0.062926 1
gene 1 10 21 -0.204178 0 29 -0.204178 1
gene 1 11 21 0.208906 0 30 0.208906 1
gene 1 12 21 0.845615 0 31 0.845615 1
gene 1 13 21 -0.874685 0 32 -0.874685 1
gene 1 14 21 -0.0109297 0 33 -0.0109297 1
gene 1 15 21 -0.146449 0 34 -0.146449 1
gene 1 16 21 -0.223984 0 35 -0.223984 1
gene 1 17 21 0.507207 0 36 0.507207 1
gene 1 18 21 0.96979 0 37 0.96979 1
gene 1 19 21 0.367822 0 38 0.367822 1
gene 1 20 21 1.38086 0 43 1.38086 1
gene 1 14 31 0.907001 0 62 0.907001 1
gene 1 31 20 -0.168553 0 63 -0.168553 1
gene 1 13 32 1 0 64 0 1
gene 1 32 20 -0.147743 0 65 0 1
gene 1 10 31 0.223873 0 77 0.223873 1
gene 1 6 31 -0.420649 0 114 -0.420649 1
genomeend 1237
genomestart 1237
trait 1 0 0 0.222411 0 0 0 0 0.480883 
node 1 1 1 1 0
node 2 1 1 1 0
node 3 1 1 1 0
node 4 1 1 1 0
node 5 1 1 1 0
node 6 1 1 1 0
node 7 1 1 1 0
node 8 1 1 1 0
node 9 1 1 1 0
node 10 1 1 1 0
node 11 1 1 1 0
node 12 1 1 1 0
node 13 1 1 1 0
node 14 1 1 1 0
node 15 1 1 1 0
node 16 1 1 1 0
node 17 1 1 1 0
node 18 1 1 1 0
node 19 1 1 3 0
node 20 1 0 2 0
node 21 1 0 2 0
node 31 1 0 0 0
node 32 1 0 0 0
gene 1 1 20 1.17679 0 1 1.17679 1
gene 1 2 20 0.375908 0 2 0.375908 1
gene 1 3 20 0.0703045 0 3 0.0703045 1
gene 1 4 20 0.327787 0 4 0.327787 1
gene 1 5 20 0.274025 0 5 0.274025 1
gene 1 6 20 0.145754 0 6 0.145754 1
gene 1 7 20 -0.186312 0 7 -0.186312 1
gene 1 8 20 -0.156241 0 8 -0.156241 1
gene 1 9 20 0.519598 0 9 0.519598 1
gene 1 10 20 -0.409142 0 10 -0.409142 1
gene 1 11 20 0.802707 0 11 0.802707 1
gene 1 12 20 -0.400643 0 12 -0.400643 1
gene 1 13 20 -0.492477 0 13 -0.492477 0
gene 1 14 20 -0.388122 0 14 -0.388122 0
gene 1 15 20 -0.325608 0 15 -0.325608 1
gene 1 16 20 -0.0678302 0 16 -0.0678302 1
gene 1 17 20 0.385526 0 17 0.385526 1
gene 1 18 20 0.142 0 18 0.142 1
gene 1 19 20 0.65208 0 19 0.65208 1
gene 1 1 21 0.0509851 0 20 0.0509851 1
gene 1 2 21 -0.79952 0 21 -0.79952 1
gene 1 3 21 -0.828034 0 22 -0.828034 1
gene 1 4 21 0.153855 0 23 0.153855 1
gene 1 5 21 -0.898232 0 24 -0.898232 1
gene 1 6 21 0.867391 0 25 0.867391 1
gene 1 7 21 0.198501 0 26 0.198501 1
gene 1 8 21 -0.21326 0 27 -0.21326 1
gene 1 9 21 -0.062926 0 28 -0.062926 1
gene 1 10 21 -0.204178 0 29 -0.204178 1
gene 1 11 21 0.208906 0 30 0.208906 1
gene 1 12 21 0.845615 0 31 0.845615 1
gene 1 13 21 -0.874685 0 32 -0.874685 1
gene 1 14 21 -0.0109297 0 33 -0.0109297 1
gene 1 15 21 -0.146449 0 34 -0.146449 1
gene 1 16 21 -0.223984 0 35 -0.223984 1
gene 1 17 21 0.507207 0 36 0.507207 1
gene 1 18 21 0.96979 0 37 0.96979 1
gene 1 19 21 0.367822 0 38 0.367822 1
gene 1 20 21 1.38086 0 43 1.38086 1
gene 1 14 31 0.907001 0 62 0.907001 1
gene 1 31 20 -0.168553 0 63 -0.168553 1
gene 1 13 32 1 0 64 0 1
gene 1 32 20 -0.147743 0 65 0 1
gene 1 10 31 0.223873 0 77 0.223873 1
gene 1 6 31 -0.420649 0 114 -0.420649 1
genomeend 1237
genomestart 1237
trait 1 0 0 0.222411 0 0 0 0 0.480883 
node 1 1 1 1 0
node 2 1 1 1 0
node 3 1 1 1 0
node 4 1 1 1 0
node 5 1 1 1 0
node 6 1 1 1 0
node 7 1 1 1 0
node 8 1 1 1 0
node 9 1 1 1 0
node 10 1 1 1 0
node 11 1 1 1 0
node 12 1 1 1 0
node 13 1 1 1 0
node 14 1 1 1 0
node 15 1 1 1 0
node 16 1 1 1 0
node 17 1 1 1 0
node 18 1 1 1 0
node 19 1 1 3 0
node 20 1 0 2 0
node 21 1 0 2 0
node 31 1 0 0 0
node 32 1 0 0 0
gene 1 1 20 1.17679 0 1 1.17679 1
gene 1 2 20 0.375908 0 2 0.375908 1
gene 1 3 20 0.0703045 0 3 0.0703045 1
gene 1 4 20 0.327787 0 4 0.327787 1
gene 1 5 20 0.274025 0 5 0.274025 1
gene 1 6 20 0.145754 0 6 0.145754 1
gene 1 7 20 -0.186312 0 7 -0.186312 1
gene 1 8 20 -0.156241 0 8 -0.156241 1
gene 1 9 20 0.519598 0 9 0.519598 1
gene 1 10 20 -0.409142 0 10 -0.409142 1
gene 1 11 20 0.802707 0 11 0.802707 1
gene 1 12 20 -0.400643 0 12 -0.400643 1
gene 1 13 20 -0.492477 0 13 -0.492477 0
gene 1 14 20 -0.388122 0 14 -0.388122 0
gene 1 15 20 -0.325608 0 15 -0.325608 1
gene 1 16 20 -0.0678302 0 16 -0.0678302 1
gene 1 17 20 0.385526 0 17 0.385526 1
gene 1 18 20 0.142 0 18 0.142 1
gene 1 19 20 0.65208 0 19 0.65208 1
gene 1 1 21 0.0509851 0 20 0.0509851 1
gene 1 2 21 -0.79952 0 21 -0.79952 1
gene 1 3 21 -0.828034 0 22 -0.828034 1
gene 1 4 21 0.153855 0 23 0.153855 1
gene 1 5 21 -0.898232 0 24 -0.898232 1
gene 1 6 21 0.867391 0 25 0.867391 1
gene 1 7 21 0.198501 0 26 0.198501 1
gene 1 8 21 -0.21326 0 27 -0.21326 1
gene 1 9 21 -0.062926 0 28 -0.062926 1
gene 1 10 21 -0.204178 0 29 -0.204178 1
gene 1 11 21 0.208906 0 30 0.208906 1
gene 1 12 21 0.845615 0 31 0.845615 1
gene 1 13 21 -0.874685 0 32 -0.874685 1
gene 1 14 21 -0.0109297 0 33 -0.0109297 1
gene 1 15 21 -0.146449 0 34 -0.146449 1
gene 1 16 21 -0.223984 0 35 -0.223984 1
gene 1 17 21 0.507207 0 36 0.507207 1
gene 1 18 21 0.96979 0 37 0.96979 1
gene 1 19 21 0.367822 0 38 0.367822 1
gene 1 20 21 1.38086 0 43 1.38086 1
gene 1 14 31 0.907001 0 62 0.907001 1
gene 1 31 20 -0.168553 0 63 -0.168553 1
gene 1 13 32 1 0 64 0 1
gene 1 32 20 -0.147743 0 65 0 1
gene 1 10 31 0.223873 0 77 0.223873 1
gene 1 6 31 -0.420649 0 114 -0.420649 1
genomeend 1237
genomestart 1019
trait 1 0 0 0.0988827 0.215797 0 0 0 0 
node 1 1 1 1 0
node 2 1 1 1 0
node 3 1 1 1 0
node 4 1 1 1 0
node 5 1 1 1 0
node 6 1 1 1 0
node 7 1 1 1 0
node 8 1 1 1 0
node 9 1 1 1 0
node 10 1 1 1 0
node 11 1 1 1 0
node 12 1 1 1 0
node 13 1 1 1 0
node 14 1 1 1 0
node 15 1 1 1 0
node 16 1 1 1 0
node 17 1 1 1 0
node 18 1 1 1 0
node 19 1 1 3 0
node 20 1 0 2 0
node 21 1 0 2 0
gene 1 1 20 0.204205 0 1 0.204205 1
gene 1 2 20 0.508808 0 2 0.508808 1
gene 1 3 20 -0.046716 0 3 -0.046716 1
gene 1 4 20 -0.605153 0 4 -0.605153 1
gene 1 5 20 0.961644 0 5 0.961644 1
gene 1 6 20 -0.8765 0 6 -0.8765 1
gene 1 7 20 0.144678 0 7 0.144678 1
gene 1 8 20 -0.0554845 0 8 -0.0554845 1
gene 1 9 20 -0.153986 0 9 -0.153986 1
gene 1 10 20 -0.667571 0 10 -0.667571 1
gene 1 11 20 0.21614 0 11 0.21614 1
gene 1 12 20 0.214652 0 12 0.214652 1
gene 1 13 20 0.224508 0 13 0.224508 1
gene 1 14 20 -0.836576 0 14 -0.836576 1
gene 1 15 20 0.429963 0 15 0.429963 1
gene 1 16 20 0.739836 0 16 0.739836 1
gene 1 17 20 -0.103957 0 17 -0.103957 1
gene 1 18 20 0.588278 0 18 0.588278 1
gene 1 19 20 1.46794 0 19 1.46794 1
gene 1 1 21 0.791075 0 20 0.791075 1
gene 1 2 21 -0.229567 0 21 -0.229567 1
gene 1 3 21 0.0387684 0 22 0.0387684 1
gene 1 4 21 0.0411226 0 23 0.0411226 1
gene 1 5 21 0.858873 0 24 0.858873 1
gene 1 6 21 0.973919 0 25 0.973919 1
gene 1 7 21 -0.319267 0 26 -0.319267 1
gene 1 8 21 -0.838973 0 27 -0.838973 1
gene 1 9 21 -0.249735 0 28 -0.249735 1
gene 1 10 21 -0.463293 0 29 -0.463293 1
gene 1 11 21 1.00844 0 30 1.00844 1
gene 1 12 21 -0.081872 0 31 -0.081872 1
gene 1 13 21 -0.300136 0 32 -0.300136 1
gene 1 14 21 0.0824145 0 33 0.0824145 1
gene 1 15 21 -0.0627814 0 34 -0.0627814 1
gene 1 16 21 0.280678 0 35 0.280678 1
gene 1 17 21 0.0382792 0 36 0.0382792 1
gene 1 18 21 -1.11246 0 37 -1.11246 1
gene 1 19 21 -0.536232 0 38 -0.536232 1
genomeend 1019
