genomestart 987
trait 1 0.44693 0.788836 0.842703 0.151784 0.387093 0.454265 0.834502 0.684191 
node 1 1 1 1 0
node 2 1 1 1 0
node 3 1 1 1 0
node 4 1 1 1 0
node 5 1 1 1 0
node 6 1 1 1 0
node 7 1 1 1 0
node 8 1 1 1 0
node 9 1 1 1 0
node 10 1 1 1 0
node 11 1 1 1 0
node 12 1 1 1 0
node 13 1 1 1 0
node 14 1 1 1 0
node 15 1 1 1 0
node 16 1 1 1 0
node 17 1 1 1 0
node 18 1 1 1 0
node 19 1 1 3 0
node 20 1 0 2 0
node 21 1 0 2 0
node 22 1 0 0 0
node 26 1 0 0 0
node 27 1 0 0 0
node 39 1 0 0 0
node 46 1 0 0 0
node 51 1 0 0 0
node 65 1 0 0 0
node 69 1 0 0 0
node 75 1 0 0 0
node 76 1 0 0 0
node 85 1 0 0 0
node 86 1 0 0 0
node 114 1 0 0 0
node 116 1 0 0 0
node 117 1 0 0 0
node 123 1 0 0 0
node 125 1 0 0 0
node 132 1 0 0 0
node 134 1 0 0 0
node 138 1 0 0 0
node 161 1 0 0 0
node 164 1 0 0 0
node 200 1 0 0 0
node 204 1 0 0 0
gene 1 1 20 0.530278 0 1 0.530278 1
gene 1 2 20 0.808438 0 2 0.808438 1
gene 1 3 20 -0.0961148 0 3 -0.0961148 1
gene 1 4 20 2.75687 0 4 2.75687 1
gene 1 5 20 2.46181 0 5 2.46181 1
gene 1 6 20 0.111049 0 6 0.111049 1
gene 1 7 20 0.324762 0 7 0.324762 1
gene 1 8 20 0.205428 0 8 0.205428 1
gene 1 9 20 -1.11342 0 9 -1.11342 1
gene 1 10 20 -0.0924178 0 10 -0.0924178 1
gene 1 11 20 -0.784685 0 11 -0.784685 1
gene 1 12 20 0.652188 0 12 0.652188 1
gene 1 13 20 0.263592 0 13 0.263592 0
gene 1 14 20 -0.600544 0 14 -0.600544 0
gene 1 15 20 0.689274 0 15 0.689274 1
gene 1 16 20 0.57605 0 16 0.57605 1
gene 1 17 20 -2.55986 0 17 -2.55986 1
gene 1 18 20 2.45183 0 18 2.45183 1
gene 1 19 20 -0.145956 0 19 -0.145956 1
gene 1 1 21 0.619405 0 20 0.619405 1
gene 1 2 21 -0.235273 0 21 -0.235273 1
gene 1 3 21 -0.608295 0 22 -0.608295 1
gene 1 4 21 -1.18373 0 23 -1.18373 1
gene 1 5 21 -0.927022 0 24 -0.927022 1
gene 1 6 21 0.45159 0 25 0.45159 1
gene 1 7 21 1.04836 0 26 1.04836 1
gene 1 8 21 0.84823 0 27 0.84823 1
gene 1 9 21 0.297343 0 28 0.297343 1
gene 1 10 21 0.236124 0 29 0.236124 1
gene 1 11 21 -0.279874 0 30 -0.279874 0
gene 1 12 21 0.977577 0 31 0.977577 1
gene 1 13 21 0.00393876 0 32 0.00393876 1
gene 1 14 21 0.122488 0 33 0.122488 1
gene 1 15 21 -0.389699 0 34 -0.389699 1
gene 1 16 21 1.68717 0 35 1.68717 1
gene 1 17 21 0.19252 0 36 0.19252 1
gene 1 18 21 0.722754 0 37 0.722754 1
gene 1 19 21 -0.0764956 0 38 -0.0764956 1
gene 1 12 22 -1.57227 0 41 -1.57227 1
gene 1 22 21 0.803419 0 42 0.803419 1
gene 1 20 20 -0.0137805 1 43 -0.0137805 1
gene 1 12 26 0.247139 0 52 0.247139 1
gene 1 26 20 0.0905216 0 53 0.0905216 1
gene 1 11 27 -0.469369 0 54 -0.469369 1
gene 1 27 21 0.201383 0 55 0.201383 1
gene 1 1 22 -0.220954 0 59 -0.220954 1
gene 1 17 26 -0.204684 0 69 -0.204684 1
gene 1 14 39 0.224723 0 98 0.224723 1
gene 1 39 21 0.269201 0 99 0.269201 1
gene 1 15 46 -0.851366 0 125 -0.851366 1
gene 1 46 21 1.42708 0 126 1.42708 1
gene 1 8 39 -0.404341 0 145 -0.404341 1
gene 1 16 51 0.350903 0 165 0.350903 1
gene 1 51 21 0.64915 0 166 0.64915 1
gene 1 14 26 -0.140053 0 180 -0.140053 1
gene 1 7 46 0.532142 0 184 0.532142 1
gene 1 1 46 -2.15724 0 191 -2.15724 1
gene 1 10 27 0.157375 0 236 0.157375 0
gene 1 10 65 -2.34503 0 240 -2.34503 1
gene 1 65 27 0.45507 0 241 0.45507 1
gene 1 9 69 -0.455417 0 251 -0.455417 1
gene 1 69 21 0.873982 0 252 0.873982 1
gene 1 19 26 -3 0 288 -3 1
gene 1 26 22 -0.502952 0 294 -0.502952 1
gene 1 16 39 1.99316 0 296 1.99316 1
gene 1 14 75 -1.00344 0 305 -1.00344 1
gene 1 75 21 0.0137486 0 306 0.0137486 1
gene 1 3 76 -2.46796 0 307 -2.46796 1
gene 1 76 20 0.337226 0 308 0.337226 1
gene 1 2 46 -0.0877644 0 319 -0.0877644 1
gene 1 20 51 0.392309 0 332 0.392309 1
gene 1 18 27 0.965363 0 338 0.965363 1
gene 1 13 22 -1.86452 0 346 -1.86452 1
gene 1 8 85 1.20148 0 348 1.20148 1
gene 1 85 20 -0.677151 0 349 -0.677151 1
gene 1 9 86 1.35408 0 354 1.35408 1
gene 1 86 69 0.266956 0 355 0.266956 1
gene 1 19 46 -0.578886 0 408 -0.578886 1
gene 1 69 51 -1.42403 0 423 -1.42403 1
gene 1 75 20 0.635564 0 424 0.635564 1
gene 1 46 22 0.114343 0 430 0.114343 1
gene 1 3 27 -0.354712 0 439 -0.354712 1
gene 1 69 26 -0.580598 0 441 -0.580598 1
gene 1 18 46 1.04418 0 446 1.04418 1
gene 1 26 26 0.165442 1 475 0.165442 1
gene 1 18 114 -0.169734 0 479 -0.169734 1
gene 1 114 46 0.14442 0 480 0.14442 1
gene 1 26 116 1.66505 0 486 1.66505 1
gene 1 116 22 -0.787811 0 487 -0.787811 1
gene 1 16 117 0.30212 0 542 0.30212 1
gene 1 117 39 -0.598905 0 543 -0.598905 1
gene 1 6 123 0.464239 0 560 0.464239 1
gene 1 123 20 -0.344665 0 561 -0.344665 0
gene 1 17 125 -0.327624 0 568 -0.327624 0
gene 1 125 26 0.541673 0 569 0.541673 1
gene 1 3 132 -0.315609 0 593 -0.315609 1
gene 1 132 27 0.188907 0 594 0.188907 1
gene 1 46 39 -0.22832 0 600 -0.22832 1
gene 1 13 134 -0.310204 0 603 -0.310204 1
gene 1 134 20 -0.407159 0 604 -0.407159 1
gene 1 3 85 0.787937 0 629 0.787937 1
gene 1 17 138 -0.055722 0 632 -0.055722 1
gene 1 138 125 -0.0422581 0 633 -0.0422581 0
gene 1 76 26 -0.38266 0 689 -0.38266 1
gene 1 2 138 -0.634897 0 710 -0.634897 1
gene 1 117 117 0.708439 1 712 0.708439 1
gene 1 14 161 1.45375 0 718 1.45375 1
gene 1 161 20 0.45636 0 719 0.45636 1
gene 1 86 46 -0.0997303 0 735 -0.0997303 1
gene 1 138 164 -0.0384053 0 738 -0.0384053 1
gene 1 164 125 0.399987 0 739 0.399987 1
gene 1 1 27 0.762248 0 802 0.762248 1
gene 1 16 76 0.869743 0 855 0.869743 1
gene 1 7 39 -0.0365728 0 862 -0.0365728 1
gene 1 125 132 0.579745 0 875 0.579745 1
gene 1 114 26 0.560361 0 878 0.560361 1
gene 1 10 200 1 0 929 0 1
gene 1 200 27 0.0440579 0 930 0 1
gene 1 123 204 1 0 940 0 1
gene 1 204 20 -0.103399 0 941 0 1
gene 1 69 69 -0.552659 1 947 -0.552659 1
genomeend 987
genomestart 1026
trait 1 0.44693 0.788836 0.842703 0.151784 0.387093 0.454265 0.834502 0.684191 
node 1 1 1 1 0
node 2 1 1 1 0
node 3 1 1 1 0
node 4 1 1 1 0
node 5 1 1 1 0
node 6 1 1 1 0
node 7 1 1 1 0
node 8 1 1 1 0
node 9 1 1 1 0
node 10 1 1 1 0
node 11 1 1 1 0
node 12 1 1 1 0
node 13 1 1 1 0
node 14 1 1 1 0
node 15 1 1 1 0
node 16 1 1 1 0
node 17 1 1 1 0
node 18 1 1 1 0
node 19 1 1 3 0
node 20 1 0 2 0
node 21 1 0 2 0
node 22 1 0 0 0
node 26 1 0 0 0
node 27 1 0 0 0
node 39 1 0 0 0
node 46 1 0 0 0
node 51 1 0 0 0
node 65 1 0 0 0
node 69 1 0 0 0
node 75 1 0 0 0
node 76 1 0 0 0
node 85 1 0 0 0
node 86 1 0 0 0
node 114 1 0 0 0
node 116 1 0 0 0
node 117 1 0 0 0
node 123 1 0 0 0
node 125 1 0 0 0
node 132 1 0 0 0
node 134 1 0 0 0
node 138 1 0 0 0
node 161 1 0 0 0
node 164 1 0 0 0
node 200 1 0 0 0
node 204 1 0 0 0
gene 1 1 20 0.530278 0 1 0.530278 1
gene 1 2 20 0.808438 0 2 0.808438 1
gene 1 3 20 -0.0961148 0 3 -0.0961148 1
gene 1 4 20 2.75687 0 4 2.75687 1
gene 1 5 20 2.46181 0 5 2.46181 1
gene 1 6 20 0.111049 0 6 0.111049 1
gene 1 7 20 0.324762 0 7 0.324762 1
gene 1 8 20 0.205428 0 8 0.205428 1
gene 1 9 20 -1.11342 0 9 -1.11342 1
gene 1 10 20 -0.0924178 0 10 -0.0924178 1
gene 1 11 20 -0.784685 0 11 -0.784685 1
gene 1 12 20 0.652188 0 12 0.652188 1
gene 1 13 20 0.263592 0 13 0.263592 0
gene 1 14 20 -0.600544 0 14 -0.600544 0
gene 1 15 20 0.689274 0 15 0.689274 1
gene 1 16 20 0.57605 0 16 0.57605 1
gene 1 17 20 -2.55986 0 17 -2.55986 1
gene 1 18 20 2.45183 0 18 2.45183 1
gene 1 19 20 -0.145956 0 19 -0.145956 1
gene 1 1 21 0.619405 0 20 0.619405 1
gene 1 2 21 -0.235273 0 21 -0.235273 1
gene 1 3 21 -0.608295 0 22 -0.608295 1
gene 1 4 21 -1.18373 0 23 -1.18373 1
gene 1 5 21 -0.927022 0 24 -0.927022 1
gene 1 6 21 0.45159 0 25 0.45159 1
gene 1 7 21 1.04836 0 26 1.04836 1
gene 1 8 21 0.84823 0 27 0.84823 1
gene 1 9 21 0.297343 0 28 0.297343 1
gene 1 10 21 0.236124 0 29 0.236124 1
gene 1 11 21 -0.279874 0 30 -0.279874 0
gene 1 12 21 0.977577 0 31 0.977577 1
gene 1 13 21 0.00393876 0 32 0.00393876 1
gene 1 14 21 0.122488 0 33 0.122488 1
gene 1 15 21 -0.389699 0 34 -0.389699 1
gene 1 16 21 1.68717 0 35 1.68717 1
gene 1 17 21 0.19252 0 36 0.19252 1
gene 1 18 21 0.722754 0 37 0.722754 1
gene 1 19 21 -0.0764956 0 38 -0.0764956 1
gene 1 12 22 -1.57227 0 41 -1.57227 1
gene 1 22 21 0.803419 0 42 0.803419 1
gene 1 20 20 -0.0137805 1 43 -0.0137805 1
gene 1 12 26 0.247139 0 52 0.247139 1
gene 1 26 20 0.0905216 0 53 0.0905216 1
gene 1 11 27 -0.469369 0 54 -0.469369 1
gene 1 27 21 0.201383 0 55 0.201383 1
gene 1 1 22 -0.220954 0 59 -0.220954 1
gene 1 17 26 -0.204684 0 69 -0.204684 1
gene 1 14 39 0.224723 0 98 0.224723 1
gene 1 39 21 0.269201 0 99 0.269201 1
gene 1 15 46 -0.851366 0 125 -0.851366 1
gene 1 46 21 1.42708 0 126 1.42708 1
gene 1 8 39 -0.404341 0 145 -0.404341 1
gene 1 16 51 0.350903 0 165 0.350903 1
gene 1 51 21 0.64915 0 166 0.64915 1
gene 1 14 26 -0.140053 0 180 -0.140053 1
gene 1 7 46 0.532142 0 184 0.532142 1
gene 1 1 46 -2.15724 0 191 -2.15724 1
gene 1 10 27 0.157375 0 236 0.157375 0
gene 1 10 65 -2.34503 0 240 -2.34503 1
gene 1 65 27 0.45507 0 241 0.45507 1
gene 1 9 69 -0.455417 0 251 -0.455417 1
gene 1 69 21 0.873982 0 252 0.873982 1
gene 1 19 26 -3 0 288 -3 1
gene 1 26 22 -0.502952 0 294 -0.502952 1
gene 1 16 39 1.99316 0 296 1.99316 1
gene 1 14 75 -1.00344 0 305 -1.00344 1
gene 1 75 21 0.0137486 0 306 0.0137486 1
gene 1 3 76 -2.46796 0 307 -2.46796 1
gene 1 76 20 0.337226 0 308 0.337226 1
gene 1 2 46 -0.0877644 0 319 -0.0877644 1
gene 1 20 51 0.392309 0 332 0.392309 1
gene 1 18 27 0.965363 0 338 0.965363 1
gene 1 13 22 -1.86452 0 346 -1.86452 1
gene 1 8 85 1.20148 0 348 1.20148 1
gene 1 85 20 -0.677151 0 349 -0.677151 1
gene 1 9 86 1.35408 0 354 1.35408 1
gene 1 86 69 0.266956 0 355 0.266956 1
gene 1 19 46 -0.578886 0 408 -0.578886 1
gene 1 69 51 -1.42403 0 423 -1.42403 1
gene 1 75 20 0.635564 0 424 0.635564 1
gene 1 46 22 0.114343 0 430 0.114343 1
gene 1 3 27 -0.354712 0 439 -0.354712 1
gene 1 69 26 -0.580598 0 441 -0.580598 1
gene 1 18 46 1.04418 0 446 1.04418 1
gene 1 26 26 0.165442 1 475 0.165442 1
gene 1 18 114 -0.169734 0 479 -0.169734 1
gene 1 114 46 0.14442 0 480 0.14442 1
gene 1 26 116 1.66505 0 486 1.66505 1
gene 1 116 22 -0.787811 0 487 -0.787811 1
gene 1 16 117 0.30212 0 542 0.30212 1
gene 1 117 39 -0.598905 0 543 -0.598905 1
gene 1 6 123 0.464239 0 560 0.464239 1
gene 1 123 20 -0.344665 0 561 -0.344665 0
gene 1 17 125 -0.327624 0 568 -0.327624 0
gene 1 125 26 0.541673 0 569 0.541673 1
gene 1 3 132 -0.315609 0 593 -0.315609 1
gene 1 132 27 0.188907 0 594 0.188907 1
gene 1 46 39 -0.22832 0 600 -0.22832 1
gene 1 13 134 -0.310204 0 603 -0.310204 1
gene 1 134 20 -0.407159 0 604 -0.407159 1
gene 1 3 85 0.787937 0 629 0.787937 1
gene 1 17 138 -0.055722 0 632 -0.055722 1
gene 1 138 125 -0.0422581 0 633 -0.0422581 0
gene 1 76 26 -0.38266 0 689 -0.38266 1
gene 1 2 138 -0.634897 0 710 -0.634897 1
gene 1 117 117 0.708439 1 712 0.708439 1
gene 1 14 161 1.45375 0 718 1.45375 1
gene 1 161 20 0.45636 0 719 0.45636 1
gene 1 86 46 -0.0997303 0 735 -0.0997303 1
gene 1 138 164 -0.0384053 0 738 -0.0384053 1
gene 1 164 125 0.399987 0 739 0.399987 1
gene 1 1 27 0.762248 0 802 0.762248 1
gene 1 16 76 0.869743 0 855 0.869743 1
gene 1 7 39 -0.0365728 0 862 -0.0365728 1
gene 1 125 132 0.579745 0 875 0.579745 1
gene 1 114 26 0.560361 0 878 0.560361 1
gene 1 10 200 1 0 929 0 1
gene 1 200 27 0.0440579 0 930 0 1
gene 1 123 204 1 0 940 0 1
gene 1 204 20 -0.103399 0 941 0 1
gene 1 69 69 -0.552659 1 947 -0.552659 1
genomeend 1026
genomestart 1194
trait 1 0.44693 0.788836 0.842703 0.151784 0.387093 0.454265 0.834502 0.684191 
node 1 1 1 1 0
node 2 1 1 1 0
node 3 1 1 1 0
node 4 1 1 1 0
node 5 1 1 1 0
node 6 1 1 1 0
node 7 1 1 1 0
node 8 1 1 1 0
node 9 1 1 1 0
node 10 1 1 1 0
node 11 1 1 1 0
node 12 1 1 1 0
node 13 1 1 1 0
node 14 1 1 1 0
node 15 1 1 1 0
node 16 1 1 1 0
node 17 1 1 1 0
node 18 1 1 1 0
node 19 1 1 3 0
node 20 1 0 2 0
node 21 1 0 2 0
node 22 1 0 0 0
node 26 1 0 0 0
node 27 1 0 0 0
node 39 1 0 0 0
node 46 1 0 0 0
node 51 1 0 0 0
node 65 1 0 0 0
node 69 1 0 0 0
node 75 1 0 0 0
node 76 1 0 0 0
node 85 1 0 0 0
node 86 1 0 0 0
node 114 1 0 0 0
node 116 1 0 0 0
node 117 1 0 0 0
node 123 1 0 0 0
node 125 1 0 0 0
node 132 1 0 0 0
node 134 1 0 0 0
node 138 1 0 0 0
node 161 1 0 0 0
node 164 1 0 0 0
node 200 1 0 0 0
node 204 1 0 0 0
gene 1 1 20 0.530278 0 1 0.530278 1
gene 1 2 20 0.808438 0 2 0.808438 1
gene 1 3 20 -0.0961148 0 3 -0.0961148 1
gene 1 4 20 2.75687 0 4 2.75687 1
gene 1 5 20 2.46181 0 5 2.46181 1
gene 1 6 20 0.111049 0 6 0.111049 1
gene 1 7 20 0.324762 0 7 0.324762 1
gene 1 8 20 0.205428 0 8 0.205428 1
gene 1 9 20 -1.11342 0 9 -1.11342 1
gene 1 10 20 -0.0924178 0 10 -0.0924178 1
gene 1 11 20 -0.784685 0 11 -0.784685 1
gene 1 12 20 0.652188 0 12 0.652188 1
gene 1 13 20 0.263592 0 13 0.263592 0
gene 1 14 20 -0.600544 0 14 -0.600544 0
gene 1 15 20 0.689274 0 15 0.689274 1
gene 1 16 20 0.57605 0 16 0.57605 1
gene 1 17 20 -2.55986 0 17 -2.55986 1
gene 1 18 20 2.45183 0 18 2.45183 1
gene 1 19 20 -0.145956 0 19 -0.145956 1
gene 1 1 21 0.619405 0 20 0.619405 1
gene 1 2 21 -0.235273 0 21 -0.235273 1
gene 1 3 21 -0.608295 0 22 -0.608295 1
gene 1 4 21 -1.18373 0 23 -1.18373 1
gene 1 5 21 -0.927022 0 24 -0.927022 1
gene 1 6 21 0.45159 0 25 0.45159 1
gene 1 7 21 1.04836 0 26 1.04836 1
gene 1 8 21 0.84823 0 27 0.84823 1
gene 1 9 21 0.297343 0 28 0.297343 1
gene 1 10 21 0.236124 0 29 0.236124 1
gene 1 11 21 -0.279874 0 30 -0.279874 0
gene 1 12 21 0.977577 0 31 0.977577 1
gene 1 13 21 0.00393876 0 32 0.00393876 1
gene 1 14 21 0.122488 0 33 0.122488 1
gene 1 15 21 -0.389699 0 34 -0.389699 1
gene 1 16 21 1.68717 0 35 1.68717 1
gene 1 17 21 0.19252 0 36 0.19252 1
gene 1 18 21 0.722754 0 37 0.722754 1
gene 1 19 21 -0.0764956 0 38 -0.0764956 1
gene 1 12 22 -1.57227 0 41 -1.57227 1
gene 1 22 21 0.803419 0 42 0.803419 1
gene 1 20 20 -0.0137805 1 43 -0.0137805 1
gene 1 12 26 0.247139 0 52 0.247139 1
gene 1 26 20 0.0905216 0 53 0.0905216 1
gene 1 11 27 -0.469369 0 54 -0.469369 1
gene 1 27 21 0.201383 0 55 0.201383 1
gene 1 1 22 -0.220954 0 59 -0.220954 1
gene 1 17 26 -0.204684 0 69 -0.204684 1
gene 1 14 39 0.224723 0 98 0.224723 1
gene 1 39 21 0.269201 0 99 0.269201 1
gene 1 15 46 -0.851366 0 125 -0.851366 1
gene 1 46 21 1.42708 0 126 1.42708 1
gene 1 8 39 -0.404341 0 145 -0.404341 1
gene 1 16 51 0.350903 0 165 0.350903 1
gene 1 51 21 0.64915 0 166 0.64915 1
gene 1 14 26 -0.140053 0 180 -0.140053 1
gene 1 7 46 0.532142 0 184 0.532142 1
gene 1 1 46 -2.15724 0 191 -2.15724 1
gene 1 10 27 0.157375 0 236 0.157375 0
gene 1 10 65 -2.34503 0 240 -2.34503 1
gene 1 65 27 0.45507 0 241 0.45507 1
gene 1 9 69 -0.455417 0 251 -0.455417 1
gene 1 69 21 0.873982 0 252 0.873982 1
gene 1 19 26 -3 0 288 -3 1
gene 1 26 22 -0.502952 0 294 -0.502952 1
gene 1 16 39 1.99316 0 296 1.99316 1
gene 1 14 75 -1.00344 0 305 -1.00344 1
gene 1 75 21 0.0137486 0 306 0.0137486 1
gene 1 3 76 -2.46796 0 307 -2.46796 1
gene 1 76 20 0.337226 0 308 0.337226 1
gene 1 2 46 -0.0877644 0 319 -0.0877644 1
gene 1 20 51 0.392309 0 332 0.392309 1
gene 1 18 27 0.965363 0 338 0.965363 1
gene 1 13 22 -1.86452 0 346 -1.86452 1
gene 1 8 85 1.20148 0 348 1.20148 1
gene 1 85 20 -0.677151 0 349 -0.677151 1
gene 1 9 86 1.35408 0 354 1.35408 1
gene 1 86 69 0.266956 0 355 0.266956 1
gene 1 19 46 -0.578886 0 408 -0.578886 1
gene 1 69 51 -1.42403 0 423 -1.42403 1
gene 1 75 20 0.635564 0 424 0.635564 1
gene 1 46 22 0.114343 0 430 0.114343 1
gene 1 3 27 -0.354712 0 439 -0.354712 1
gene 1 69 26 -0.580598 0 441 -0.580598 1
gene 1 18 46 1.04418 0 446 1.04418 1
gene 1 26 26 0.165442 1 475 0.165442 1
gene 1 18 114 -0.169734 0 479 -0.169734 1
gene 1 114 46 0.14442 0 480 0.14442 1
gene 1 26 116 1.66505 0 486 1.66505 1
gene 1 116 22 -0.787811 0 487 -0.787811 1
gene 1 16 117 0.30212 0 542 0.30212 1
gene 1 117 39 -0.598905 0 543 -0.598905 1
gene 1 6 123 0.464239 0 560 0.464239 1
gene 1 123 20 -0.344665 0 561 -0.344665 0
gene 1 17 125 -0.327624 0 568 -0.327624 0
gene 1 125 26 0.541673 0 569 0.541673 1
gene 1 3 132 -0.315609 0 593 -0.315609 1
gene 1 132 27 0.188907 0 594 0.188907 1
gene 1 46 39 -0.22832 0 600 -0.22832 1
gene 1 13 134 -0.310204 0 603 -0.310204 1
gene 1 134 20 -0.407159 0 604 -0.407159 1
gene 1 3 85 0.787937 0 629 0.787937 1
gene 1 17 138 -0.055722 0 632 -0.055722 1
gene 1 138 125 -0.0422581 0 633 -0.0422581 0
gene 1 76 26 -0.38266 0 689 -0.38266 1
gene 1 2 138 -0.634897 0 710 -0.634897 1
gene 1 117 117 0.708439 1 712 0.708439 1
gene 1 14 161 1.45375 0 718 1.45375 1
gene 1 161 20 0.45636 0 719 0.45636 1
gene 1 86 46 -0.0997303 0 735 -0.0997303 1
gene 1 138 164 -0.0384053 0 738 -0.0384053 1
gene 1 164 125 0.399987 0 739 0.399987 1
gene 1 1 27 0.762248 0 802 0.762248 1
gene 1 16 76 0.869743 0 855 0.869743 1
gene 1 7 39 -0.0365728 0 862 -0.0365728 1
gene 1 125 132 0.579745 0 875 0.579745 1
gene 1 114 26 0.560361 0 878 0.560361 1
gene 1 10 200 1 0 929 0 1
gene 1 200 27 0.0440579 0 930 0 1
gene 1 123 204 1 0 940 0 1
gene 1 204 20 -0.103399 0 941 0 1
gene 1 69 69 -0.552659 1 947 -0.552659 1
genomeend 1194
genomestart 1415
trait 1 0.44693 0.788836 0.842703 0.151784 0.387093 0.454265 0.834502 0.684191 
node 1 1 1 1 0
node 2 1 1 1 0
node 3 1 1 1 0
node 4 1 1 1 0
node 5 1 1 1 0
node 6 1 1 1 0
node 7 1 1 1 0
node 8 1 1 1 0
node 9 1 1 1 0
node 10 1 1 1 0
node 11 1 1 1 0
node 12 1 1 1 0
node 13 1 1 1 0
node 14 1 1 1 0
node 15 1 1 1 0
node 16 1 1 1 0
node 17 1 1 1 0
node 18 1 1 1 0
node 19 1 1 3 0
node 20 1 0 2 0
node 21 1 0 2 0
node 22 1 0 0 0
node 26 1 0 0 0
node 27 1 0 0 0
node 39 1 0 0 0
node 46 1 0 0 0
node 51 1 0 0 0
node 65 1 0 0 0
node 69 1 0 0 0
node 75 1 0 0 0
node 76 1 0 0 0
node 85 1 0 0 0
node 86 1 0 0 0
node 114 1 0 0 0
node 116 1 0 0 0
node 117 1 0 0 0
node 123 1 0 0 0
node 125 1 0 0 0
node 132 1 0 0 0
node 134 1 0 0 0
node 138 1 0 0 0
node 161 1 0 0 0
node 164 1 0 0 0
node 200 1 0 0 0
node 204 1 0 0 0
node 205 1 0 0 0
node 212 1 0 0 0
gene 1 1 20 0.533059 0 1 0.533059 1
gene 1 2 20 0.808438 0 2 0.808438 1
gene 1 3 20 -0.0961148 0 3 -0.0961148 1
gene 1 4 20 2.78129 0 4 2.78129 1
gene 1 5 20 2.46871 0 5 2.46871 1
gene 1 6 20 0.111049 0 6 0.111049 1
gene 1 7 20 0.326198 0 7 0.326198 1
gene 1 8 20 0.205428 0 8 0.205428 1
gene 1 9 20 -1.11342 0 9 -1.11342 1
gene 1 10 20 -0.0910794 0 10 -0.0910794 1
gene 1 11 20 -0.784685 0 11 -0.784685 1
gene 1 12 20 0.652188 0 12 0.652188 1
gene 1 13 20 0.266082 0 13 0.266082 0
gene 1 14 20 -0.600602 0 14 -0.600602 0
gene 1 15 20 0.673129 0 15 0.673129 1
gene 1 16 20 0.578866 0 16 0.578866 1
gene 1 17 20 -2.55986 0 17 -2.55986 1
gene 1 18 20 2.44411 0 18 2.44411 1
gene 1 19 20 -0.145956 0 19 -0.145956 1
gene 1 1 21 0.599391 0 20 0.599391 1
gene 1 2 21 -0.235273 0 21 -0.235273 1
gene 1 3 21 -0.608295 0 22 -0.608295 1
gene 1 4 21 -1.1872 0 23 -1.1872 1
gene 1 5 21 -0.936769 0 24 -0.936769 1
gene 1 6 21 0.44504 0 25 0.44504 1
gene 1 7 21 1.0597 0 26 1.0597 1
gene 1 8 21 0.84823 0 27 0.84823 1
gene 1 9 21 0.290271 0 28 0.290271 1
gene 1 10 21 0.236124 0 29 0.236124 1
gene 1 11 21 -0.279874 0 30 -0.279874 0
gene 1 12 21 0.977577 0 31 0.977577 1
gene 1 13 21 0.00377448 0 32 0.00377448 1
gene 1 14 21 0.13223 0 33 0.13223 1
gene 1 15 21 -0.400045 0 34 -0.400045 1
gene 1 16 21 1.70212 0 35 1.70212 1
gene 1 17 21 0.194424 0 36 0.194424 1
gene 1 18 21 0.722754 0 37 0.722754 1
gene 1 19 21 -0.0635546 0 38 -0.0635546 1
gene 1 12 22 -1.57227 0 41 -1.57227 1
gene 1 22 21 0.803188 0 42 0.803188 1
gene 1 20 20 -0.0114773 1 43 -0.0114773 1
gene 1 12 26 0.24628 0 52 0.24628 1
gene 1 26 20 0.0905216 0 53 0.0905216 1
gene 1 11 27 -0.48012 0 54 -0.48012 1
gene 1 27 21 0.216177 0 55 0.216177 1
gene 1 1 22 -0.219923 0 59 -0.219923 1
gene 1 17 26 -0.204684 0 69 -0.204684 1
gene 1 14 39 0.218567 0 98 0.218567 1
gene 1 39 21 0.269201 0 99 0.269201 1
gene 1 15 46 -0.885154 0 125 -0.885154 1
gene 1 46 21 1.42303 0 126 1.42303 1
gene 1 8 39 -0.404341 0 145 -0.404341 1
gene 1 16 51 0.342828 0 165 0.342828 1
gene 1 51 21 0.68805 0 166 0.68805 1
gene 1 14 26 -0.136419 0 180 -0.136419 1
gene 1 7 46 0.519779 0 184 0.519779 1
gene 1 1 46 -2.15724 0 191 -2.15724 1
gene 1 10 27 0.157375 0 236 0.157375 0
gene 1 10 65 -2.34503 0 240 -2.34503 1
gene 1 65 27 0.462681 0 241 0.462681 1
gene 1 9 69 -0.430715 0 251 -0.430715 1
gene 1 69 21 0.873982 0 252 0.873982 1
gene 1 19 26 -3 0 288 -3 1
gene 1 26 22 -0.500864 0 294 -0.500864 1
gene 1 16 39 1.99316 0 296 1.99316 1
gene 1 14 75 -1.00581 0 305 -1.00581 1
gene 1 75 21 0.0137486 0 306 0.0137486 1
gene 1 3 76 -2.46202 0 307 -2.46202 1
gene 1 76 20 0.338591 0 308 0.338591 1
gene 1 2 46 -0.0877644 0 319 -0.0877644 1
gene 1 20 51 0.392756 0 332 0.392756 1
gene 1 18 27 0.965363 0 338 0.965363 1
gene 1 13 22 -1.8612 0 346 -1.8612 1
gene 1 8 85 1.1988 0 348 1.1988 1
gene 1 85 20 -0.677151 0 349 -0.677151 1
gene 1 9 86 1.35047 0 354 1.35047 1
gene 1 86 69 0.266956 0 355 0.266956 1
gene 1 19 46 -0.578886 0 408 -0.578886 1
gene 1 69 51 -1.42403 0 423 -1.42403 1
gene 1 75 20 0.624805 0 424 0.624805 1
gene 1 46 22 0.114343 0 430 0.114343 1
gene 1 3 27 -0.370688 0 439 -0.370688 1
gene 1 69 26 -0.580598 0 441 -0.580598 1
gene 1 18 46 1.04418 0 446 1.04418 1
gene 1 26 26 0.165442 1 475 0.165442 1
gene 1 18 114 -0.164468 0 479 -0.164468 1
gene 1 114 46 0.137865 0 480 0.137865 1
gene 1 26 116 1.66564 0 486 1.66564 1
gene 1 116 22 -0.787811 0 487 -0.787811 1
gene 1 16 117 0.30212 0 542 0.30212 1
gene 1 117 39 -0.619619 0 543 -0.619619 1
gene 1 6 123 0.464239 0 560 0.464239 1
gene 1 123 20 -0.344665 0 561 -0.344665 0
gene 1 17 125 -0.327624 0 568 -0.327624 0
gene 1 125 26 0.528793 0 569 0.528793 1
gene 1 3 132 -0.315609 0 593 -0.315609 1
gene 1 132 27 0.21011 0 594 0.21011 1
gene 1 46 39 -0.229292 0 600 -0.229292 1
gene 1 13 134 -0.310204 0 603 -0.310204 1
gene 1 134 20 -0.405831 0 604 -0.405831 1
gene 1 3 85 0.807434 0 629 0.807434 0
gene 1 17 138 -0.0529446 0 632 -0.0529446 1
gene 1 138 125 -0.0422581 0 633 -0.0422581 1
gene 1 76 26 -0.384937 0 689 -0.384937 1
gene 1 2 138 -0.634897 0 710 -0.634897 1
gene 1 117 117 0.708439 1 712 0.708439 1
gene 1 14 161 1.45375 0 718 1.45375 1
gene 1 161 20 0.46165 0 719 0.46165 1
gene 1 86 46 -0.095265 0 735 -0.095265 1
gene 1 138 164 -0.0384053 0 738 -0.0384053 1
gene 1 164 125 0.41306 0 739 0.41306 1
gene 1 1 27 0.762248 0 802 0.762248 1
gene 1 16 76 0.869743 0 855 0.869743 1
gene 1 7 39 -0.0644328 0 862 -0.0644328 1
gene 1 125 132 0.579745 0 875 0.579745 1
gene 1 114 26 0.560361 0 878 0.560361 1
gene 1 10 200 1 0 929 0 1
gene 1 200 27 0.0440579 0 930 0 1
gene 1 123 204 1 0 940 0 1
gene 1 204 20 -0.103399 0 941 0 1
gene 1 117 205 1 1 943 0 1
gene 1 205 117 0.216948 0 944 0 1
gene 1 69 69 -0.552659 1 947 -0.552659 1
gene 1 14 76 -0.579807 0 960 -0.579807 1
gene 1 3 212 1 0 970 0 1
gene 1 212 85 0.259777 0 971 0 1
genomeend 1415
genomestart 1585
trait 1 0.44693 0.788836 0.882027 0.266895 0.29032 0.454265 0.834502 0.684191 
node 1 1 1 1 0
node 2 1 1 1 0
node 3 1 1 1 0
node 4 1 1 1 0
node 5 1 1 1 0
node 6 1 1 1 0
node 7 1 1 1 0
node 8 1 1 1 0
node 9 1 1 1 0
node 10 1 1 1 0
node 11 1 1 1 0
node 12 1 1 1 0
node 13 1 1 1 0
node 14 1 1 1 0
node 15 1 1 1 0
node 16 1 1 1 0
node 17 1 1 1 0
node 18 1 1 1 0
node 19 1 1 3 0
node 20 1 0 2 0
node 21 1 0 2 0
node 22 1 0 0 0
node 26 1 0 0 0
node 27 1 0 0 0
node 39 1 0 0 0
node 46 1 0 0 0
node 51 1 0 0 0
node 65 1 0 0 0
node 69 1 0 0 0
node 75 1 0 0 0
node 76 1 0 0 0
node 85 1 0 0 0
node 86 1 0 0 0
node 114 1 0 0 0
node 116 1 0 0 0
node 117 1 0 0 0
node 123 1 0 0 0
node 125 1 0 0 0
node 132 1 0 0 0
node 134 1 0 0 0
node 138 1 0 0 0
node 161 1 0 0 0
node 164 1 0 0 0
node 200 1 0 0 0
node 204 1 0 0 0
node 208 1 0 0 0
node 224 1 0 0 0
gene 1 1 20 0.576455 0 1 0.576455 1
gene 1 2 20 0.381901 0 2 0.381901 1
gene 1 3 20 -0.0584129 0 3 -0.0584129 1
gene 1 4 20 3 0 4 3 1
gene 1 5 20 2.03423 0 5 2.03423 0
gene 1 6 20 0.445145 0 6 0.445145 1
gene 1 7 20 0.305021 0 7 0.305021 1
gene 1 8 20 0.824235 0 8 0.824235 1
gene 1 9 20 -0.696793 0 9 -0.696793 1
gene 1 10 20 0.340922 0 10 0.340922 1
gene 1 11 20 -1.05224 0 11 -1.05224 1
gene 1 12 20 1.23221 0 12 1.23221 1
gene 1 13 20 0.634552 0 13 0.634552 0
gene 1 14 20 -0.47207 0 14 -0.47207 0
gene 1 15 20 0.923187 0 15 0.923187 1
gene 1 16 20 1.05018 0 16 1.05018 1
gene 1 17 20 -3 0 17 -3 1
gene 1 18 20 2.00572 0 18 2.00572 1
gene 1 19 20 0.18805 0 19 0.18805 1
gene 1 1 21 1.20743 0 20 1.20743 1
gene 1 2 21 -0.54114 0 21 -0.54114 1
gene 1 3 21 -0.663815 0 22 -0.663815 1
gene 1 4 21 -1.088 0 23 -1.088 1
gene 1 5 21 -0.646239 0 24 -0.646239 1
gene 1 6 21 0.4755 0 25 0.4755 1
gene 1 7 21 0.600389 0 26 0.600389 1
gene 1 8 21 0.872639 0 27 0.872639 1
gene 1 9 21 0.598886 0 28 0.598886 1
gene 1 10 21 0.553334 0 29 0.553334 1
gene 1 11 21 -0.539321 0 30 -0.539321 0
gene 1 12 21 0.636252 0 31 0.636252 1
gene 1 13 21 0.128463 0 32 0.128463 1
gene 1 14 21 -0.115547 0 33 -0.115547 1
gene 1 15 21 -0.223536 0 34 -0.223536 1
gene 1 16 21 0.944589 0 35 0.944589 1
gene 1 17 21 0.311018 0 36 0.311018 1
gene 1 18 21 0.625118 0 37 0.625118 1
gene 1 19 21 -0.35709 0 38 -0.35709 1
gene 1 12 22 -1.32403 0 41 -1.32403 1
gene 1 22 21 0.78316 0 42 0.78316 1
gene 1 20 20 0.070007 1 43 0.070007 1
gene 1 12 26 -0.103158 0 52 -0.103158 1
gene 1 26 20 0.336415 0 53 0.336415 1
gene 1 11 27 -0.632427 0 54 -0.632427 1
gene 1 27 21 -0.0435533 0 55 -0.0435533 1
gene 1 1 22 -0.732038 0 59 -0.732038 1
gene 1 17 26 0.168162 0 69 0.168162 1
gene 1 14 39 0.361089 0 98 0.361089 1
gene 1 39 21 0.198208 0 99 0.198208 1
gene 1 15 46 -0.486133 0 125 -0.486133 1
gene 1 46 21 1.15991 0 126 1.15991 1
gene 1 8 39 -0.708316 0 145 -0.708316 1
gene 1 16 51 0.654558 0 165 0.654558 1
gene 1 51 21 0.882958 0 166 0.882958 1
gene 1 14 26 -0.45714 0 180 -0.45714 1
gene 1 7 46 0.716702 0 184 0.716702 1
gene 1 1 46 -2.38418 0 191 -2.38418 1
gene 1 10 27 0.436235 0 236 0.436235 0
gene 1 10 65 -2.3589 0 240 -2.3589 1
gene 1 65 27 1.41959 0 241 1.41959 1
gene 1 9 69 -0.917327 0 251 -0.917327 1
gene 1 69 21 0.801711 0 252 0.801711 1
gene 1 19 26 -3 0 288 -3 1
gene 1 26 22 -0.831322 0 294 -0.831322 1
gene 1 16 39 2.12516 0 296 2.12516 1
gene 1 14 75 -1.52498 0 305 -1.52498 1
gene 1 75 21 -0.258682 0 306 -0.258682 1
gene 1 3 76 -2.00291 0 307 -2.00291 1
gene 1 76 20 0.199224 0 308 0.199224 1
gene 1 2 46 -0.785048 0 319 -0.785048 1
gene 1 20 51 0.106552 0 332 0.106552 1
gene 1 18 27 0.709699 0 338 0.709699 1
gene 1 13 22 -1.62489 0 346 -1.62489 1
gene 1 8 85 1.47314 0 348 1.47314 1
gene 1 85 20 -1.14839 0 349 -1.14839 1
gene 1 9 86 1.29278 0 354 1.29278 1
gene 1 86 69 0.00656352 0 355 0.00656352 1
gene 1 19 46 -0.245325 0 408 -0.245325 1
gene 1 69 51 -1.89241 0 423 -1.89241 0
gene 1 75 20 0.683855 0 424 0.683855 1
gene 1 46 22 -0.088906 0 430 -0.088906 1
gene 1 3 27 -0.492935 0 439 -0.492935 1
gene 1 69 26 -0.72461 0 441 -0.72461 1
gene 1 18 46 0.926369 0 446 0.926369 1
gene 1 26 26 0.410733 1 475 0.410733 1
gene 1 18 114 -0.0348177 0 479 -0.0348177 1
gene 1 114 46 0.134158 0 480 0.134158 1
gene 1 26 116 1.43637 0 486 1.43637 1
gene 1 116 22 -0.307728 0 487 -0.307728 1
gene 1 16 117 0.055113 0 542 0.055113 1
gene 1 117 39 -0.787294 0 543 -0.787294 1
gene 1 6 123 0.548424 0 560 0.548424 1
gene 1 123 20 -0.21943 0 561 -0.21943 0
gene 1 17 125 -0.517474 0 568 -0.517474 0
gene 1 125 26 0.60307 0 569 0.60307 1
gene 1 3 132 -0.513137 0 593 -0.513137 1
gene 1 132 27 -0.076133 0 594 -0.076133 1
gene 1 46 39 0.0213041 0 600 0.0213041 1
gene 1 13 134 -0.110705 0 603 -0.110705 1
gene 1 134 20 -0.352863 0 604 -0.352863 1
gene 1 3 85 0.0631249 0 629 0.0631249 1
gene 1 17 138 -0.481087 0 632 -0.481087 1
gene 1 138 125 -0.0422581 0 633 -0.0422581 0
gene 1 76 26 -0.844906 0 689 -0.844906 1
gene 1 2 138 0.303374 0 710 0.303374 1
gene 1 117 117 0.353259 1 712 0.353259 1
gene 1 14 161 -0.49233 0 718 -0.49233 1
gene 1 161 20 0.576949 0 719 0.576949 1
gene 1 86 46 -0.0997303 0 735 -0.0997303 1
gene 1 138 164 0.236713 0 738 0.236713 1
gene 1 164 125 0.06633 0 739 0.06633 1
gene 1 1 27 -0.114261 0 802 -0.114261 1
gene 1 16 76 0.869743 0 855 0.869743 1
gene 1 7 39 0.0174693 0 862 0.0174693 1
gene 1 125 132 0.600373 0 875 0.600373 1
gene 1 114 26 -0.242242 0 878 -0.242242 1
gene 1 76 21 0.00948199 0 925 0 1
gene 1 10 200 -0.388197 0 929 -0.388197 1
gene 1 200 27 0.268608 0 930 0.268608 1
gene 1 123 204 0.502595 0 940 0.502595 1
gene 1 204 20 0.363203 0 941 0.363203 1
gene 1 69 69 -0.736078 1 947 -0.736078 1
gene 1 69 208 1 0 954 1 1
gene 1 208 51 -0.089368 0 955 -0.089368 1
gene 1 5 224 1 0 1011 0 1
gene 1 224 20 0.61027 0 1012 0 1
genomeend 1585
genomestart 1587
trait 1 0.44693 0.788836 0.872196 0.238117 0.314513 0.454265 0.834502 0.684191 
node 1 1 1 1 0
node 2 1 1 1 0
node 3 1 1 1 0
node 4 1 1 1 0
node 5 1 1 1 0
node 6 1 1 1 0
node 7 1 1 1 0
node 8 1 1 1 0
node 9 1 1 1 0
node 10 1 1 1 0
node 11 1 1 1 0
node 12 1 1 1 0
node 13 1 1 1 0
node 14 1 1 1 0
node 15 1 1 1 0
node 16 1 1 1 0
node 17 1 1 1 0
node 18 1 1 1 0
node 19 1 1 3 0
node 20 1 0 2 0
node 21 1 0 2 0
node 22 1 0 0 0
node 26 1 0 0 0
node 27 1 0 0 0
node 39 1 0 0 0
node 46 1 0 0 0
node 51 1 0 0 0
node 65 1 0 0 0
node 69 1 0 0 0
node 75 1 0 0 0
node 76 1 0 0 0
node 85 1 0 0 0
node 86 1 0 0 0
node 114 1 0 0 0
node 116 1 0 0 0
node 117 1 0 0 0
node 123 1 0 0 0
node 125 1 0 0 0
node 132 1 0 0 0
node 134 1 0 0 0
node 138 1 0 0 0
node 161 1 0 0 0
node 164 1 0 0 0
node 200 1 0 0 0
node 204 1 0 0 0
node 205 1 0 0 0
node 212 1 0 0 0
node 218 1 0 0 0
gene 1 1 20 0.663249 0 1 0.663249 1
gene 1 2 20 0.806567 0 2 0.806567 1
gene 1 3 20 -0.0961148 0 3 -0.0961148 1
gene 1 4 20 2.87844 0 4 2.87844 1
gene 1 5 20 2.46532 0 5 2.46532 1
gene 1 6 20 0.277379 0 6 0.277379 1
gene 1 7 20 0.43505 0 7 0.43505 1
gene 1 8 20 0.283429 0 8 0.283429 1
gene 1 9 20 -1.24139 0 9 -1.24139 1
gene 1 10 20 -0.0713628 0 10 -0.0713628 1
gene 1 11 20 -0.784685 0 11 -0.784685 1
gene 1 12 20 0.699434 0 12 0.699434 1
gene 1 13 20 0.554208 0 13 0.554208 0
gene 1 14 20 -0.600602 0 14 -0.600602 0
gene 1 15 20 0.673129 0 15 0.673129 1
gene 1 16 20 0.714667 0 16 0.714667 1
gene 1 17 20 -2.77993 0 17 -2.77993 1
gene 1 18 20 2.71411 0 18 2.71411 1
gene 1 19 20 -0.145956 0 19 -0.145956 1
gene 1 1 21 0.599391 0 20 0.599391 1
gene 1 2 21 -0.136325 0 21 -0.136325 1
gene 1 3 21 -0.842534 0 22 -0.842534 1
gene 1 4 21 -1.35703 0 23 -1.35703 1
gene 1 5 21 -0.815119 0 24 -0.815119 1
gene 1 6 21 0.44504 0 25 0.44504 1
gene 1 7 21 0.684516 0 26 0.684516 1
gene 1 8 21 0.84091 0 27 0.84091 1
gene 1 9 21 0.146146 0 28 0.146146 1
gene 1 10 21 0.175654 0 29 0.175654 1
gene 1 11 21 -0.603106 0 30 -0.603106 0
gene 1 12 21 0.839513 0 31 0.839513 1
gene 1 13 21 0.00377448 0 32 0.00377448 1
gene 1 14 21 0.0202312 0 33 0.0202312 1
gene 1 15 21 -0.260087 0 34 -0.260087 1
gene 1 16 21 1.53347 0 35 1.53347 1
gene 1 17 21 0.194424 0 36 0.194424 1
gene 1 18 21 0.682484 0 37 0.682484 1
gene 1 19 21 -0.334282 0 38 -0.334282 1
gene 1 12 22 -1.57227 0 41 -1.57227 1
gene 1 22 21 0.852725 0 42 0.852725 1
gene 1 20 20 -0.0114773 1 43 -0.0114773 1
gene 1 12 26 0.367071 0 52 0.367071 1
gene 1 26 20 0.034081 0 53 0.034081 1
gene 1 11 27 -0.293693 0 54 -0.293693 1
gene 1 27 21 0.453927 0 55 0.453927 1
gene 1 1 22 -0.256075 0 59 -0.256075 1
gene 1 17 26 -0.223988 0 69 -0.223988 1
gene 1 14 39 0.423574 0 98 0.423574 1
gene 1 39 21 0.336498 0 99 0.336498 1
gene 1 15 46 -1.09989 0 125 -1.09989 1
gene 1 46 21 1.42303 0 126 1.42303 1
gene 1 8 39 -0.67874 0 145 -0.67874 1
gene 1 16 51 0.135727 0 165 0.135727 1
gene 1 51 21 0.789956 0 166 0.789956 1
gene 1 14 26 -0.136419 0 180 -0.136419 1
gene 1 7 46 0.519779 0 184 0.519779 1
gene 1 1 46 -2.15724 0 191 -2.15724 1
gene 1 10 27 0.0492224 0 236 0.0492224 0
gene 1 10 65 -2.34503 0 240 -2.34503 1
gene 1 65 27 0.462681 0 241 0.462681 1
gene 1 9 69 -0.430715 0 251 -0.430715 1
gene 1 69 21 0.873982 0 252 0.873982 1
gene 1 19 26 -2.75256 0 288 -2.75256 1
gene 1 26 22 -0.598203 0 294 -0.598203 1
gene 1 16 39 2.30434 0 296 2.30434 1
gene 1 14 75 -1.09668 0 305 -1.09668 1
gene 1 75 21 0.0593772 0 306 0.0593772 1
gene 1 3 76 -2.64949 0 307 -2.64949 1
gene 1 76 20 0.600749 0 308 0.600749 1
gene 1 2 46 -0.247838 0 319 -0.247838 1
gene 1 20 51 0.40275 0 332 0.40275 1
gene 1 18 27 0.725606 0 338 0.725606 1
gene 1 13 22 -1.77404 0 346 -1.77404 1
gene 1 8 85 1.1988 0 348 1.1988 1
gene 1 85 20 -0.741852 0 349 -0.741852 1
gene 1 9 86 1.45056 0 354 1.45056 1
gene 1 86 69 0.313126 0 355 0.313126 1
gene 1 19 46 -0.470838 0 408 -0.470838 1
gene 1 69 51 -1.13825 0 423 -1.13825 1
gene 1 75 20 0.865592 0 424 0.865592 1
gene 1 46 22 0.252099 0 430 0.252099 1
gene 1 3 27 -0.230039 0 439 -0.230039 1
gene 1 69 26 -0.623959 0 441 -0.623959 1
gene 1 18 46 1.04418 0 446 1.04418 1
gene 1 26 26 0.348586 1 475 0.348586 1
gene 1 18 114 -0.206743 0 479 -0.206743 1
gene 1 114 46 0.311749 0 480 0.311749 1
gene 1 26 116 1.48228 0 486 1.48228 1
gene 1 116 22 -0.787811 0 487 -0.787811 1
gene 1 16 117 0.292569 0 542 0.292569 1
gene 1 117 39 -0.735922 0 543 -0.735922 1
gene 1 6 123 0.515145 0 560 0.515145 1
gene 1 123 20 -0.254798 0 561 -0.254798 0
gene 1 17 125 -0.230528 0 568 -0.230528 0
gene 1 125 26 0.501688 0 569 0.501688 1
gene 1 3 132 -0.37758 0 593 -0.37758 1
gene 1 132 27 0.21011 0 594 0.21011 1
gene 1 46 39 -0.229292 0 600 -0.229292 1
gene 1 13 134 -0.294351 0 603 -0.294351 1
gene 1 134 20 -0.304269 0 604 -0.304269 1
gene 1 3 85 0.531959 0 629 0.531959 1
gene 1 17 138 -0.0529446 0 632 -0.0529446 1
gene 1 138 125 0.0144606 0 633 0.0144606 0
gene 1 76 26 -0.613783 0 689 -0.613783 1
gene 1 2 138 -0.575877 0 710 -0.575877 1
gene 1 117 117 0.530849 1 712 0.530849 1
gene 1 14 161 1.45375 0 718 1.45375 1
gene 1 161 20 0.466744 0 719 0.466744 1
gene 1 86 46 -0.179851 0 735 -0.179851 0
gene 1 138 164 -0.0384053 0 738 -0.0384053 1
gene 1 164 125 0.518471 0 739 0.518471 1
gene 1 1 27 0.462476 0 802 0.462476 1
gene 1 16 76 0.781719 0 855 0.781719 1
gene 1 7 39 -0.0365728 0 862 -0.0365728 1
gene 1 125 132 0.590059 0 875 0.590059 1
gene 1 114 26 0.464588 0 878 0.464588 1
gene 1 10 200 1 0 929 0 1
gene 1 200 27 0.194782 0 930 0.172753 1
gene 1 123 204 1 0 940 0 1
gene 1 204 20 0.129902 0 941 0.181601 1
gene 1 117 205 1 1 943 0 1
gene 1 205 117 0.216948 0 944 0 1
gene 1 69 69 -0.147526 1 947 -0.147526 1
gene 1 14 76 -0.579807 0 960 -0.579807 1
gene 1 3 212 1 0 970 0 1
gene 1 212 85 0.259777 0 971 0 1
gene 1 86 218 1 0 990 0 1
gene 1 218 46 -0.0539554 0 991 0 1
genomeend 1587
genomestart 1594
trait 1 0.139666 0.788836 0.852534 0.180562 0.405992 0.454265 0.286162 0.419922 
node 1 1 1 1 0
node 2 1 1 1 0
node 3 1 1 1 0
node 4 1 1 1 0
node 5 1 1 1 0
node 6 1 1 1 0
node 7 1 1 1 0
node 8 1 1 1 0
node 9 1 1 1 0
node 10 1 1 1 0
node 11 1 1 1 0
node 12 1 1 1 0
node 13 1 1 1 0
node 14 1 1 1 0
node 15 1 1 1 0
node 16 1 1 1 0
node 17 1 1 1 0
node 18 1 1 1 0
node 19 1 1 3 0
node 20 1 0 2 0
node 21 1 0 2 0
node 22 1 0 0 0
node 26 1 0 0 0
node 27 1 0 0 0
node 39 1 0 0 0
node 46 1 0 0 0
node 51 1 0 0 0
node 65 1 0 0 0
node 69 1 0 0 0
node 75 1 0 0 0
node 76 1 0 0 0
node 85 1 0 0 0
node 86 1 0 0 0
node 114 1 0 0 0
node 116 1 0 0 0
node 117 1 0 0 0
node 123 1 0 0 0
node 125 1 0 0 0
node 132 1 0 0 0
node 134 1 0 0 0
node 138 1 0 0 0
node 161 1 0 0 0
node 164 1 0 0 0
node 200 1 0 0 0
node 204 1 0 0 0
node 205 1 0 0 0
node 206 1 0 0 0
node 218 1 0 0 0
gene 1 1 20 0.908135 0 1 0.908135 1
gene 1 2 20 0.806567 0 2 0.806567 1
gene 1 3 20 -0.131041 0 3 -0.131041 1
gene 1 4 20 2.87844 0 4 2.87844 1
gene 1 5 20 2.51657 0 5 2.51657 1
gene 1 6 20 0.0550165 0 6 0.0550165 1
gene 1 7 20 0.657497 0 7 0.657497 1
gene 1 8 20 0.11989 0 8 0.11989 1
gene 1 9 20 -1.24139 0 9 -1.24139 1
gene 1 10 20 -0.217429 0 10 -0.217429 1
gene 1 11 20 -0.887773 0 11 -0.887773 1
gene 1 12 20 0.244292 0 12 0.244292 1
gene 1 13 20 0.554208 0 13 0.554208 0
gene 1 14 20 -0.212443 0 14 -0.212443 1
gene 1 15 20 0.667713 0 15 0.667713 1
gene 1 16 20 0.858886 0 16 0.858886 1
gene 1 17 20 -2.82476 0 17 -2.82476 1
gene 1 18 20 2.4633 0 18 2.4633 1
gene 1 19 20 0.0261977 0 19 0.0261977 1
gene 1 1 21 0.701421 0 20 0.701421 1
gene 1 2 21 -0.240895 0 21 -0.240895 1
gene 1 3 21 -0.842534 0 22 -0.842534 1
gene 1 4 21 -1.44557 0 23 -1.44557 1
gene 1 5 21 -0.815119 0 24 -0.815119 1
gene 1 6 21 0.566895 0 25 0.566895 1
gene 1 7 21 1.35015 0 26 1.35015 1
gene 1 8 21 0.874447 0 27 0.874447 1
gene 1 9 21 -0.0817583 0 28 -0.0817583 1
gene 1 10 21 0.175654 0 29 0.175654 1
gene 1 11 21 -0.546654 0 30 -0.546654 0
gene 1 12 21 0.880773 0 31 0.880773 1
gene 1 13 21 0.364847 0 32 0.364847 1
gene 1 14 21 0.0202312 0 33 0.0202312 1
gene 1 15 21 -0.599944 0 34 -0.599944 1
gene 1 16 21 2.02123 0 35 2.02123 1
gene 1 17 21 0.477845 0 36 0.477845 1
gene 1 18 21 0.70833 0 37 0.70833 1
gene 1 19 21 -0.0187461 0 38 -0.0187461 1
gene 1 12 22 -1.83067 0 41 -1.83067 1
gene 1 22 21 1.12124 0 42 1.12124 1
gene 1 20 20 -0.40362 1 43 -0.40362 1
gene 1 12 26 0.440901 0 52 0.440901 1
gene 1 26 20 -0.414377 0 53 -0.414377 1
gene 1 11 27 -0.841215 0 54 -0.841215 1
gene 1 27 21 0.40598 0 55 0.40598 1
gene 1 1 22 -0.390004 0 59 -0.390004 1
gene 1 17 26 -0.223988 0 69 -0.223988 1
gene 1 14 39 0.140947 0 98 0.140947 1
gene 1 39 21 0.377692 0 99 0.377692 1
gene 1 15 46 -1.25974 0 125 -1.25974 1
gene 1 46 21 1.62854 0 126 1.62854 1
gene 1 8 39 -0.419699 0 145 -0.419699 1
gene 1 16 51 0.00121456 0 165 0.00121456 1
gene 1 51 21 1.13467 0 166 1.13467 1
gene 1 14 26 -0.213453 0 180 -0.213453 1
gene 1 7 46 0.424071 0 184 0.424071 1
gene 1 1 46 -1.77493 0 191 -1.77493 1
gene 1 10 27 0.0384417 0 236 0.0384417 1
gene 1 10 65 -2.97913 0 240 -2.97913 1
gene 1 65 27 0.686052 0 241 0.686052 1
gene 1 9 69 0.0646636 0 251 0.0646636 1
gene 1 69 21 0.604978 0 252 0.604978 1
gene 1 19 26 -2.98615 0 288 -2.98615 1
gene 1 26 22 -0.589032 0 294 -0.589032 1
gene 1 16 39 2.14066 0 296 2.14066 1
gene 1 14 75 -0.866756 0 305 -0.866756 1
gene 1 75 21 0.38405 0 306 0.38405 1
gene 1 3 76 -2.64949 0 307 -2.64949 1
gene 1 76 20 0.283191 0 308 0.283191 1
gene 1 2 46 -0.553234 0 319 -0.553234 1
gene 1 20 51 0.409651 0 332 0.409651 1
gene 1 18 27 1.14643 0 338 1.14643 1
gene 1 13 22 -2.31978 0 346 -2.31978 1
gene 1 8 85 1.06924 0 348 1.06924 1
gene 1 85 20 -1.00682 0 349 -1.00682 1
gene 1 9 86 1.14272 0 354 1.14272 1
gene 1 86 69 -0.0385197 0 355 -0.0385197 1
gene 1 19 46 -0.470838 0 408 -0.470838 1
gene 1 69 51 -1.13825 0 423 -1.13825 1
gene 1 75 20 0.94494 0 424 0.94494 1
gene 1 46 22 0.252099 0 430 0.252099 1
gene 1 3 27 -0.689091 0 439 -0.689091 1
gene 1 69 26 -1.06328 0 441 -1.06328 1
gene 1 18 46 0.545831 0 446 0.545831 1
gene 1 26 26 -0.0776945 1 475 -0.0776945 1
gene 1 18 114 0.0937401 0 479 0.0937401 1
gene 1 114 46 0.311749 0 480 0.311749 1
gene 1 26 116 1.48228 0 486 1.48228 1
gene 1 116 22 -0.53655 0 487 -0.53655 1
gene 1 16 117 0.292569 0 542 0.292569 1
gene 1 117 39 -0.735922 0 543 -0.735922 1
gene 1 6 123 0.540145 0 560 0.540145 1
gene 1 123 20 -0.161979 0 561 -0.161979 1
gene 1 17 125 -0.230528 0 568 -0.230528 0
gene 1 125 26 0.501688 0 569 0.501688 1
gene 1 3 132 0.460716 0 593 0.460716 1
gene 1 132 27 -0.0592069 0 594 -0.0592069 1
gene 1 46 39 -0.307898 0 600 -0.307898 1
gene 1 13 134 -0.294351 0 603 -0.294351 1
gene 1 134 20 -0.44608 0 604 -0.44608 1
gene 1 3 85 1.21415 0 629 1.21415 1
gene 1 17 138 -0.0335031 0 632 -0.0335031 1
gene 1 138 125 0.45677 0 633 0.45677 0
gene 1 76 26 -0.613783 0 689 -0.613783 1
gene 1 2 138 -0.464518 0 710 -0.464518 1
gene 1 117 117 0.723161 1 712 0.723161 0
gene 1 14 161 0.61865 0 718 0.61865 1
gene 1 161 20 0.181507 0 719 0.181507 1
gene 1 86 46 -0.179851 0 735 -0.179851 0
gene 1 138 164 -0.15498 0 738 -0.15498 1
gene 1 164 125 0.490688 0 739 0.490688 1
gene 1 1 27 0.462476 0 802 0.462476 1
gene 1 16 76 -0.284193 0 855 -0.284193 1
gene 1 7 39 -0.0365728 0 862 -0.0365728 1
gene 1 125 132 0.310416 0 875 0.310416 1
gene 1 114 26 0.464588 0 878 0.464588 1
gene 1 10 200 0.270372 0 929 -0.229628 1
gene 1 200 27 0.194782 0 930 0.172753 1
gene 1 123 204 1.33881 0 940 0.838808 1
gene 1 204 20 0.129902 0 941 0.181601 1
gene 1 117 205 0.852098 1 943 0.852098 1
gene 1 205 117 -0.0666249 0 944 -0.120862 1
gene 1 69 69 -0.147526 1 947 -0.147526 1
gene 1 16 206 1 0 948 0 1
gene 1 206 39 0.574388 0 949 0 1
gene 1 86 218 1 0 990 0 1
gene 1 218 46 -0.0539554 0 991 0 1
gene 1 17 117 0.0985684 0 992 0.0985684 1
gene 1 114 69 -0.64587 0 1000 -0.64587 1
gene 1 117 114 -0.639042 0 1001 -0.639042 1
genomeend 1594
genomestart 1638
trait 1 0.223465 0.788836 0.85745 0.194951 0.382143 0.454265 0.43571 0.491995 
node 1 1 1 1 0
node 2 1 1 1 0
node 3 1 1 1 0
node 4 1 1 1 0
node 5 1 1 1 0
node 6 1 1 1 0
node 7 1 1 1 0
node 8 1 1 1 0
node 9 1 1 1 0
node 10 1 1 1 0
node 11 1 1 1 0
node 12 1 1 1 0
node 13 1 1 1 0
node 14 1 1 1 0
node 15 1 1 1 0
node 16 1 1 1 0
node 17 1 1 1 0
node 18 1 1 1 0
node 19 1 1 3 0
node 20 1 0 2 0
node 21 1 0 2 0
node 22 1 0 0 0
node 26 1 0 0 0
node 27 1 0 0 0
node 39 1 0 0 0
node 46 1 0 0 0
node 51 1 0 0 0
node 65 1 0 0 0
node 69 1 0 0 0
node 75 1 0 0 0
node 76 1 0 0 0
node 85 1 0 0 0
node 86 1 0 0 0
node 114 1 0 0 0
node 116 1 0 0 0
node 117 1 0 0 0
node 123 1 0 0 0
node 125 1 0 0 0
node 132 1 0 0 0
node 134 1 0 0 0
node 138 1 0 0 0
node 161 1 0 0 0
node 164 1 0 0 0
node 200 1 0 0 0
node 204 1 0 0 0
node 205 1 0 0 0
node 212 1 0 0 0
node 218 1 0 0 0
gene 1 1 20 0.908135 0 1 0.908135 1
gene 1 2 20 0.806567 0 2 0.806567 1
gene 1 3 20 -0.171702 0 3 -0.171702 1
gene 1 4 20 3 0 4 3 1
gene 1 5 20 2.61137 0 5 2.61137 1
gene 1 6 20 0.277379 0 6 0.277379 1
gene 1 7 20 0.43505 0 7 0.43505 1
gene 1 8 20 0.0773053 0 8 0.0773053 1
gene 1 9 20 -1.19901 0 9 -1.19901 1
gene 1 10 20 -0.0713628 0 10 -0.0713628 1
gene 1 11 20 -0.784685 0 11 -0.784685 1
gene 1 12 20 0.699434 0 12 0.699434 1
gene 1 13 20 0.73622 0 13 0.73622 1
gene 1 14 20 -0.600602 0 14 -0.600602 0
gene 1 15 20 0.698189 0 15 0.698189 1
gene 1 16 20 0.714667 0 16 0.714667 1
gene 1 17 20 -2.76634 0 17 -2.76634 1
gene 1 18 20 2.48771 0 18 2.48771 1
gene 1 19 20 0.112977 0 19 0.112977 1
gene 1 1 21 0.599391 0 20 0.599391 1
gene 1 2 21 -0.136325 0 21 -0.136325 1
gene 1 3 21 -0.755797 0 22 -0.755797 1
gene 1 4 21 -1.44557 0 23 -1.44557 1
gene 1 5 21 -0.815119 0 24 -0.815119 1
gene 1 6 21 0.566895 0 25 0.566895 1
gene 1 7 21 0.684516 0 26 0.684516 1
gene 1 8 21 0.84091 0 27 0.84091 1
gene 1 9 21 0.146146 0 28 0.146146 1
gene 1 10 21 0.175654 0 29 0.175654 1
gene 1 11 21 -0.603106 0 30 -0.603106 0
gene 1 12 21 0.839513 0 31 0.839513 1
gene 1 13 21 0.00377448 0 32 0.00377448 1
gene 1 14 21 -0.0972294 0 33 -0.0972294 1
gene 1 15 21 -0.260087 0 34 -0.260087 0
gene 1 16 21 1.53347 0 35 1.53347 1
gene 1 17 21 0.643813 0 36 0.643813 1
gene 1 18 21 0.682484 0 37 0.682484 1
gene 1 19 21 -0.334282 0 38 -0.334282 1
gene 1 12 22 -1.83067 0 41 -1.83067 1
gene 1 22 21 1.2278 0 42 1.2278 1
gene 1 20 20 -0.0114773 1 43 -0.0114773 1
gene 1 12 26 0.367071 0 52 0.367071 1
gene 1 26 20 0.034081 0 53 0.034081 1
gene 1 11 27 -0.293693 0 54 -0.293693 1
gene 1 27 21 0.585107 0 55 0.585107 1
gene 1 1 22 -0.390004 0 59 -0.390004 1
gene 1 17 26 -0.223988 0 69 -0.223988 1
gene 1 14 39 0.140947 0 98 0.140947 1
gene 1 39 21 0.336498 0 99 0.336498 1
gene 1 15 46 -1.25974 0 125 -1.25974 1
gene 1 46 21 1.62854 0 126 1.62854 1
gene 1 8 39 -0.419699 0 145 -0.419699 1
gene 1 16 51 -0.059654 0 165 -0.059654 1
gene 1 51 21 0.789956 0 166 0.789956 1
gene 1 14 26 -0.213453 0 180 -0.213453 1
gene 1 7 46 0.372433 0 184 0.372433 1
gene 1 1 46 -1.77493 0 191 -1.77493 1
gene 1 10 27 0.0447943 0 236 0.0447943 0
gene 1 10 65 -2.34503 0 240 -2.34503 1
gene 1 65 27 0.686052 0 241 0.686052 1
gene 1 9 69 0.0646636 0 251 0.0646636 1
gene 1 69 21 0.873982 0 252 0.873982 1
gene 1 19 26 -3 0 288 -3 1
gene 1 26 22 -0.623293 0 294 -0.623293 1
gene 1 16 39 2.30434 0 296 2.30434 1
gene 1 14 75 -1.09668 0 305 -1.09668 1
gene 1 75 21 0.38405 0 306 0.38405 1
gene 1 3 76 -2.64949 0 307 -2.64949 1
gene 1 76 20 0.600749 0 308 0.600749 1
gene 1 2 46 -0.656538 0 319 -0.656538 1
gene 1 20 51 0.414239 0 332 0.414239 1
gene 1 18 27 0.725606 0 338 0.725606 1
gene 1 13 22 -1.77404 0 346 -1.77404 1
gene 1 8 85 1.1988 0 348 1.1988 1
gene 1 85 20 -0.741852 0 349 -0.741852 1
gene 1 9 86 1.45056 0 354 1.45056 1
gene 1 86 69 -0.0385197 0 355 -0.0385197 1
gene 1 19 46 -1.00762 0 408 -1.00762 1
gene 1 69 51 -1.91033 0 423 -1.91033 1
gene 1 75 20 0.94494 0 424 0.94494 1
gene 1 46 22 -0.0969094 0 430 -0.0969094 1
gene 1 3 27 -0.230039 0 439 -0.230039 1
gene 1 69 26 -1.06328 0 441 -1.06328 1
gene 1 18 46 0.500537 0 446 0.500537 1
gene 1 26 26 0.348586 1 475 0.348586 1
gene 1 18 114 0.0937401 0 479 0.0937401 1
gene 1 114 46 0.226477 0 480 0.226477 1
gene 1 26 116 1.48228 0 486 1.48228 1
gene 1 116 22 -0.397119 0 487 -0.397119 1
gene 1 16 117 0.257508 0 542 0.257508 1
gene 1 117 39 -1.18124 0 543 -1.18124 1
gene 1 6 123 0.515145 0 560 0.515145 1
gene 1 123 20 -0.161979 0 561 -0.161979 0
gene 1 17 125 -0.875108 0 568 -0.875108 1
gene 1 125 26 0.501688 0 569 0.501688 1
gene 1 3 132 0.460716 0 593 0.460716 1
gene 1 132 27 -0.0592069 0 594 -0.0592069 1
gene 1 46 39 -0.229292 0 600 -0.229292 1
gene 1 13 134 -0.394519 0 603 -0.394519 1
gene 1 134 20 -0.304269 0 604 -0.304269 1
gene 1 3 85 1.21415 0 629 1.21415 1
gene 1 17 138 -0.0529446 0 632 -0.0529446 1
gene 1 138 125 0.45677 0 633 0.45677 0
gene 1 76 26 -0.895547 0 689 -0.895547 1
gene 1 2 138 -0.575877 0 710 -0.575877 1
gene 1 117 117 0.723161 1 712 0.723161 0
gene 1 14 161 1.68055 0 718 1.68055 1
gene 1 161 20 0.0851878 0 719 0.0851878 1
gene 1 86 46 -0.179851 0 735 -0.179851 0
gene 1 138 164 -0.0246559 0 738 -0.0246559 1
gene 1 164 125 0.490688 0 739 0.490688 1
gene 1 1 27 0.370082 0 802 0.370082 1
gene 1 16 76 -0.284193 0 855 -0.284193 1
gene 1 7 39 -0.259453 0 862 -0.259453 1
gene 1 125 132 0.590059 0 875 0.590059 1
gene 1 114 26 0.464588 0 878 0.464588 1
gene 1 10 200 1 0 929 0 1
gene 1 200 27 0.194782 0 930 0.172753 1
gene 1 123 204 1 0 940 0 1
gene 1 204 20 0.129902 0 941 0.181601 1
gene 1 117 205 0.852098 1 943 0.852098 1
gene 1 205 117 -0.161149 0 944 -0.161149 1
gene 1 69 69 -0.147526 1 947 -0.147526 1
gene 1 14 76 -0.579807 0 960 -0.579807 1
gene 1 3 212 1 0 970 0 1
gene 1 212 85 0.259777 0 971 0 1
gene 1 86 218 1 0 990 0 1
gene 1 218 46 -0.0539554 0 991 0 1
gene 1 17 117 0.0985684 0 992 0.0985684 1
gene 1 117 114 -0.639042 0 1001 -0.639042 1
gene 1 161 65 -0.184759 0 1013 -0.184759 1
genomeend 1638
genomestart 1643
trait 1 0.293298 0.788836 0.847619 0.166173 0.396542 0.454265 0.560332 0.552056 
node 1 1 1 1 0
node 2 1 1 1 0
node 3 1 1 1 0
node 4 1 1 1 0
node 5 1 1 1 0
node 6 1 1 1 0
node 7 1 1 1 0
node 8 1 1 1 0
node 9 1 1 1 0
node 10 1 1 1 0
node 11 1 1 1 0
node 12 1 1 1 0
node 13 1 1 1 0
node 14 1 1 1 0
node 15 1 1 1 0
node 16 1 1 1 0
node 17 1 1 1 0
node 18 1 1 1 0
node 19 1 1 3 0
node 20 1 0 2 0
node 21 1 0 2 0
node 22 1 0 0 0
node 26 1 0 0 0
node 27 1 0 0 0
node 39 1 0 0 0
node 46 1 0 0 0
node 51 1 0 0 0
node 65 1 0 0 0
node 69 1 0 0 0
node 75 1 0 0 0
node 76 1 0 0 0
node 85 1 0 0 0
node 86 1 0 0 0
node 114 1 0 0 0
node 116 1 0 0 0
node 117 1 0 0 0
node 123 1 0 0 0
node 125 1 0 0 0
node 132 1 0 0 0
node 134 1 0 0 0
node 138 1 0 0 0
node 161 1 0 0 0
node 164 1 0 0 0
node 200 1 0 0 0
node 204 1 0 0 0
node 205 1 0 0 0
node 206 1 0 0 0
node 218 1 0 0 0
gene 1 1 20 0.908135 0 1 0.908135 1
gene 1 2 20 0.808438 0 2 0.808438 1
gene 1 3 20 -0.131041 0 3 -0.131041 1
gene 1 4 20 2.75687 0 4 2.75687 1
gene 1 5 20 2.46181 0 5 2.46181 1
gene 1 6 20 0.111049 0 6 0.111049 1
gene 1 7 20 0.324762 0 7 0.324762 1
gene 1 8 20 0.205428 0 8 0.205428 1
gene 1 9 20 -1.24139 0 9 -1.24139 1
gene 1 10 20 -0.0924178 0 10 -0.0924178 1
gene 1 11 20 -0.887773 0 11 -0.887773 1
gene 1 12 20 0.244292 0 12 0.244292 1
gene 1 13 20 0.263592 0 13 0.263592 0
gene 1 14 20 -0.212443 0 14 -0.212443 0
gene 1 15 20 0.689274 0 15 0.689274 1
gene 1 16 20 0.858886 0 16 0.858886 1
gene 1 17 20 -2.82476 0 17 -2.82476 1
gene 1 18 20 2.45183 0 18 2.45183 1
gene 1 19 20 -0.145956 0 19 -0.145956 1
gene 1 1 21 0.701421 0 20 0.701421 1
gene 1 2 21 -0.235273 0 21 -0.235273 1
gene 1 3 21 -0.842534 0 22 -0.842534 1
gene 1 4 21 -1.18373 0 23 -1.18373 1
gene 1 5 21 -0.927022 0 24 -0.927022 1
gene 1 6 21 0.566895 0 25 0.566895 1
gene 1 7 21 1.04836 0 26 1.04836 1
gene 1 8 21 0.874447 0 27 0.874447 1
gene 1 9 21 -0.0817583 0 28 -0.0817583 1
gene 1 10 21 0.175654 0 29 0.175654 1
gene 1 11 21 -0.279874 0 30 -0.279874 0
gene 1 12 21 0.880773 0 31 0.880773 1
gene 1 13 21 0.364847 0 32 0.364847 1
gene 1 14 21 0.0202312 0 33 0.0202312 1
gene 1 15 21 -0.599944 0 34 -0.599944 1
gene 1 16 21 2.02123 0 35 2.02123 1
gene 1 17 21 0.19252 0 36 0.19252 1
gene 1 18 21 0.70833 0 37 0.70833 1
gene 1 19 21 -0.0764956 0 38 -0.0764956 1
gene 1 12 22 -1.83067 0 41 -1.83067 1
gene 1 22 21 0.803419 0 42 0.803419 1
gene 1 20 20 -0.40362 1 43 -0.40362 1
gene 1 12 26 0.440901 0 52 0.440901 1
gene 1 26 20 0.0905216 0 53 0.0905216 1
gene 1 11 27 -0.469369 0 54 -0.469369 1
gene 1 27 21 0.201383 0 55 0.201383 1
gene 1 1 22 -0.220954 0 59 -0.220954 1
gene 1 17 26 -0.204684 0 69 -0.204684 1
gene 1 14 39 0.224723 0 98 0.224723 1
gene 1 39 21 0.377692 0 99 0.377692 1
gene 1 15 46 -0.851366 0 125 -0.851366 1
gene 1 46 21 1.42708 0 126 1.42708 1
gene 1 8 39 -0.419699 0 145 -0.419699 1
gene 1 16 51 0.350903 0 165 0.350903 1
gene 1 51 21 0.64915 0 166 0.64915 1
gene 1 14 26 -0.213453 0 180 -0.213453 1
gene 1 7 46 0.532142 0 184 0.532142 1
gene 1 1 46 -2.15724 0 191 -2.15724 1
gene 1 10 27 0.0384417 0 236 0.0384417 0
gene 1 10 65 -2.97913 0 240 -2.97913 1
gene 1 65 27 0.45507 0 241 0.45507 1
gene 1 9 69 -0.455417 0 251 -0.455417 1
gene 1 69 21 0.873982 0 252 0.873982 1
gene 1 19 26 -2.98615 0 288 -2.98615 1
gene 1 26 22 -0.589032 0 294 -0.589032 1
gene 1 16 39 1.99316 0 296 1.99316 1
gene 1 14 75 -0.866756 0 305 -0.866756 1
gene 1 75 21 0.38405 0 306 0.38405 1
gene 1 3 76 -2.64949 0 307 -2.64949 1
gene 1 76 20 0.337226 0 308 0.337226 1
gene 1 2 46 -0.0877644 0 319 -0.0877644 1
gene 1 20 51 0.392309 0 332 0.392309 1
gene 1 18 27 0.965363 0 338 0.965363 1
gene 1 13 22 -2.31978 0 346 -2.31978 1
gene 1 8 85 1.06924 0 348 1.06924 1
gene 1 85 20 -0.677151 0 349 -0.677151 1
gene 1 9 86 1.35408 0 354 1.35408 1
gene 1 86 69 0.266956 0 355 0.266956 1
gene 1 19 46 -0.578886 0 408 -0.578886 1
gene 1 69 51 -1.13825 0 423 -1.13825 1
gene 1 75 20 0.94494 0 424 0.94494 1
gene 1 46 22 0.252099 0 430 0.252099 1
gene 1 3 27 -0.689091 0 439 -0.689091 1
gene 1 69 26 -0.580598 0 441 -0.580598 1
gene 1 18 46 1.04418 0 446 1.04418 1
gene 1 26 26 0.165442 1 475 0.165442 1
gene 1 18 114 0.0937401 0 479 0.0937401 1
gene 1 114 46 0.14442 0 480 0.14442 1
gene 1 26 116 1.66505 0 486 1.66505 1
gene 1 116 22 -0.53655 0 487 -0.53655 1
gene 1 16 117 0.292569 0 542 0.292569 1
gene 1 117 39 -0.735922 0 543 -0.735922 1
gene 1 6 123 0.464239 0 560 0.464239 1
gene 1 123 20 -0.344665 0 561 -0.344665 0
gene 1 17 125 -0.327624 0 568 -0.327624 0
gene 1 125 26 0.501688 0 569 0.501688 1
gene 1 3 132 0.460716 0 593 0.460716 1
gene 1 132 27 0.188907 0 594 0.188907 1
gene 1 46 39 -0.307898 0 600 -0.307898 1
gene 1 13 134 -0.310204 0 603 -0.310204 1
gene 1 134 20 -0.44608 0 604 -0.44608 1
gene 1 3 85 0.787937 0 629 0.787937 1
gene 1 17 138 -0.055722 0 632 -0.055722 1
gene 1 138 125 0.45677 0 633 0.45677 0
gene 1 76 26 -0.613783 0 689 -0.613783 1
gene 1 2 138 -0.634897 0 710 -0.634897 1
gene 1 117 117 0.708439 1 712 0.708439 0
gene 1 14 161 1.45375 0 718 1.45375 1
gene 1 161 20 0.181507 0 719 0.181507 1
gene 1 86 46 -0.179851 0 735 -0.179851 0
gene 1 138 164 -0.0384053 0 738 -0.0384053 1
gene 1 164 125 0.490688 0 739 0.490688 1
gene 1 1 27 0.462476 0 802 0.462476 1
gene 1 16 76 0.869743 0 855 0.869743 1
gene 1 7 39 -0.0365728 0 862 -0.0365728 1
gene 1 125 132 0.310416 0 875 0.310416 1
gene 1 114 26 0.560361 0 878 0.560361 1
gene 1 10 200 1 0 929 0 1
gene 1 200 27 0.0440579 0 930 0 1
gene 1 123 204 1.33881 0 940 0.838808 1
gene 1 204 20 -0.103399 0 941 0 1
gene 1 117 205 0.852098 1 943 0.852098 1
gene 1 205 117 -0.0666249 0 944 -0.120862 1
gene 1 69 69 -0.552659 1 947 -0.552659 1
gene 1 16 206 1 0 948 0 1
gene 1 206 39 0.574388 0 949 0 1
gene 1 86 218 1 0 990 0 1
gene 1 218 46 -0.0539554 0 991 0 1
gene 1 17 117 0.0985684 0 992 0.0985684 1
gene 1 114 69 -0.64587 0 1000 -0.64587 1
gene 1 117 114 -0.639042 0 1001 -0.639042 1
genomeend 1643
genomestart 1662
trait 1 0 0.788836 0.559501 0.266895 0 0.454265 0.834502 0.684191 
node 1 1 1 1 0
node 2 1 1 1 0
node 3 1 1 1 0
node 4 1 1 1 0
node 5 1 1 1 0
node 6 1 1 1 0
node 7 1 1 1 0
node 8 1 1 1 0
node 9 1 1 1 0
node 10 1 1 1 0
node 11 1 1 1 0
node 12 1 1 1 0
node 13 1 1 1 0
node 14 1 1 1 0
node 15 1 1 1 0
node 16 1 1 1 0
node 17 1 1 1 0
node 18 1 1 1 0
node 19 1 1 3 0
node 20 1 0 2 0
node 21 1 0 2 0
node 22 1 0 0 0
node 26 1 0 0 0
node 27 1 0 0 0
node 39 1 0 0 0
node 46 1 0 0 0
node 51 1 0 0 0
node 65 1 0 0 0
node 69 1 0 0 0
node 75 1 0 0 0
node 76 1 0 0 0
node 85 1 0 0 0
node 86 1 0 0 0
node 114 1 0 0 0
node 116 1 0 0 0
node 117 1 0 0 0
node 123 1 0 0 0
node 125 1 0 0 0
node 132 1 0 0 0
node 134 1 0 0 0
node 138 1 0 0 0
node 161 1 0 0 0
node 164 1 0 0 0
node 200 1 0 0 0
node 204 1 0 0 0
node 208 1 0 0 0
node 224 1 0 0 0
gene 1 1 20 0.576455 0 1 0.576455 1
gene 1 2 20 0.381901 0 2 0.381901 1
gene 1 3 20 -0.0584129 0 3 -0.0584129 1
gene 1 4 20 3 0 4 3 1
gene 1 5 20 2.03423 0 5 2.03423 0
gene 1 6 20 0.445145 0 6 0.445145 1
gene 1 7 20 0.305021 0 7 0.305021 1
gene 1 8 20 0.824235 0 8 0.824235 1
gene 1 9 20 -0.696793 0 9 -0.696793 1
gene 1 10 20 0.340922 0 10 0.340922 1
gene 1 11 20 -1.05224 0 11 -1.05224 1
gene 1 12 20 1.23221 0 12 1.23221 1
gene 1 13 20 0.634552 0 13 0.634552 0
gene 1 14 20 -0.47207 0 14 -0.47207 0
gene 1 15 20 0.923187 0 15 0.923187 1
gene 1 16 20 1.05018 0 16 1.05018 1
gene 1 17 20 -3 0 17 -3 1
gene 1 18 20 2.00572 0 18 2.00572 1
gene 1 19 20 0.18805 0 19 0.18805 1
gene 1 1 21 1.20743 0 20 1.20743 1
gene 1 2 21 -0.54114 0 21 -0.54114 1
gene 1 3 21 -0.663815 0 22 -0.663815 1
gene 1 4 21 -1.088 0 23 -1.088 1
gene 1 5 21 -0.646239 0 24 -0.646239 1
gene 1 6 21 0.4755 0 25 0.4755 1
gene 1 7 21 0.600389 0 26 0.600389 1
gene 1 8 21 0.872639 0 27 0.872639 1
gene 1 9 21 0.598886 0 28 0.598886 1
gene 1 10 21 0.553334 0 29 0.553334 1
gene 1 11 21 -0.539321 0 30 -0.539321 0
gene 1 12 21 0.636252 0 31 0.636252 1
gene 1 13 21 0.128463 0 32 0.128463 1
gene 1 14 21 -0.115547 0 33 -0.115547 1
gene 1 15 21 -0.223536 0 34 -0.223536 1
gene 1 16 21 0.944589 0 35 0.944589 1
gene 1 17 21 0.311018 0 36 0.311018 1
gene 1 18 21 0.625118 0 37 0.625118 1
gene 1 19 21 -0.35709 0 38 -0.35709 1
gene 1 12 22 -1.32403 0 41 -1.32403 1
gene 1 22 21 0.78316 0 42 0.78316 1
gene 1 20 20 0.070007 1 43 0.070007 1
gene 1 12 26 -0.103158 0 52 -0.103158 1
gene 1 26 20 0.336415 0 53 0.336415 1
gene 1 11 27 -0.632427 0 54 -0.632427 1
gene 1 27 21 -0.0435533 0 55 -0.0435533 1
gene 1 1 22 -0.732038 0 59 -0.732038 1
gene 1 17 26 0.168162 0 69 0.168162 1
gene 1 14 39 0.361089 0 98 0.361089 1
gene 1 39 21 0.198208 0 99 0.198208 1
gene 1 15 46 -0.486133 0 125 -0.486133 1
gene 1 46 21 1.15991 0 126 1.15991 1
gene 1 8 39 -0.708316 0 145 -0.708316 1
gene 1 16 51 0.654558 0 165 0.654558 1
gene 1 51 21 0.882958 0 166 0.882958 1
gene 1 14 26 -0.45714 0 180 -0.45714 1
gene 1 7 46 0.716702 0 184 0.716702 1
gene 1 1 46 -2.38418 0 191 -2.38418 1
gene 1 10 27 0.436235 0 236 0.436235 0
gene 1 10 65 -2.3589 0 240 -2.3589 1
gene 1 65 27 1.41959 0 241 1.41959 1
gene 1 9 69 -0.917327 0 251 -0.917327 1
gene 1 69 21 0.801711 0 252 0.801711 1
gene 1 19 26 -3 0 288 -3 1
gene 1 26 22 -0.831322 0 294 -0.831322 1
gene 1 16 39 2.12516 0 296 2.12516 1
gene 1 14 75 -1.52498 0 305 -1.52498 1
gene 1 75 21 -0.258682 0 306 -0.258682 1
gene 1 3 76 -2.00291 0 307 -2.00291 1
gene 1 76 20 0.199224 0 308 0.199224 1
gene 1 2 46 -0.785048 0 319 -0.785048 1
gene 1 20 51 0.106552 0 332 0.106552 1
gene 1 18 27 0.709699 0 338 0.709699 1
gene 1 13 22 -1.62489 0 346 -1.62489 1
gene 1 8 85 1.47314 0 348 1.47314 1
gene 1 85 20 -1.14839 0 349 -1.14839 1
gene 1 9 86 1.29278 0 354 1.29278 1
gene 1 86 69 0.00656352 0 355 0.00656352 1
gene 1 19 46 -0.245325 0 408 -0.245325 1
gene 1 69 51 -1.89241 0 423 -1.89241 0
gene 1 75 20 0.683855 0 424 0.683855 1
gene 1 46 22 -0.088906 0 430 -0.088906 1
gene 1 3 27 -0.492935 0 439 -0.492935 1
gene 1 69 26 -0.72461 0 441 -0.72461 1
gene 1 18 46 0.926369 0 446 0.926369 1
gene 1 26 26 0.410733 1 475 0.410733 1
gene 1 18 114 -0.0348177 0 479 -0.0348177 1
gene 1 114 46 0.134158 0 480 0.134158 1
gene 1 26 116 1.43637 0 486 1.43637 1
gene 1 116 22 -0.307728 0 487 -0.307728 1
gene 1 16 117 0.055113 0 542 0.055113 1
gene 1 117 39 -0.787294 0 543 -0.787294 1
gene 1 6 123 0.548424 0 560 0.548424 1
gene 1 123 20 -0.21943 0 561 -0.21943 0
gene 1 17 125 -0.517474 0 568 -0.517474 0
gene 1 125 26 0.60307 0 569 0.60307 1
gene 1 3 132 -0.513137 0 593 -0.513137 1
gene 1 132 27 -0.076133 0 594 -0.076133 1
gene 1 46 39 0.0213041 0 600 0.0213041 1
gene 1 13 134 -0.110705 0 603 -0.110705 1
gene 1 134 20 -0.352863 0 604 -0.352863 1
gene 1 3 85 0.0631249 0 629 0.0631249 1
gene 1 17 138 -0.481087 0 632 -0.481087 1
gene 1 138 125 -0.0422581 0 633 -0.0422581 0
gene 1 76 26 -0.844906 0 689 -0.844906 1
gene 1 2 138 0.303374 0 710 0.303374 1
gene 1 117 117 0.353259 1 712 0.353259 1
gene 1 14 161 -0.49233 0 718 -0.49233 1
gene 1 161 20 0.576949 0 719 0.576949 1
gene 1 86 46 -0.0997303 0 735 -0.0997303 1
gene 1 138 164 0.236713 0 738 0.236713 1
gene 1 164 125 0.06633 0 739 0.06633 1
gene 1 1 27 -0.114261 0 802 -0.114261 1
gene 1 16 76 0.869743 0 855 0.869743 1
gene 1 7 39 0.0174693 0 862 0.0174693 1
gene 1 125 132 0.600373 0 875 0.600373 1
gene 1 114 26 -0.242242 0 878 -0.242242 1
gene 1 76 21 0.00948199 0 925 0 1
gene 1 10 200 -0.388197 0 929 -0.388197 1
gene 1 200 27 0.268608 0 930 0.268608 1
gene 1 123 204 0.502595 0 940 0.502595 1
gene 1 204 20 0.363203 0 941 0.363203 1
gene 1 69 69 -0.736078 1 947 -0.736078 1
gene 1 69 208 1 0 954 1 1
gene 1 208 51 -0.089368 0 955 -0.089368 1
gene 1 5 224 1 0 1011 0 1
gene 1 224 20 0.61027 0 1012 0 1
genomeend 1662
genomestart 1671
trait 1 0.389179 0.403422 0.828746 0.138844 0.637775 0.180053 0.4986 0.712395 
node 1 1 1 1 0
node 2 1 1 1 0
node 3 1 1 1 0
node 4 1 1 1 0
node 5 1 1 1 0
node 6 1 1 1 0
node 7 1 1 1 0
node 8 1 1 1 0
node 9 1 1 1 0
node 10 1 1 1 0
node 11 1 1 1 0
node 12 1 1 1 0
node 13 1 1 1 0
node 14 1 1 1 0
node 15 1 1 1 0
node 16 1 1 1 0
node 17 1 1 1 0
node 18 1 1 1 0
node 19 1 1 3 0
node 20 1 0 2 0
node 21 1 0 2 0
node 22 1 0 0 0
node 26 1 0 0 0
node 27 1 0 0 0
node 39 1 0 0 0
node 46 1 0 0 0
node 51 1 0 0 0
node 65 1 0 0 0
node 69 1 0 0 0
node 75 1 0 0 0
node 76 1 0 0 0
node 85 1 0 0 0
node 86 1 0 0 0
node 114 1 0 0 0
node 116 1 0 0 0
node 117 1 0 0 0
node 123 1 0 0 0
node 125 1 0 0 0
node 132 1 0 0 0
node 135 1 0 0 0
node 141 1 0 0 0
node 155 1 0 0 0
node 157 1 0 0 0
node 166 1 0 0 0
node 168 1 0 0 0
node 198 1 0 0 0
node 208 1 0 0 0
node 223 1 0 0 0
gene 1 1 20 -0.525819 0 1 -0.525819 1
gene 1 2 20 1.73896 0 2 1.73896 1
gene 1 3 20 0.990153 0 3 0.990153 1
gene 1 4 20 2.84611 0 4 2.84611 1
gene 1 5 20 0.858026 0 5 0.858026 1
gene 1 6 20 -0.154478 0 6 -0.154478 1
gene 1 7 20 -0.456003 0 7 -0.456003 1
gene 1 8 20 -0.0183567 0 8 -0.0183567 0
gene 1 9 20 -2.29566 0 9 -2.29566 1
gene 1 10 20 0.452518 0 10 0.452518 1
gene 1 11 20 -2.7935 0 11 -2.7935 1
gene 1 12 20 -1.47495 0 12 -1.47495 0
gene 1 13 20 0.257959 0 13 0.257959 1
gene 1 14 20 0.973338 0 14 0.973338 1
gene 1 15 20 -1.26624 0 15 -1.26624 1
gene 1 16 20 0.171878 0 16 0.171878 1
gene 1 17 20 0.380424 0 17 0.380424 1
gene 1 18 20 1.10253 0 18 1.10253 1
gene 1 19 20 1.00446 0 19 1.00446 1
gene 1 1 21 2.26486 0 20 2.26486 1
gene 1 2 21 -0.824 0 21 -0.824 1
gene 1 3 21 0.296019 0 22 0.296019 1
gene 1 4 21 -0.599123 0 23 -0.599123 1
gene 1 5 21 -1.53381 0 24 -1.53381 1
gene 1 6 21 1.79893 0 25 1.79893 1
gene 1 7 21 1.12738 0 26 1.12738 0
gene 1 8 21 -3 0 27 -3 1
gene 1 9 21 -0.0948152 0 28 -0.0948152 1
gene 1 10 21 -0.414524 0 29 -0.414524 1
gene 1 11 21 0.259995 0 30 0.259995 1
gene 1 12 21 0.0946082 0 31 0.0946082 1
gene 1 13 21 0.0491986 0 32 0.0491986 1
gene 1 14 21 0.349168 0 33 0.349168 1
gene 1 15 21 2.19136 0 34 2.19136 0
gene 1 16 21 -1.87374 0 35 -1.87374 1
gene 1 17 21 0.008963 0 36 0.008963 1
gene 1 18 21 0.809802 0 37 0.809802 1
gene 1 19 21 0.258656 0 38 0.258656 1
gene 1 12 22 -1.71924 0 41 -1.71924 1
gene 1 22 21 -2.47637 0 42 -2.47637 1
gene 1 20 20 -0.0895628 1 43 -0.0895628 1
gene 1 12 26 0.461288 0 52 0.461288 1
gene 1 26 20 0.418578 0 53 0.418578 1
gene 1 11 27 0.112402 0 54 0.112402 1
gene 1 27 21 -2.40177 0 55 -2.40177 1
gene 1 1 22 -1.40769 0 59 -1.40769 1
gene 1 17 26 0.413185 0 69 0.413185 1
gene 1 14 39 0.350086 0 98 0.350086 1
gene 1 39 21 0.655595 0 99 0.655595 1
gene 1 15 46 -1.12347 0 125 -1.12347 1
gene 1 46 21 0.418931 0 126 0.418931 1
gene 1 8 39 -0.226676 0 145 -0.226676 1
gene 1 16 51 0.0207487 0 165 0.0207487 1
gene 1 51 21 1.82545 0 166 1.82545 1
gene 1 14 26 -0.919002 0 180 -0.919002 1
gene 1 7 46 0.468527 0 184 0.468527 1
gene 1 1 46 -0.877232 0 191 -0.877232 1
gene 1 10 27 0.125005 0 236 0.125005 0
gene 1 10 65 0.40801 0 240 0.40801 1
gene 1 65 27 -2.76834 0 241 -2.76834 1
gene 1 9 69 0.835907 0 251 0.835907 1
gene 1 69 21 -0.816473 0 252 -0.816473 1
gene 1 19 26 0.509607 0 288 0.509607 1
gene 1 26 22 -0.0293992 0 294 -0.0293992 1
gene 1 16 39 -1.05202 0 296 -1.05202 1
gene 1 14 75 0.260321 0 305 0.260321 1
gene 1 75 21 -1.88663 0 306 -1.88663 1
gene 1 3 76 -1.60281 0 307 -1.60281 1
gene 1 76 20 0.23596 0 308 0.23596 1
gene 1 2 46 -0.405082 0 319 -0.405082 1
gene 1 20 51 -1.01508 0 332 -1.01508 1
gene 1 18 27 -0.7137 0 338 -0.7137 1
gene 1 13 22 -0.815337 0 346 -0.815337 1
gene 1 8 85 0.753738 0 348 0.753738 1
gene 1 85 20 -0.402236 0 349 -0.402236 1
gene 1 9 86 1.04737 0 354 1.04737 1
gene 1 86 69 -0.829228 0 355 -0.829228 1
gene 1 19 46 0.202437 0 408 0.202437 1
gene 1 69 51 -0.149868 0 423 -0.149868 0
gene 1 75 20 -0.374425 0 424 -0.374425 1
gene 1 46 22 0.366835 0 430 0.366835 1
gene 1 3 27 -0.28093 0 439 -0.28093 1
gene 1 69 26 -1.34765 0 441 -1.34765 1
gene 1 18 46 -0.438036 0 446 -0.438036 1
gene 1 26 26 -0.435153 1 475 -0.435153 1
gene 1 18 114 0.680686 0 479 0.680686 1
gene 1 114 46 -0.135643 0 480 -0.135643 1
gene 1 26 116 -0.374192 0 486 -0.374192 1
gene 1 116 22 0.130956 0 487 0.130956 1
gene 1 16 117 -0.177949 0 542 -0.177949 1
gene 1 117 39 0.0258581 0 543 0.0258581 1
gene 1 6 123 0.863169 0 560 0.863169 1
gene 1 123 20 -0.498355 0 561 -0.498355 1
gene 1 17 125 0.591872 0 568 0.591872 1
gene 1 125 26 0.626098 0 569 0.626098 1
gene 1 3 132 -0.0197146 0 593 -0.0197146 1
gene 1 132 27 -0.29707 0 594 -0.29707 1
gene 1 114 22 0.144774 0 597 0.144774 1
gene 1 46 39 -0.0915301 0 600 -0.0915301 1
gene 1 17 135 0.501167 0 614 0.501167 1
gene 1 135 26 -0.00793786 0 615 -0.00793786 1
gene 1 19 22 -1.41733 0 623 -1.41733 1
gene 1 7 141 0.0938882 0 642 0.0938882 1
gene 1 141 21 0.281893 0 643 0.281893 1
gene 1 39 39 -0.612239 1 647 -0.612239 1
gene 1 10 155 0.0455399 0 694 0.0455399 1
gene 1 155 27 0.330762 0 695 0.330762 1
gene 1 12 157 0.796616 0 701 0.796616 1
gene 1 157 20 -0.437355 0 702 -0.437355 1
gene 1 132 132 0.0178628 1 713 0.0178628 1
gene 1 155 22 0.213834 0 723 0.213834 1
gene 1 26 166 -0.175325 1 748 -0.175325 1
gene 1 166 26 0.734312 0 749 0.734312 1
gene 1 10 168 -0.704463 0 758 -0.704463 1
gene 1 168 21 0.127963 0 759 0.127963 1
gene 1 18 86 -0.0141358 0 822 -0.0141358 1
gene 1 27 114 0.376661 0 854 0.376661 1
gene 1 114 123 -0.0382497 0 858 -0.0382497 1
gene 1 26 198 1 0 922 0 1
gene 1 198 20 0.0805611 0 923 0 1
gene 1 8 69 -0.829637 0 953 -0.829637 1
gene 1 69 208 1 0 954 0 1
gene 1 208 51 -0.0996338 0 955 0 1
gene 1 16 223 1 0 1008 0 1
gene 1 223 51 0.00622462 0 1009 0 1
genomeend 1671
genomestart 1677
trait 1 0.44693 0.788836 0.842703 0.151784 0.387093 0.454265 0.834502 0.684191 
node 1 1 1 1 0
node 2 1 1 1 0
node 3 1 1 1 0
node 4 1 1 1 0
node 5 1 1 1 0
node 6 1 1 1 0
node 7 1 1 1 0
node 8 1 1 1 0
node 9 1 1 1 0
node 10 1 1 1 0
node 11 1 1 1 0
node 12 1 1 1 0
node 13 1 1 1 0
node 14 1 1 1 0
node 15 1 1 1 0
node 16 1 1 1 0
node 17 1 1 1 0
node 18 1 1 1 0
node 19 1 1 3 0
node 20 1 0 2 0
node 21 1 0 2 0
node 22 1 0 0 0
node 26 1 0 0 0
node 27 1 0 0 0
node 39 1 0 0 0
node 46 1 0 0 0
node 51 1 0 0 0
node 65 1 0 0 0
node 69 1 0 0 0
node 75 1 0 0 0
node 76 1 0 0 0
node 85 1 0 0 0
node 86 1 0 0 0
node 114 1 0 0 0
node 116 1 0 0 0
node 117 1 0 0 0
node 123 1 0 0 0
node 125 1 0 0 0
node 132 1 0 0 0
node 134 1 0 0 0
node 138 1 0 0 0
node 161 1 0 0 0
node 164 1 0 0 0
node 200 1 0 0 0
node 204 1 0 0 0
gene 1 1 20 0.530278 0 1 0.530278 1
gene 1 2 20 0.808438 0 2 0.808438 1
gene 1 3 20 -0.0961148 0 3 -0.0961148 1
gene 1 4 20 2.75687 0 4 2.75687 1
gene 1 5 20 2.46181 0 5 2.46181 1
gene 1 6 20 0.111049 0 6 0.111049 1
gene 1 7 20 0.324762 0 7 0.324762 1
gene 1 8 20 0.205428 0 8 0.205428 1
gene 1 9 20 -1.11342 0 9 -1.11342 1
gene 1 10 20 -0.0924178 0 10 -0.0924178 1
gene 1 11 20 -0.784685 0 11 -0.784685 1
gene 1 12 20 0.652188 0 12 0.652188 1
gene 1 13 20 0.263592 0 13 0.263592 0
gene 1 14 20 -0.600544 0 14 -0.600544 0
gene 1 15 20 0.689274 0 15 0.689274 1
gene 1 16 20 0.57605 0 16 0.57605 1
gene 1 17 20 -2.55986 0 17 -2.55986 1
gene 1 18 20 2.45183 0 18 2.45183 1
gene 1 19 20 -0.145956 0 19 -0.145956 1
gene 1 1 21 0.619405 0 20 0.619405 1
gene 1 2 21 -0.235273 0 21 -0.235273 1
gene 1 3 21 -0.608295 0 22 -0.608295 1
gene 1 4 21 -1.18373 0 23 -1.18373 1
gene 1 5 21 -0.927022 0 24 -0.927022 1
gene 1 6 21 0.45159 0 25 0.45159 1
gene 1 7 21 1.04836 0 26 1.04836 1
gene 1 8 21 0.84823 0 27 0.84823 1
gene 1 9 21 0.297343 0 28 0.297343 1
gene 1 10 21 0.236124 0 29 0.236124 1
gene 1 11 21 -0.279874 0 30 -0.279874 0
gene 1 12 21 0.977577 0 31 0.977577 1
gene 1 13 21 0.00393876 0 32 0.00393876 1
gene 1 14 21 0.122488 0 33 0.122488 1
gene 1 15 21 -0.389699 0 34 -0.389699 1
gene 1 16 21 1.68717 0 35 1.68717 1
gene 1 17 21 0.19252 0 36 0.19252 1
gene 1 18 21 0.722754 0 37 0.722754 1
gene 1 19 21 -0.0764956 0 38 -0.0764956 1
gene 1 12 22 -1.57227 0 41 -1.57227 1
gene 1 22 21 0.803419 0 42 0.803419 1
gene 1 20 20 -0.0137805 1 43 -0.0137805 1
gene 1 12 26 0.247139 0 52 0.247139 1
gene 1 26 20 0.0905216 0 53 0.0905216 1
gene 1 11 27 -0.469369 0 54 -0.469369 1
gene 1 27 21 0.201383 0 55 0.201383 1
gene 1 1 22 -0.220954 0 59 -0.220954 1
gene 1 17 26 -0.204684 0 69 -0.204684 1
gene 1 14 39 0.224723 0 98 0.224723 1
gene 1 39 21 0.269201 0 99 0.269201 1
gene 1 15 46 -0.851366 0 125 -0.851366 1
gene 1 46 21 1.42708 0 126 1.42708 1
gene 1 8 39 -0.404341 0 145 -0.404341 1
gene 1 16 51 0.350903 0 165 0.350903 1
gene 1 51 21 0.64915 0 166 0.64915 1
gene 1 14 26 -0.140053 0 180 -0.140053 1
gene 1 7 46 0.532142 0 184 0.532142 1
gene 1 1 46 -2.15724 0 191 -2.15724 1
gene 1 10 27 0.157375 0 236 0.157375 0
gene 1 10 65 -2.34503 0 240 -2.34503 1
gene 1 65 27 0.45507 0 241 0.45507 1
gene 1 9 69 -0.455417 0 251 -0.455417 1
gene 1 69 21 0.873982 0 252 0.873982 1
gene 1 19 26 -3 0 288 -3 1
gene 1 26 22 -0.502952 0 294 -0.502952 1
gene 1 16 39 1.99316 0 296 1.99316 1
gene 1 14 75 -1.00344 0 305 -1.00344 1
gene 1 75 21 0.0137486 0 306 0.0137486 1
gene 1 3 76 -2.46796 0 307 -2.46796 1
gene 1 76 20 0.337226 0 308 0.337226 1
gene 1 2 46 -0.0877644 0 319 -0.0877644 1
gene 1 20 51 0.392309 0 332 0.392309 1
gene 1 18 27 0.965363 0 338 0.965363 1
gene 1 13 22 -1.86452 0 346 -1.86452 1
gene 1 8 85 1.20148 0 348 1.20148 1
gene 1 85 20 -0.677151 0 349 -0.677151 1
gene 1 9 86 1.35408 0 354 1.35408 1
gene 1 86 69 0.266956 0 355 0.266956 1
gene 1 19 46 -0.578886 0 408 -0.578886 1
gene 1 69 51 -1.42403 0 423 -1.42403 1
gene 1 75 20 0.635564 0 424 0.635564 1
gene 1 46 22 0.114343 0 430 0.114343 1
gene 1 3 27 -0.354712 0 439 -0.354712 1
gene 1 69 26 -0.580598 0 441 -0.580598 1
gene 1 18 46 1.04418 0 446 1.04418 1
gene 1 26 26 0.165442 1 475 0.165442 1
gene 1 18 114 -0.169734 0 479 -0.169734 1
gene 1 114 46 0.14442 0 480 0.14442 1
gene 1 26 116 1.66505 0 486 1.66505 1
gene 1 116 22 -0.787811 0 487 -0.787811 1
gene 1 16 117 0.30212 0 542 0.30212 1
gene 1 117 39 -0.598905 0 543 -0.598905 1
gene 1 6 123 0.464239 0 560 0.464239 1
gene 1 123 20 -0.344665 0 561 -0.344665 0
gene 1 17 125 -0.327624 0 568 -0.327624 0
gene 1 125 26 0.541673 0 569 0.541673 1
gene 1 3 132 -0.315609 0 593 -0.315609 1
gene 1 132 27 0.188907 0 594 0.188907 1
gene 1 46 39 -0.22832 0 600 -0.22832 1
gene 1 13 134 -0.310204 0 603 -0.310204 1
gene 1 134 20 -0.407159 0 604 -0.407159 1
gene 1 3 85 0.787937 0 629 0.787937 1
gene 1 17 138 -0.055722 0 632 -0.055722 1
gene 1 138 125 -0.0422581 0 633 -0.0422581 0
gene 1 76 26 -0.38266 0 689 -0.38266 1
gene 1 2 138 -0.634897 0 710 -0.634897 1
gene 1 117 117 0.708439 1 712 0.708439 1
gene 1 14 161 1.45375 0 718 1.45375 1
gene 1 161 20 0.45636 0 719 0.45636 1
gene 1 86 46 -0.0997303 0 735 -0.0997303 1
gene 1 138 164 -0.0384053 0 738 -0.0384053 1
gene 1 164 125 0.399987 0 739 0.399987 1
gene 1 1 27 0.762248 0 802 0.762248 1
gene 1 16 76 0.869743 0 855 0.869743 1
gene 1 7 39 -0.0365728 0 862 -0.0365728 1
gene 1 125 132 0.579745 0 875 0.579745 1
gene 1 114 26 0.560361 0 878 0.560361 1
gene 1 10 200 1 0 929 0 1
gene 1 200 27 0.0440579 0 930 0 1
gene 1 123 204 1 0 940 0 1
gene 1 204 20 -0.103399 0 941 0 1
gene 1 69 69 -0.552659 1 947 -0.552659 1
gene 1 132 132 0.00385302 1 1016 0.00385302 1
genomeend 1677
genomestart 1734
trait 1 0.216482 0.788836 0.850076 0.173367 0.401267 0.454265 0.423247 0.485989 
node 1 1 1 1 0
node 2 1 1 1 0
node 3 1 1 1 0
node 4 1 1 1 0
node 5 1 1 1 0
node 6 1 1 1 0
node 7 1 1 1 0
node 8 1 1 1 0
node 9 1 1 1 0
node 10 1 1 1 0
node 11 1 1 1 0
node 12 1 1 1 0
node 13 1 1 1 0
node 14 1 1 1 0
node 15 1 1 1 0
node 16 1 1 1 0
node 17 1 1 1 0
node 18 1 1 1 0
node 19 1 1 3 0
node 20 1 0 2 0
node 21 1 0 2 0
node 22 1 0 0 0
node 26 1 0 0 0
node 27 1 0 0 0
node 39 1 0 0 0
node 46 1 0 0 0
node 51 1 0 0 0
node 65 1 0 0 0
node 69 1 0 0 0
node 75 1 0 0 0
node 76 1 0 0 0
node 85 1 0 0 0
node 86 1 0 0 0
node 114 1 0 0 0
node 116 1 0 0 0
node 117 1 0 0 0
node 123 1 0 0 0
node 125 1 0 0 0
node 132 1 0 0 0
node 134 1 0 0 0
node 138 1 0 0 0
node 161 1 0 0 0
node 164 1 0 0 0
node 200 1 0 0 0
node 204 1 0 0 0
node 205 1 0 0 0
node 206 1 0 0 0
node 218 1 0 0 0
gene 1 1 20 0.908135 0 1 0.908135 1
gene 1 2 20 0.808438 0 2 0.808438 1
gene 1 3 20 -0.131041 0 3 -0.131041 1
gene 1 4 20 2.75687 0 4 2.75687 1
gene 1 5 20 2.46181 0 5 2.46181 1
gene 1 6 20 0.0550165 0 6 0.0550165 1
gene 1 7 20 0.324762 0 7 0.324762 1
gene 1 8 20 0.205428 0 8 0.205428 1
gene 1 9 20 -1.24139 0 9 -1.24139 1
gene 1 10 20 -0.0924178 0 10 -0.0924178 1
gene 1 11 20 -0.887773 0 11 -0.887773 1
gene 1 12 20 0.244292 0 12 0.244292 1
gene 1 13 20 0.263592 0 13 0.263592 0
gene 1 14 20 -0.212443 0 14 -0.212443 0
gene 1 15 20 0.689274 0 15 0.689274 1
gene 1 16 20 0.858886 0 16 0.858886 1
gene 1 17 20 -2.82476 0 17 -2.82476 1
gene 1 18 20 2.4633 0 18 2.4633 1
gene 1 19 20 -0.145956 0 19 -0.145956 1
gene 1 1 21 0.701421 0 20 0.701421 1
gene 1 2 21 -0.235273 0 21 -0.235273 1
gene 1 3 21 -0.842534 0 22 -0.842534 1
gene 1 4 21 -1.44557 0 23 -1.44557 1
gene 1 5 21 -0.927022 0 24 -0.927022 1
gene 1 6 21 0.566895 0 25 0.566895 1
gene 1 7 21 1.35015 0 26 1.35015 1
gene 1 8 21 0.874447 0 27 0.874447 1
gene 1 9 21 -0.0817583 0 28 -0.0817583 1
gene 1 10 21 0.175654 0 29 0.175654 1
gene 1 11 21 -0.279874 0 30 -0.279874 0
gene 1 12 21 0.880773 0 31 0.880773 1
gene 1 13 21 0.364847 0 32 0.364847 1
gene 1 14 21 0.0202312 0 33 0.0202312 1
gene 1 15 21 -0.599944 0 34 -0.599944 1
gene 1 16 21 2.02123 0 35 2.02123 1
gene 1 17 21 0.477845 0 36 0.477845 1
gene 1 18 21 0.70833 0 37 0.70833 1
gene 1 19 21 -0.0187461 0 38 -0.0187461 1
gene 1 12 22 -1.83067 0 41 -1.83067 1
gene 1 22 21 0.803419 0 42 0.803419 1
gene 1 20 20 -0.40362 1 43 -0.40362 1
gene 1 12 26 0.440901 0 52 0.440901 1
gene 1 26 20 0.0905216 0 53 0.0905216 1
gene 1 11 27 -0.469369 0 54 -0.469369 1
gene 1 27 21 0.201383 0 55 0.201383 1
gene 1 1 22 -0.390004 0 59 -0.390004 1
gene 1 17 26 -0.204684 0 69 -0.204684 1
gene 1 14 39 0.140947 0 98 0.140947 1
gene 1 39 21 0.377692 0 99 0.377692 1
gene 1 15 46 -1.25974 0 125 -1.25974 1
gene 1 46 21 1.62854 0 126 1.62854 1
gene 1 8 39 -0.419699 0 145 -0.419699 1
gene 1 16 51 0.350903 0 165 0.350903 1
gene 1 51 21 1.13467 0 166 1.13467 1
gene 1 14 26 -0.213453 0 180 -0.213453 1
gene 1 7 46 0.424071 0 184 0.424071 1
gene 1 1 46 -2.15724 0 191 -2.15724 1
gene 1 10 27 0.0384417 0 236 0.0384417 0
gene 1 10 65 -2.97913 0 240 -2.97913 1
gene 1 65 27 0.686052 0 241 0.686052 1
gene 1 9 69 0.0646636 0 251 0.0646636 1
gene 1 69 21 0.873982 0 252 0.873982 1
gene 1 19 26 -2.98615 0 288 -2.98615 1
gene 1 26 22 -0.589032 0 294 -0.589032 1
gene 1 16 39 2.14066 0 296 2.14066 1
gene 1 14 75 -0.866756 0 305 -0.866756 1
gene 1 75 21 0.38405 0 306 0.38405 1
gene 1 3 76 -2.64949 0 307 -2.64949 1
gene 1 76 20 0.283191 0 308 0.283191 1
gene 1 2 46 -0.0877644 0 319 -0.0877644 1
gene 1 20 51 0.409651 0 332 0.409651 1
gene 1 18 27 1.14643 0 338 1.14643 1
gene 1 13 22 -2.31978 0 346 -2.31978 1
gene 1 8 85 1.06924 0 348 1.06924 1
gene 1 85 20 -0.677151 0 349 -0.677151 1
gene 1 9 86 1.14272 0 354 1.14272 1
gene 1 86 69 0.266956 0 355 0.266956 1
gene 1 19 46 -0.578886 0 408 -0.578886 1
gene 1 69 51 -1.13825 0 423 -1.13825 1
gene 1 75 20 0.94494 0 424 0.94494 1
gene 1 46 22 0.252099 0 430 0.252099 1
gene 1 3 27 -0.689091 0 439 -0.689091 1
gene 1 69 26 -0.580598 0 441 -0.580598 1
gene 1 18 46 0.545831 0 446 0.545831 1
gene 1 26 26 -0.0776945 1 475 -0.0776945 1
gene 1 18 114 0.0937401 0 479 0.0937401 1
gene 1 114 46 0.14442 0 480 0.14442 1
gene 1 26 116 1.66505 0 486 1.66505 1
gene 1 116 22 -0.53655 0 487 -0.53655 1
gene 1 16 117 0.292569 0 542 0.292569 1
gene 1 117 39 -0.735922 0 543 -0.735922 1
gene 1 6 123 0.464239 0 560 0.464239 1
gene 1 123 20 -0.344665 0 561 -0.344665 0
gene 1 17 125 -0.327624 0 568 -0.327624 0
gene 1 125 26 0.501688 0 569 0.501688 1
gene 1 3 132 0.460716 0 593 0.460716 1
gene 1 132 27 0.188907 0 594 0.188907 1
gene 1 46 39 -0.307898 0 600 -0.307898 1
gene 1 13 134 -0.310204 0 603 -0.310204 1
gene 1 134 20 -0.44608 0 604 -0.44608 1
gene 1 3 85 1.21415 0 629 1.21415 1
gene 1 17 138 -0.055722 0 632 -0.055722 1
gene 1 138 125 0.45677 0 633 0.45677 0
gene 1 76 26 -0.613783 0 689 -0.613783 1
gene 1 2 138 -0.464518 0 710 -0.464518 1
gene 1 117 117 0.723161 1 712 0.723161 0
gene 1 14 161 1.45375 0 718 1.45375 1
gene 1 161 20 0.181507 0 719 0.181507 1
gene 1 86 46 -0.179851 0 735 -0.179851 0
gene 1 138 164 -0.15498 0 738 -0.15498 1
gene 1 164 125 0.490688 0 739 0.490688 1
gene 1 1 27 0.462476 0 802 0.462476 1
gene 1 16 76 0.869743 0 855 0.869743 1
gene 1 7 39 -0.0365728 0 862 -0.0365728 1
gene 1 125 132 0.310416 0 875 0.310416 1
gene 1 114 26 0.464588 0 878 0.464588 1
gene 1 10 200 0.270372 0 929 -0.229628 1
gene 1 200 27 0.0440579 0 930 0 1
gene 1 123 204 1.33881 0 940 0.838808 1
gene 1 204 20 -0.103399 0 941 0 1
gene 1 117 205 0.852098 1 943 0.852098 1
gene 1 205 117 -0.0666249 0 944 -0.120862 1
gene 1 69 69 -0.147526 1 947 -0.147526 1
gene 1 16 206 1 0 948 0 1
gene 1 206 39 0.574388 0 949 0 1
gene 1 86 218 1 0 990 0 1
gene 1 218 46 -0.0539554 0 991 0 1
gene 1 17 117 0.0985684 0 992 0.0985684 1
gene 1 114 69 -0.64587 0 1000 -0.64587 1
gene 1 117 114 -0.639042 0 1001 -0.639042 1
genomeend 1734
genomestart 1742
trait 1 0.293298 0.788836 0.847619 0.166173 0.396542 0.454265 0.560332 0.552056 
node 1 1 1 1 0
node 2 1 1 1 0
node 3 1 1 1 0
node 4 1 1 1 0
node 5 1 1 1 0
node 6 1 1 1 0
node 7 1 1 1 0
node 8 1 1 1 0
node 9 1 1 1 0
node 10 1 1 1 0
node 11 1 1 1 0
node 12 1 1 1 0
node 13 1 1 1 0
node 14 1 1 1 0
node 15 1 1 1 0
node 16 1 1 1 0
node 17 1 1 1 0
node 18 1 1 1 0
node 19 1 1 3 0
node 20 1 0 2 0
node 21 1 0 2 0
node 22 1 0 0 0
node 26 1 0 0 0
node 27 1 0 0 0
node 39 1 0 0 0
node 46 1 0 0 0
node 51 1 0 0 0
node 65 1 0 0 0
node 69 1 0 0 0
node 75 1 0 0 0
node 76 1 0 0 0
node 85 1 0 0 0
node 86 1 0 0 0
node 114 1 0 0 0
node 116 1 0 0 0
node 117 1 0 0 0
node 123 1 0 0 0
node 125 1 0 0 0
node 132 1 0 0 0
node 134 1 0 0 0
node 138 1 0 0 0
node 161 1 0 0 0
node 164 1 0 0 0
node 200 1 0 0 0
node 204 1 0 0 0
node 205 1 0 0 0
node 206 1 0 0 0
node 218 1 0 0 0
gene 1 1 20 0.908135 0 1 0.908135 1
gene 1 2 20 0.806567 0 2 0.806567 1
gene 1 3 20 -0.0961148 0 3 -0.0961148 1
gene 1 4 20 2.75687 0 4 2.75687 1
gene 1 5 20 2.46181 0 5 2.46181 1
gene 1 6 20 0.111049 0 6 0.111049 1
gene 1 7 20 0.657497 0 7 0.657497 1
gene 1 8 20 0.205428 0 8 0.205428 1
gene 1 9 20 -1.11342 0 9 -1.11342 1
gene 1 10 20 -0.0924178 0 10 -0.0924178 1
gene 1 11 20 -0.784685 0 11 -0.784685 1
gene 1 12 20 0.652188 0 12 0.652188 1
gene 1 13 20 0.263592 0 13 0.263592 0
gene 1 14 20 -0.600544 0 14 -0.600544 0
gene 1 15 20 0.689274 0 15 0.689274 1
gene 1 16 20 0.57605 0 16 0.57605 1
gene 1 17 20 -2.55986 0 17 -2.55986 1
gene 1 18 20 2.45183 0 18 2.45183 1
gene 1 19 20 -0.145956 0 19 -0.145956 1
gene 1 1 21 0.701421 0 20 0.701421 1
gene 1 2 21 -0.240895 0 21 -0.240895 1
gene 1 3 21 -0.608295 0 22 -0.608295 1
gene 1 4 21 -1.18373 0 23 -1.18373 1
gene 1 5 21 -0.815119 0 24 -0.815119 1
gene 1 6 21 0.566895 0 25 0.566895 1
gene 1 7 21 1.04836 0 26 1.04836 1
gene 1 8 21 0.84823 0 27 0.84823 1
gene 1 9 21 0.297343 0 28 0.297343 1
gene 1 10 21 0.236124 0 29 0.236124 1
gene 1 11 21 -0.546654 0 30 -0.546654 0
gene 1 12 21 0.977577 0 31 0.977577 1
gene 1 13 21 0.00393876 0 32 0.00393876 1
gene 1 14 21 0.122488 0 33 0.122488 1
gene 1 15 21 -0.599944 0 34 -0.599944 1
gene 1 16 21 2.02123 0 35 2.02123 1
gene 1 17 21 0.477845 0 36 0.477845 1
gene 1 18 21 0.70833 0 37 0.70833 1
gene 1 19 21 -0.0187461 0 38 -0.0187461 1
gene 1 12 22 -1.57227 0 41 -1.57227 1
gene 1 22 21 0.803419 0 42 0.803419 1
gene 1 20 20 -0.40362 1 43 -0.40362 1
gene 1 12 26 0.247139 0 52 0.247139 1
gene 1 26 20 -0.414377 0 53 -0.414377 1
gene 1 11 27 -0.841215 0 54 -0.841215 1
gene 1 27 21 0.201383 0 55 0.201383 1
gene 1 1 22 -0.220954 0 59 -0.220954 1
gene 1 17 26 -0.204684 0 69 -0.204684 1
gene 1 14 39 0.140947 0 98 0.140947 1
gene 1 39 21 0.269201 0 99 0.269201 1
gene 1 15 46 -1.25974 0 125 -1.25974 1
gene 1 46 21 1.42708 0 126 1.42708 1
gene 1 8 39 -0.419699 0 145 -0.419699 1
gene 1 16 51 0.00121456 0 165 0.00121456 1
gene 1 51 21 1.13467 0 166 1.13467 1
gene 1 14 26 -0.140053 0 180 -0.140053 1
gene 1 7 46 0.424071 0 184 0.424071 1
gene 1 1 46 -2.15724 0 191 -2.15724 1
gene 1 10 27 0.157375 0 236 0.157375 0
gene 1 10 65 -2.34503 0 240 -2.34503 1
gene 1 65 27 0.45507 0 241 0.45507 1
gene 1 9 69 -0.455417 0 251 -0.455417 1
gene 1 69 21 0.604978 0 252 0.604978 1
gene 1 19 26 -2.98615 0 288 -2.98615 1
gene 1 26 22 -0.502952 0 294 -0.502952 1
gene 1 16 39 1.99316 0 296 1.99316 1
gene 1 14 75 -1.00344 0 305 -1.00344 1
gene 1 75 21 0.0137486 0 306 0.0137486 1
gene 1 3 76 -2.46796 0 307 -2.46796 1
gene 1 76 20 0.283191 0 308 0.283191 1
gene 1 2 46 -0.0877644 0 319 -0.0877644 1
gene 1 20 51 0.392309 0 332 0.392309 1
gene 1 18 27 1.14643 0 338 1.14643 1
gene 1 13 22 -1.86452 0 346 -1.86452 1
gene 1 8 85 1.06924 0 348 1.06924 1
gene 1 85 20 -0.677151 0 349 -0.677151 1
gene 1 9 86 1.35408 0 354 1.35408 1
gene 1 86 69 0.266956 0 355 0.266956 1
gene 1 19 46 -0.470838 0 408 -0.470838 1
gene 1 69 51 -1.42403 0 423 -1.42403 1
gene 1 75 20 0.94494 0 424 0.94494 1
gene 1 46 22 0.252099 0 430 0.252099 1
gene 1 3 27 -0.689091 0 439 -0.689091 1
gene 1 69 26 -1.06328 0 441 -1.06328 1
gene 1 18 46 0.545831 0 446 0.545831 1
gene 1 26 26 0.165442 1 475 0.165442 1
gene 1 18 114 0.0937401 0 479 0.0937401 1
gene 1 114 46 0.14442 0 480 0.14442 1
gene 1 26 116 1.48228 0 486 1.48228 1
gene 1 116 22 -0.787811 0 487 -0.787811 1
gene 1 16 117 0.292569 0 542 0.292569 1
gene 1 117 39 -0.598905 0 543 -0.598905 1
gene 1 6 123 0.540145 0 560 0.540145 1
gene 1 123 20 -0.161979 0 561 -0.161979 0
gene 1 17 125 -0.327624 0 568 -0.327624 0
gene 1 125 26 0.501688 0 569 0.501688 1
gene 1 3 132 -0.315609 0 593 -0.315609 1
gene 1 132 27 0.188907 0 594 0.188907 1
gene 1 46 39 -0.22832 0 600 -0.22832 1
gene 1 13 134 -0.310204 0 603 -0.310204 1
gene 1 134 20 -0.44608 0 604 -0.44608 1
gene 1 3 85 1.21415 0 629 1.21415 1
gene 1 17 138 -0.0335031 0 632 -0.0335031 1
gene 1 138 125 0.45677 0 633 0.45677 0
gene 1 76 26 -0.613783 0 689 -0.613783 1
gene 1 2 138 -0.464518 0 710 -0.464518 1
gene 1 117 117 0.708439 1 712 0.708439 0
gene 1 14 161 1.45375 0 718 1.45375 1
gene 1 161 20 0.181507 0 719 0.181507 1
gene 1 86 46 -0.179851 0 735 -0.179851 0
gene 1 138 164 -0.15498 0 738 -0.15498 1
gene 1 164 125 0.399987 0 739 0.399987 1
gene 1 1 27 0.762248 0 802 0.762248 1
gene 1 16 76 0.869743 0 855 0.869743 1
gene 1 7 39 -0.0365728 0 862 -0.0365728 1
gene 1 125 132 0.310416 0 875 0.310416 1
gene 1 114 26 0.560361 0 878 0.560361 1
gene 1 10 200 0.270372 0 929 -0.229628 1
gene 1 200 27 0.194782 0 930 0.172753 1
gene 1 123 204 1 0 940 0 1
gene 1 204 20 -0.103399 0 941 0 1
gene 1 117 205 0.852098 1 943 0.852098 1
gene 1 205 117 -0.0666249 0 944 -0.120862 1
gene 1 69 69 -0.147526 1 947 -0.147526 1
gene 1 16 206 1 0 948 0 1
gene 1 206 39 0.574388 0 949 0 1
gene 1 86 218 1 0 990 0 1
gene 1 218 46 -0.0539554 0 991 0 1
gene 1 17 117 0.0985684 0 992 0.0985684 1
gene 1 114 69 -0.64587 0 1000 -0.64587 1
gene 1 117 114 -0.639042 0 1001 -0.639042 1
gene 1 132 132 0.00385302 1 1016 0.00385302 1
genomeend 1742
genomestart 1744
trait 1 0.44693 0.788836 0.869738 0.230923 0.320561 0.454265 0.834502 0.684191 
node 1 1 1 1 0
node 2 1 1 1 0
node 3 1 1 1 0
node 4 1 1 1 0
node 5 1 1 1 0
node 6 1 1 1 0
node 7 1 1 1 0
node 8 1 1 1 0
node 9 1 1 1 0
node 10 1 1 1 0
node 11 1 1 1 0
node 12 1 1 1 0
node 13 1 1 1 0
node 14 1 1 1 0
node 15 1 1 1 0
node 16 1 1 1 0
node 17 1 1 1 0
node 18 1 1 1 0
node 19 1 1 3 0
node 20 1 0 2 0
node 21 1 0 2 0
node 22 1 0 0 0
node 26 1 0 0 0
node 27 1 0 0 0
node 39 1 0 0 0
node 46 1 0 0 0
node 51 1 0 0 0
node 65 1 0 0 0
node 69 1 0 0 0
node 75 1 0 0 0
node 76 1 0 0 0
node 85 1 0 0 0
node 86 1 0 0 0
node 114 1 0 0 0
node 116 1 0 0 0
node 117 1 0 0 0
node 123 1 0 0 0
node 125 1 0 0 0
node 132 1 0 0 0
node 134 1 0 0 0
node 138 1 0 0 0
node 161 1 0 0 0
node 164 1 0 0 0
node 200 1 0 0 0
node 204 1 0 0 0
node 205 1 0 0 0
node 208 1 0 0 0
node 212 1 0 0 0
node 218 1 0 0 0
node 224 1 0 0 0
gene 1 1 20 0.840799 0 1 0.840799 1
gene 1 2 20 0.786566 0 2 0.786566 1
gene 1 3 20 0.253465 0 3 0.253465 1
gene 1 4 20 2.98502 0 4 2.98502 1
gene 1 5 20 2.84035 0 5 2.84035 0
gene 1 6 20 0.218838 0 6 0.218838 1
gene 1 7 20 -0.051184 0 7 -0.051184 1
gene 1 8 20 -0.22914 0 8 -0.22914 1
gene 1 9 20 -1.69259 0 9 -1.69259 1
gene 1 10 20 0.240366 0 10 0.240366 1
gene 1 11 20 -0.997218 0 11 -0.997218 1
gene 1 12 20 0.95288 0 12 0.95288 1
gene 1 13 20 0.49408 0 13 0.49408 0
gene 1 14 20 -0.542954 0 14 -0.542954 0
gene 1 15 20 0.558067 0 15 0.558067 1
gene 1 16 20 0.585137 0 16 0.585137 1
gene 1 17 20 -2.70761 0 17 -2.70761 1
gene 1 18 20 1.87981 0 18 1.87981 1
gene 1 19 20 -0.150934 0 19 -0.150934 1
gene 1 1 21 1.12792 0 20 1.12792 1
gene 1 2 21 -0.902726 0 21 -0.902726 1
gene 1 3 21 -0.38907 0 22 -0.38907 1
gene 1 4 21 -1.00776 0 23 -1.00776 1
gene 1 5 21 -1.25705 0 24 -1.25705 1
gene 1 6 21 0.0973756 0 25 0.0973756 1
gene 1 7 21 0.291414 0 26 0.291414 1
gene 1 8 21 0.451824 0 27 0.451824 1
gene 1 9 21 0.662793 0 28 0.662793 1
gene 1 10 21 -0.223302 0 29 -0.223302 1
gene 1 11 21 0.123821 0 30 0.123821 0
gene 1 12 21 0.840698 0 31 0.840698 1
gene 1 13 21 -0.0132096 0 32 -0.0132096 1
gene 1 14 21 0.26892 0 33 0.26892 1
gene 1 15 21 -0.612862 0 34 -0.612862 1
gene 1 16 21 1.44467 0 35 1.44467 1
gene 1 17 21 0.499459 0 36 0.499459 1
gene 1 18 21 1.04161 0 37 1.04161 1
gene 1 19 21 -0.792241 0 38 -0.792241 1
gene 1 12 22 -1.28005 0 41 -1.28005 1
gene 1 22 21 0.497765 0 42 0.497765 1
gene 1 20 20 0.251389 1 43 0.251389 1
gene 1 12 26 -0.0968998 0 52 -0.0968998 1
gene 1 26 20 -0.162723 0 53 -0.162723 1
gene 1 11 27 -0.39022 0 54 -0.39022 1
gene 1 27 21 -0.105271 0 55 -0.105271 1
gene 1 1 22 -0.229785 0 59 -0.229785 1
gene 1 17 26 -0.0486103 0 69 -0.0486103 1
gene 1 14 39 0.776647 0 98 0.776647 1
gene 1 39 21 0.62278 0 99 0.62278 1
gene 1 15 46 -1.20142 0 125 -1.20142 1
gene 1 46 21 0.796008 0 126 0.796008 1
gene 1 8 39 -0.272112 0 145 -0.272112 1
gene 1 16 51 0.101018 0 165 0.101018 1
gene 1 51 21 0.780692 0 166 0.780692 1
gene 1 14 26 0.272045 0 180 0.272045 1
gene 1 7 46 1.05209 0 184 1.05209 1
gene 1 1 46 -1.69882 0 191 -1.69882 1
gene 1 10 27 -0.292801 0 236 -0.292801 0
gene 1 10 65 -1.98508 0 240 -1.98508 1
gene 1 65 27 0.577112 0 241 0.577112 1
gene 1 9 69 -0.737193 0 251 -0.737193 1
gene 1 69 21 1.07058 0 252 1.07058 1
gene 1 19 26 -3 0 288 -3 1
gene 1 26 22 -1.02744 0 294 -1.02744 1
gene 1 16 39 1.65624 0 296 1.65624 1
gene 1 14 75 -0.917114 0 305 -0.917114 1
gene 1 75 21 -0.215946 0 306 -0.215946 1
gene 1 3 76 -2.01738 0 307 -2.01738 1
gene 1 76 20 0.994504 0 308 0.994504 1
gene 1 2 46 0.259338 0 319 0.259338 1
gene 1 20 51 -0.343274 0 332 -0.343274 1
gene 1 18 27 0.467857 0 338 0.467857 1
gene 1 13 22 -1.59447 0 346 -1.59447 1
gene 1 8 85 0.851605 0 348 0.851605 1
gene 1 85 20 -1.40042 0 349 -1.40042 1
gene 1 9 86 1.4614 0 354 1.4614 1
gene 1 86 69 0.644758 0 355 0.644758 1
gene 1 19 46 -0.690507 0 408 -0.690507 1
gene 1 69 51 -0.96142 0 423 -0.96142 0
gene 1 75 20 0.868683 0 424 0.868683 1
gene 1 46 22 0.553923 0 430 0.553923 1
gene 1 3 27 -0.84686 0 439 -0.84686 1
gene 1 69 26 -0.494564 0 441 -0.494564 1
gene 1 18 46 1.02551 0 446 1.02551 1
gene 1 26 26 0.243745 1 475 0.243745 1
gene 1 18 114 0.273386 0 479 0.273386 1
gene 1 114 46 -0.135503 0 480 -0.135503 1
gene 1 26 116 1.53983 0 486 1.53983 1
gene 1 116 22 -0.199842 0 487 -0.199842 1
gene 1 16 117 0.311667 0 542 0.311667 1
gene 1 117 39 -1.06284 0 543 -1.06284 1
gene 1 6 123 0.464433 0 560 0.464433 1
gene 1 123 20 -0.825168 0 561 -0.825168 0
gene 1 17 125 -0.73277 0 568 -0.73277 0
gene 1 125 26 0.386698 0 569 0.386698 1
gene 1 3 132 -0.11322 0 593 -0.11322 1
gene 1 132 27 -0.147959 0 594 -0.147959 1
gene 1 46 39 -0.425348 0 600 -0.425348 1
gene 1 13 134 -0.310383 0 603 -0.310383 1
gene 1 134 20 -0.842727 0 604 -0.842727 1
gene 1 3 85 1.22152 0 629 1.22152 1
gene 1 17 138 -0.0843983 0 632 -0.0843983 1
gene 1 138 125 0.418924 0 633 0.418924 0
gene 1 76 26 -0.800005 0 689 -0.800005 1
gene 1 2 138 -0.955548 0 710 -0.955548 1
gene 1 117 117 0.198476 1 712 0.198476 1
gene 1 14 161 -0.50485 0 718 -0.50485 1
gene 1 161 20 0.563446 0 719 0.563446 1
gene 1 86 46 -0.104402 0 735 -0.104402 0
gene 1 138 164 0.236713 0 738 0.236713 1
gene 1 164 125 -0.334475 0 739 -0.334475 1
gene 1 1 27 0.296028 0 802 0.296028 1
gene 1 16 76 0.869743 0 855 0.869743 1
gene 1 7 39 0.267799 0 862 0.267799 1
gene 1 125 132 0.65752 0 875 0.65752 1
gene 1 114 26 -0.528724 0 878 -0.528724 1
gene 1 76 21 0.00469426 0 925 0.00469426 1
gene 1 10 200 1 0 929 1 1
gene 1 200 27 0.268608 0 930 0.268608 1
gene 1 123 204 0.582087 0 940 0.582087 1
gene 1 204 20 0.0606018 0 941 0.0606018 1
gene 1 117 205 -0.0892822 1 943 -0.0892822 1
gene 1 205 117 0.216948 0 944 0.216948 1
gene 1 69 69 -0.451431 1 947 -0.451431 1
gene 1 69 208 1 0 954 1 1
gene 1 208 51 -0.355803 0 955 -0.355803 1
gene 1 14 76 -0.408439 0 960 -0.408439 1
gene 1 3 212 0.221496 0 970 0.221496 1
gene 1 212 85 -0.160774 0 971 -0.160774 1
gene 1 86 218 0.000131453 0 990 0.000131453 1
gene 1 218 46 -0.253351 0 991 -0.253351 1
gene 1 5 224 -0.253945 0 1011 -0.253945 1
gene 1 224 20 0.341405 0 1012 0.341405 1
genomeend 1744
genomestart 1788
trait 1 0.44693 0.788836 0.842703 0.151784 0.387093 0.454265 0.834502 0.684191 
node 1 1 1 1 0
node 2 1 1 1 0
node 3 1 1 1 0
node 4 1 1 1 0
node 5 1 1 1 0
node 6 1 1 1 0
node 7 1 1 1 0
node 8 1 1 1 0
node 9 1 1 1 0
node 10 1 1 1 0
node 11 1 1 1 0
node 12 1 1 1 0
node 13 1 1 1 0
node 14 1 1 1 0
node 15 1 1 1 0
node 16 1 1 1 0
node 17 1 1 1 0
node 18 1 1 1 0
node 19 1 1 3 0
node 20 1 0 2 0
node 21 1 0 2 0
node 22 1 0 0 0
node 26 1 0 0 0
node 27 1 0 0 0
node 39 1 0 0 0
node 46 1 0 0 0
node 51 1 0 0 0
node 65 1 0 0 0
node 69 1 0 0 0
node 75 1 0 0 0
node 76 1 0 0 0
node 85 1 0 0 0
node 86 1 0 0 0
node 114 1 0 0 0
node 116 1 0 0 0
node 117 1 0 0 0
node 123 1 0 0 0
node 125 1 0 0 0
node 132 1 0 0 0
node 134 1 0 0 0
node 138 1 0 0 0
node 161 1 0 0 0
node 164 1 0 0 0
node 200 1 0 0 0
node 204 1 0 0 0
gene 1 1 20 0.530278 0 1 0.530278 1
gene 1 2 20 0.808438 0 2 0.808438 1
gene 1 3 20 -0.0961148 0 3 -0.0961148 1
gene 1 4 20 2.75687 0 4 2.75687 1
gene 1 5 20 2.46181 0 5 2.46181 1
gene 1 6 20 0.111049 0 6 0.111049 1
gene 1 7 20 0.324762 0 7 0.324762 1
gene 1 8 20 0.205428 0 8 0.205428 1
gene 1 9 20 -1.11342 0 9 -1.11342 1
gene 1 10 20 -0.0924178 0 10 -0.0924178 1
gene 1 11 20 -0.784685 0 11 -0.784685 1
gene 1 12 20 0.652188 0 12 0.652188 1
gene 1 13 20 0.263592 0 13 0.263592 0
gene 1 14 20 -0.600544 0 14 -0.600544 0
gene 1 15 20 0.689274 0 15 0.689274 1
gene 1 16 20 0.57605 0 16 0.57605 1
gene 1 17 20 -2.55986 0 17 -2.55986 1
gene 1 18 20 2.45183 0 18 2.45183 1
gene 1 19 20 -0.145956 0 19 -0.145956 1
gene 1 1 21 0.619405 0 20 0.619405 1
gene 1 2 21 -0.235273 0 21 -0.235273 1
gene 1 3 21 -0.608295 0 22 -0.608295 1
gene 1 4 21 -1.18373 0 23 -1.18373 1
gene 1 5 21 -0.927022 0 24 -0.927022 1
gene 1 6 21 0.45159 0 25 0.45159 1
gene 1 7 21 1.04836 0 26 1.04836 1
gene 1 8 21 0.84823 0 27 0.84823 1
gene 1 9 21 0.297343 0 28 0.297343 1
gene 1 10 21 0.236124 0 29 0.236124 1
gene 1 11 21 -0.279874 0 30 -0.279874 0
gene 1 12 21 0.977577 0 31 0.977577 1
gene 1 13 21 0.00393876 0 32 0.00393876 1
gene 1 14 21 0.122488 0 33 0.122488 1
gene 1 15 21 -0.389699 0 34 -0.389699 1
gene 1 16 21 1.68717 0 35 1.68717 1
gene 1 17 21 0.19252 0 36 0.19252 1
gene 1 18 21 0.722754 0 37 0.722754 1
gene 1 19 21 -0.0764956 0 38 -0.0764956 1
gene 1 12 22 -1.57227 0 41 -1.57227 1
gene 1 22 21 0.803419 0 42 0.803419 1
gene 1 20 20 -0.0137805 1 43 -0.0137805 1
gene 1 12 26 0.247139 0 52 0.247139 1
gene 1 26 20 0.0905216 0 53 0.0905216 1
gene 1 11 27 -0.469369 0 54 -0.469369 1
gene 1 27 21 0.201383 0 55 0.201383 1
gene 1 1 22 -0.220954 0 59 -0.220954 1
gene 1 17 26 -0.204684 0 69 -0.204684 1
gene 1 14 39 0.224723 0 98 0.224723 1
gene 1 39 21 0.269201 0 99 0.269201 1
gene 1 15 46 -0.851366 0 125 -0.851366 1
gene 1 46 21 1.42708 0 126 1.42708 1
gene 1 8 39 -0.404341 0 145 -0.404341 1
gene 1 16 51 0.350903 0 165 0.350903 1
gene 1 51 21 0.64915 0 166 0.64915 1
gene 1 14 26 -0.140053 0 180 -0.140053 1
gene 1 7 46 0.532142 0 184 0.532142 1
gene 1 1 46 -2.15724 0 191 -2.15724 1
gene 1 10 27 0.157375 0 236 0.157375 0
gene 1 10 65 -2.34503 0 240 -2.34503 1
gene 1 65 27 0.45507 0 241 0.45507 1
gene 1 9 69 -0.455417 0 251 -0.455417 1
gene 1 69 21 0.873982 0 252 0.873982 1
gene 1 19 26 -3 0 288 -3 1
gene 1 26 22 -0.502952 0 294 -0.502952 1
gene 1 16 39 1.99316 0 296 1.99316 1
gene 1 14 75 -1.00344 0 305 -1.00344 1
gene 1 75 21 0.0137486 0 306 0.0137486 1
gene 1 3 76 -2.46796 0 307 -2.46796 1
gene 1 76 20 0.337226 0 308 0.337226 1
gene 1 2 46 -0.0877644 0 319 -0.0877644 1
gene 1 20 51 0.392309 0 332 0.392309 1
gene 1 18 27 0.965363 0 338 0.965363 1
gene 1 13 22 -1.86452 0 346 -1.86452 1
gene 1 8 85 1.20148 0 348 1.20148 1
gene 1 85 20 -0.677151 0 349 -0.677151 1
gene 1 9 86 1.35408 0 354 1.35408 1
gene 1 86 69 0.266956 0 355 0.266956 1
gene 1 19 46 -0.578886 0 408 -0.578886 1
gene 1 69 51 -1.42403 0 423 -1.42403 1
gene 1 75 20 0.635564 0 424 0.635564 1
gene 1 46 22 0.114343 0 430 0.114343 1
gene 1 3 27 -0.354712 0 439 -0.354712 1
gene 1 69 26 -0.580598 0 441 -0.580598 1
gene 1 18 46 1.04418 0 446 1.04418 1
gene 1 26 26 0.165442 1 475 0.165442 1
gene 1 18 114 -0.169734 0 479 -0.169734 1
gene 1 114 46 0.14442 0 480 0.14442 1
gene 1 26 116 1.66505 0 486 1.66505 1
gene 1 116 22 -0.787811 0 487 -0.787811 1
gene 1 16 117 0.30212 0 542 0.30212 1
gene 1 117 39 -0.598905 0 543 -0.598905 1
gene 1 6 123 0.464239 0 560 0.464239 1
gene 1 123 20 -0.344665 0 561 -0.344665 0
gene 1 17 125 -0.327624 0 568 -0.327624 0
gene 1 125 26 0.541673 0 569 0.541673 1
gene 1 3 132 -0.315609 0 593 -0.315609 1
gene 1 132 27 0.188907 0 594 0.188907 1
gene 1 46 39 -0.22832 0 600 -0.22832 1
gene 1 13 134 -0.310204 0 603 -0.310204 1
gene 1 134 20 -0.407159 0 604 -0.407159 1
gene 1 3 85 0.787937 0 629 0.787937 1
gene 1 17 138 -0.055722 0 632 -0.055722 1
gene 1 138 125 -0.0422581 0 633 -0.0422581 0
gene 1 76 26 -0.38266 0 689 -0.38266 1
gene 1 2 138 -0.634897 0 710 -0.634897 1
gene 1 117 117 0.708439 1 712 0.708439 1
gene 1 14 161 1.45375 0 718 1.45375 1
gene 1 161 20 0.45636 0 719 0.45636 1
gene 1 86 46 -0.0997303 0 735 -0.0997303 1
gene 1 138 164 -0.0384053 0 738 -0.0384053 1
gene 1 164 125 0.399987 0 739 0.399987 1
gene 1 1 27 0.762248 0 802 0.762248 1
gene 1 16 76 0.869743 0 855 0.869743 1
gene 1 7 39 -0.0365728 0 862 -0.0365728 1
gene 1 125 132 0.579745 0 875 0.579745 1
gene 1 114 26 0.560361 0 878 0.560361 1
gene 1 10 200 1 0 929 0 1
gene 1 200 27 0.0440579 0 930 0 1
gene 1 123 204 1 0 940 0 1
gene 1 204 20 -0.103399 0 941 0 1
gene 1 69 69 -0.552659 1 947 -0.552659 1
gene 1 132 132 0.00385302 1 1016 0.00385302 1
gene 1 22 164 -0.473705 1 1026 -0.473705 1
genomeend 1788
genomestart 1790
trait 1 0.44693 0.788836 0.842703 0.151784 0.387093 0.454265 0.834502 0.684191 
node 1 1 1 1 0
node 2 1 1 1 0
node 3 1 1 1 0
node 4 1 1 1 0
node 5 1 1 1 0
node 6 1 1 1 0
node 7 1 1 1 0
node 8 1 1 1 0
node 9 1 1 1 0
node 10 1 1 1 0
node 11 1 1 1 0
node 12 1 1 1 0
node 13 1 1 1 0
node 14 1 1 1 0
node 15 1 1 1 0
node 16 1 1 1 0
node 17 1 1 1 0
node 18 1 1 1 0
node 19 1 1 3 0
node 20 1 0 2 0
node 21 1 0 2 0
node 22 1 0 0 0
node 26 1 0 0 0
node 27 1 0 0 0
node 39 1 0 0 0
node 46 1 0 0 0
node 51 1 0 0 0
node 65 1 0 0 0
node 69 1 0 0 0
node 75 1 0 0 0
node 76 1 0 0 0
node 85 1 0 0 0
node 86 1 0 0 0
node 114 1 0 0 0
node 116 1 0 0 0
node 117 1 0 0 0
node 123 1 0 0 0
node 125 1 0 0 0
node 132 1 0 0 0
node 134 1 0 0 0
node 138 1 0 0 0
node 161 1 0 0 0
node 164 1 0 0 0
node 200 1 0 0 0
node 204 1 0 0 0
gene 1 1 20 0.530278 0 1 0.530278 1
gene 1 2 20 0.808438 0 2 0.808438 1
gene 1 3 20 -0.0961148 0 3 -0.0961148 1
gene 1 4 20 2.75687 0 4 2.75687 1
gene 1 5 20 2.46181 0 5 2.46181 1
gene 1 6 20 0.111049 0 6 0.111049 1
gene 1 7 20 0.324762 0 7 0.324762 1
gene 1 8 20 0.205428 0 8 0.205428 1
gene 1 9 20 -1.11342 0 9 -1.11342 1
gene 1 10 20 -0.0924178 0 10 -0.0924178 1
gene 1 11 20 -0.784685 0 11 -0.784685 1
gene 1 12 20 0.652188 0 12 0.652188 1
gene 1 13 20 0.263592 0 13 0.263592 0
gene 1 14 20 -0.600544 0 14 -0.600544 0
gene 1 15 20 0.689274 0 15 0.689274 1
gene 1 16 20 0.57605 0 16 0.57605 1
gene 1 17 20 -2.55986 0 17 -2.55986 1
gene 1 18 20 2.45183 0 18 2.45183 1
gene 1 19 20 -0.145956 0 19 -0.145956 1
gene 1 1 21 0.619405 0 20 0.619405 1
gene 1 2 21 -0.235273 0 21 -0.235273 1
gene 1 3 21 -0.608295 0 22 -0.608295 1
gene 1 4 21 -1.18373 0 23 -1.18373 1
gene 1 5 21 -0.927022 0 24 -0.927022 1
gene 1 6 21 0.45159 0 25 0.45159 1
gene 1 7 21 1.04836 0 26 1.04836 1
gene 1 8 21 0.84823 0 27 0.84823 1
gene 1 9 21 0.297343 0 28 0.297343 1
gene 1 10 21 0.236124 0 29 0.236124 1
gene 1 11 21 -0.279874 0 30 -0.279874 0
gene 1 12 21 0.977577 0 31 0.977577 1
gene 1 13 21 0.00393876 0 32 0.00393876 1
gene 1 14 21 0.122488 0 33 0.122488 1
gene 1 15 21 -0.389699 0 34 -0.389699 1
gene 1 16 21 1.68717 0 35 1.68717 1
gene 1 17 21 0.19252 0 36 0.19252 1
gene 1 18 21 0.722754 0 37 0.722754 1
gene 1 19 21 -0.0764956 0 38 -0.0764956 1
gene 1 12 22 -1.57227 0 41 -1.57227 1
gene 1 22 21 0.803419 0 42 0.803419 1
gene 1 20 20 -0.0137805 1 43 -0.0137805 1
gene 1 12 26 0.247139 0 52 0.247139 1
gene 1 26 20 0.0905216 0 53 0.0905216 1
gene 1 11 27 -0.469369 0 54 -0.469369 1
gene 1 27 21 0.201383 0 55 0.201383 1
gene 1 1 22 -0.220954 0 59 -0.220954 1
gene 1 17 26 -0.204684 0 69 -0.204684 1
gene 1 14 39 0.224723 0 98 0.224723 1
gene 1 39 21 0.269201 0 99 0.269201 1
gene 1 15 46 -0.851366 0 125 -0.851366 1
gene 1 46 21 1.42708 0 126 1.42708 1
gene 1 8 39 -0.404341 0 145 -0.404341 1
gene 1 16 51 0.350903 0 165 0.350903 1
gene 1 51 21 0.64915 0 166 0.64915 1
gene 1 14 26 -0.140053 0 180 -0.140053 1
gene 1 7 46 0.532142 0 184 0.532142 1
gene 1 1 46 -2.15724 0 191 -2.15724 1
gene 1 10 27 0.157375 0 236 0.157375 0
gene 1 10 65 -2.34503 0 240 -2.34503 1
gene 1 65 27 0.45507 0 241 0.45507 1
gene 1 9 69 -0.455417 0 251 -0.455417 1
gene 1 69 21 0.873982 0 252 0.873982 1
gene 1 19 26 -3 0 288 -3 1
gene 1 26 22 -0.502952 0 294 -0.502952 1
gene 1 16 39 1.99316 0 296 1.99316 1
gene 1 14 75 -1.00344 0 305 -1.00344 1
gene 1 75 21 0.0137486 0 306 0.0137486 1
gene 1 3 76 -2.46796 0 307 -2.46796 1
gene 1 76 20 0.337226 0 308 0.337226 1
gene 1 2 46 -0.0877644 0 319 -0.0877644 1
gene 1 20 51 0.392309 0 332 0.392309 1
gene 1 18 27 0.965363 0 338 0.965363 1
gene 1 13 22 -1.86452 0 346 -1.86452 1
gene 1 8 85 1.20148 0 348 1.20148 1
gene 1 85 20 -0.677151 0 349 -0.677151 1
gene 1 9 86 1.35408 0 354 1.35408 1
gene 1 86 69 0.266956 0 355 0.266956 1
gene 1 19 46 -0.578886 0 408 -0.578886 1
gene 1 69 51 -1.42403 0 423 -1.42403 1
gene 1 75 20 0.635564 0 424 0.635564 1
gene 1 46 22 0.114343 0 430 0.114343 1
gene 1 3 27 -0.354712 0 439 -0.354712 1
gene 1 69 26 -0.580598 0 441 -0.580598 1
gene 1 18 46 1.04418 0 446 1.04418 1
gene 1 26 26 0.165442 1 475 0.165442 1
gene 1 18 114 -0.169734 0 479 -0.169734 1
gene 1 114 46 0.14442 0 480 0.14442 1
gene 1 26 116 1.66505 0 486 1.66505 1
gene 1 116 22 -0.787811 0 487 -0.787811 1
gene 1 16 117 0.30212 0 542 0.30212 1
gene 1 117 39 -0.598905 0 543 -0.598905 1
gene 1 6 123 0.464239 0 560 0.464239 1
gene 1 123 20 -0.344665 0 561 -0.344665 0
gene 1 17 125 -0.327624 0 568 -0.327624 0
gene 1 125 26 0.541673 0 569 0.541673 1
gene 1 3 132 -0.315609 0 593 -0.315609 1
gene 1 132 27 0.188907 0 594 0.188907 1
gene 1 46 39 -0.22832 0 600 -0.22832 1
gene 1 13 134 -0.310204 0 603 -0.310204 1
gene 1 134 20 -0.407159 0 604 -0.407159 1
gene 1 3 85 0.787937 0 629 0.787937 1
gene 1 17 138 -0.055722 0 632 -0.055722 1
gene 1 138 125 -0.0422581 0 633 -0.0422581 0
gene 1 76 26 -0.38266 0 689 -0.38266 1
gene 1 2 138 -0.634897 0 710 -0.634897 1
gene 1 117 117 0.708439 1 712 0.708439 1
gene 1 14 161 1.45375 0 718 1.45375 1
gene 1 161 20 0.45636 0 719 0.45636 1
gene 1 86 46 -0.0997303 0 735 -0.0997303 1
gene 1 138 164 -0.0384053 0 738 -0.0384053 1
gene 1 164 125 0.399987 0 739 0.399987 1
gene 1 1 27 0.762248 0 802 0.762248 1
gene 1 16 76 0.869743 0 855 0.869743 1
gene 1 7 39 -0.0365728 0 862 -0.0365728 1
gene 1 125 132 0.579745 0 875 0.579745 1
gene 1 114 26 0.560361 0 878 0.560361 1
gene 1 10 200 1 0 929 0 1
gene 1 200 27 0.0440579 0 930 0 1
gene 1 123 204 1 0 940 0 1
gene 1 204 20 -0.103399 0 941 0 1
gene 1 69 69 -0.552659 1 947 -0.552659 1
gene 1 132 132 0.00385302 1 1016 0.00385302 1
genomeend 1790
genomestart 1797
trait 1 0.223465 0.915848 0.701102 0.209339 0.768464 0.454265 0 0.684191 
node 1 1 1 1 0
node 2 1 1 1 0
node 3 1 1 1 0
node 4 1 1 1 0
node 5 1 1 1 0
node 6 1 1 1 0
node 7 1 1 1 0
node 8 1 1 1 0
node 9 1 1 1 0
node 10 1 1 1 0
node 11 1 1 1 0
node 12 1 1 1 0
node 13 1 1 1 0
node 14 1 1 1 0
node 15 1 1 1 0
node 16 1 1 1 0
node 17 1 1 1 0
node 18 1 1 1 0
node 19 1 1 3 0
node 20 1 0 2 0
node 21 1 0 2 0
node 22 1 0 0 0
node 26 1 0 0 0
node 27 1 0 0 0
node 39 1 0 0 0
node 46 1 0 0 0
node 51 1 0 0 0
node 65 1 0 0 0
node 69 1 0 0 0
node 75 1 0 0 0
node 76 1 0 0 0
node 85 1 0 0 0
node 86 1 0 0 0
node 114 1 0 0 0
node 116 1 0 0 0
node 117 1 0 0 0
node 123 1 0 0 0
node 125 1 0 0 0
node 132 1 0 0 0
node 134 1 0 0 0
node 138 1 0 0 0
node 161 1 0 0 0
node 164 1 0 0 0
node 200 1 0 0 0
node 204 1 0 0 0
node 208 1 0 0 0
node 224 1 0 0 0
gene 1 1 20 0.653675 0 1 0.653675 1
gene 1 2 20 0.480392 0 2 0.480392 1
gene 1 3 20 0.156173 0 3 0.156173 1
gene 1 4 20 2.65194 0 4 2.65194 1
gene 1 5 20 2.06205 0 5 2.06205 1
gene 1 6 20 0.933252 0 6 0.933252 1
gene 1 7 20 0.499755 0 7 0.499755 1
gene 1 8 20 1.22605 0 8 1.22605 1
gene 1 9 20 -0.933246 0 9 -0.933246 1
gene 1 10 20 0.0766095 0 10 0.0766095 1
gene 1 11 20 -0.825139 0 11 -0.825139 1
gene 1 12 20 1.5435 0 12 1.5435 1
gene 1 13 20 -0.185066 0 13 -0.185066 0
gene 1 14 20 -0.366529 0 14 -0.366529 0
gene 1 15 20 1.26879 0 15 1.26879 1
gene 1 16 20 0.639963 0 16 0.639963 1
gene 1 17 20 -2.68015 0 17 -2.68015 1
gene 1 18 20 2.21877 0 18 2.21877 1
gene 1 19 20 0.549648 0 19 0.549648 1
gene 1 1 21 0.363438 0 20 0.363438 1
gene 1 2 21 -0.900035 0 21 -0.900035 1
gene 1 3 21 -1.01187 0 22 -1.01187 1
gene 1 4 21 -1.13749 0 23 -1.13749 1
gene 1 5 21 -0.272589 0 24 -0.272589 1
gene 1 6 21 0.214047 0 25 0.214047 1
gene 1 7 21 0.282755 0 26 0.282755 1
gene 1 8 21 0.681166 0 27 0.681166 1
gene 1 9 21 0.104999 0 28 0.104999 1
gene 1 10 21 0.113448 0 29 0.113448 1
gene 1 11 21 -0.289323 0 30 -0.289323 0
gene 1 12 21 1.09519 0 31 1.09519 1
gene 1 13 21 0.446158 0 32 0.446158 1
gene 1 14 21 -0.18286 0 33 -0.18286 1
gene 1 15 21 -0.375713 0 34 -0.375713 1
gene 1 16 21 0.578501 0 35 0.578501 1
gene 1 17 21 0.49478 0 36 0.49478 1
gene 1 18 21 0.466741 0 37 0.466741 1
gene 1 19 21 -0.355805 0 38 -0.355805 1
gene 1 12 22 -0.997104 0 41 -0.997104 1
gene 1 22 21 1.14577 0 42 1.14577 1
gene 1 20 20 -0.00946534 1 43 -0.00946534 1
